{"type":"NeuralNetwork","sizes":[40,3,2],"layers":[{"weights":[],"biases":[]},{"weights":[[2.3278582096099854,3.2900278568267822,-0.22128011286258698,0.2730427384376526,0.4116784930229187,-0.11429067701101303,0.8835753798484802,0.5071294903755188,-1.2142632007598877,0.04514578357338905,0.6529026627540588,0.7283527255058289,0.7525947690010071,0.5959005951881409,0.6768869757652283,0.8404913544654846,1.1618015766143799,1.4612241983413696,0.23350442945957184,-0.3134169578552246,0.9565938711166382,1.121225118637085,0.3217025101184845,0.15233373641967773,0.16153496503829956,0.30426207184791565,-0.324127197265625,0.03200003504753113,1.324750542640686,1.0480670928955078,1.216135025024414,0.407742440700531,1.4884352684020996,1.5088940858840942,1.516912817955017,1.4187042713165283,0.9456605315208435,0.9074041247367859,0.7380996346473694,0.9914955496788025],[-1.8750419616699219,-2.6417508125305176,0.2675706744194031,-0.33905118703842163,-0.2160838544368744,0.078580342233181,-0.983230471611023,-0.4882458448410034,0.9726154804229736,0.16079702973365784,-0.475175678730011,-0.6257534623146057,-0.7408834099769592,-0.5244365930557251,-0.6521946787834167,-0.683959424495697,-1.0347191095352173,-1.061293363571167,-0.29457542300224304,0.21799056231975555,-1.0204699039459229,-1.0224298238754272,-0.2510114908218384,-0.004115518182516098,-0.03321593999862671,-0.01739402860403061,0.22089053690433502,-0.11274956166744232,-1.0236600637435913,-0.9051994681358337,-1.1317598819732666,-0.5502870678901672,-1.3341988325119019,-1.308464765548706,-1.1959295272827148,-1.0251086950302124,-0.7145906686782837,-0.8007011413574219,-0.7914363741874695,-0.8392562866210938],[-1.320884108543396,-1.2857178449630737,0.1168210506439209,-0.21773232519626617,0.012317690998315811,-0.03661930933594704,-0.4267735183238983,-0.28782370686531067,0.4447203576564789,0.06023299694061279,-0.382037490606308,-0.30003783106803894,-0.45170578360557556,-0.4820941984653473,-0.1566876620054245,-0.4539068043231964,-0.5058450102806091,-0.5300309658050537,-0.2506357729434967,0.07182206213474274,-0.7140398621559143,-0.4298543632030487,-0.2542307674884796,-0.13055704534053802,-0.14632029831409454,-0.06984174996614456,0.22466880083084106,0.0632205605506897,-0.46690282225608826,-0.5030575394630432,-0.46066465973854065,-0.2351517528295517,-0.7067640423774719,-0.7515518069267273,-0.6334269642829895,-0.44646909832954407,-0.3269227147102356,-0.48589110374450684,-0.43662235140800476,-0.42271777987480164]],"biases":[-1.440712809562683,1.1894898414611816,0.5136924982070923]},{"weights":[[5.649811267852783,-4.459348678588867,-2.3288307189941406],[-5.655331134796143,4.567975044250488,2.1273703575134277]],"biases":[0.10308974981307983,-0.055714163929224014]}],"inputLookup":null,"inputLookupLength":0,"outputLookup":{"spam":0,"notspam":1},"outputLookupLength":2,"options":{"inputSize":0,"outputSize":0,"binaryThresh":0.5,"hiddenLayers":[3],"learningRate":0.01},"trainOpts":{"activation":"sigmoid","iterations":20000,"errorThresh":0.005,"log":true,"logPeriod":500,"leakyReluAlpha":0.01,"learningRate":0.01,"momentum":0.1,"callbackPeriod":10,"timeout":"Infinity","beta1":0.9,"beta2":0.999,"epsilon":1e-8}}