{"type":"NeuralNetwork","sizes":[466,30,32],"layers":[{"weights":[],"biases":[]},{"weights":[[0.08742345869541168,0.04659965634346008,0.0581645742058754,-0.05791522189974785,-0.06350495666265488,0.09772378206253052,0.08354426920413971,0.019725101068615913,-0.0023022026289254427,0.06566384434700012,0.18470732867717743,0.06253170222043991,-0.36279237270355225,-0.5107659697532654,-2.094038248062134,-1.8113422393798828,-1.0883715152740479,-0.16658218204975128,0.5172449946403503,-0.059763096272945404,-0.43741679191589355,0.5244442820549011,0.4612773656845093,0.18801186978816986,1.3530843257904053,-0.9100099802017212,1.0896610021591187,-1.7942540645599365,0.12192025780677795,-0.4812043309211731,-0.8892287015914917,-0.04677000641822815,0.24148739874362946,0.055844858288764954,0.24647817015647888,-0.23537340760231018,0.1408734917640686,-0.13017649948596954,0.08699868619441986,0.055304620414972305,0.19771558046340942,0.04312626272439957,-0.11954690515995026,0.023376023396849632,0.04554642736911774,-0.048978086560964584,-0.08892321586608887,-0.024996262043714523,-0.03118979185819626,0.02594200149178505,0.12005695700645447,-0.035877760499715805,0.04753267392516136,0.04607699438929558,0.22821801900863647,0.2781827747821808,-0.04366584122180939,0.23713290691375732,-0.06185133755207062,0.14507487416267395,-0.17137739062309265,-0.012304821982979774,-0.09639578312635422,-0.14282278716564178,0.018008660525083542,0.23892761766910553,0.17663118243217468,0.2694842219352722,0.17476418614387512,0.07577229291200638,0.2551240622997284,-0.04635666310787201,0.06894852221012115,0.22244353592395782,0.2555587887763977,0.2300063669681549,0.23042190074920654,0.18759089708328247,0.06522200256586075,0.21643002331256866,0.20508629083633423,-0.04533633962273598,0.26004862785339355,-0.03843164071440697,0.010465623810887337,0.2220574915409088,0.08514464646577835,-0.03265130892395973,-0.031663522124290466,0.07297348976135254,0.08454455435276031,0.1550370454788208,0.20689281821250916,0.10637183487415314,0.067006915807724,0.21522629261016846,0.23783287405967712,0.06224142760038376,0.0560106597840786,-0.04838898777961731,-0.19364580512046814,0.19661206007003784,-0.09863587468862534,-0.1561976671218872,-0.03728703409433365,0.1627008318901062,-0.18625466525554657,0.1288873702287674,-0.003574101720005274,0.15270835161209106,0.06185060739517212,-0.09029293060302734,0.18238095939159393,-0.02666388265788555,0.008733898401260376,0.1588558703660965,0.05779832601547241,-0.19384601712226868,0.1878109574317932,-0.00859148520976305,-0.19442737102508545,0.17516691982746124,0.023514628410339355,-0.06961840391159058,0.17035432159900665,0.03363683074712753,-0.06369361281394958,-0.14404632151126862,-0.07080020010471344,-0.05741500109434128,0.19476450979709625,0.06348815560340881,0.14635984599590302,0.039813850075006485,-0.00964435376226902,0.05997978523373604,-0.12121215462684631,0.12748180329799652,0.18889251351356506,0.062157753854990005,-0.034984290599823,-0.11887522041797638,-0.10129144787788391,-0.012564064003527164,-0.11193292587995529,-0.151212677359581,0.027798639610409737,-0.021692849695682526,0.06109563261270523,0.007728973403573036,-0.08044850826263428,-0.16377010941505432,-0.048694219440221786,-0.054387275129556656,0.12123565375804901,0.021712690591812134,-0.09507055580615997,0.016959775239229202,0.09230334311723709,0.033062487840652466,-0.16360285878181458,-0.18836896121501923,0.11203125864267349,-0.21150635182857513,-0.03531035780906677,0.10750115662813187,-0.19647285342216492,-0.05739910155534744,0.05836109817028046,-0.085874043405056,0.0026685919146984816,0.03671357035636902,0.1086256206035614,0.03566617891192436,0.1444430649280548,0.05197800323367119,-0.0009441848378628492,0.13198180496692657,0.11484719812870026,0.16536153852939606,-0.18218077719211578,-0.01616007834672928,-0.14295032620429993,0.1524522602558136,0.1795734465122223,-0.033805251121520996,-0.1441929042339325,0.1452426165342331,-0.02834293432533741,-0.15930329263210297,-0.17047174274921417,0.10744217783212662,-0.08351895213127136,-0.08684135228395462,-0.09571961313486099,0.09875062853097916,0.19850993156433105,0.050951190292835236,-0.00629691407084465,-0.025982774794101715,0.004153518006205559,0.17006859183311462,-0.17308609187602997,0.19883723556995392,0.03216702863574028,-0.056698597967624664,-0.15822988748550415,0.08405870944261551,-0.1749282032251358,0.09205885231494904,0.10140278190374374,-0.13965171575546265,0.11709414422512054,-0.09528318792581558,-0.06785117089748383,-0.161475270986557,-0.023507393896579742,0.09123662859201431,0.08401377499103546,-0.020831560716032982,0.08408147841691971,-0.1722191870212555,-0.19100773334503174,-0.056201014667749405,0.04526747390627861,-0.06550080329179764,0.19287383556365967,0.022416574880480766,-0.15721619129180908,-0.10238634794950485,0.1289154440164566,0.19221258163452148,0.17639045417308807,0.07051590085029602,-0.17324469983577728,-0.18074199557304382,0.0005391890299506485,-0.08307544142007828,-0.1493833065032959,0.0036508040502667427,0.07612810283899307,-0.11310572177171707,0.06081471964716911,-0.15447847545146942,-0.16015297174453735,0.1668074131011963,0.07854296267032623,-0.06498827785253525,-0.0725114494562149,-0.16676239669322968,-0.059988874942064285,0.07908649742603302,0.14826542139053345,-0.024332566186785698,-0.08526993542909622,-0.022388778626918793,-0.12727078795433044,-0.10098379105329514,-0.08701303601264954,0.024280499666929245,-0.02625695988535881,-0.037502359598875046,0.1488230675458908,0.025568779557943344,0.02696475386619568,0.015220524743199348,-0.10968674719333649,-0.1768883764743805,-0.011639580130577087,-0.047311779111623764,-0.12179426103830338,0.04478592053055763,0.15315037965774536,0.16957604885101318,-0.05831817165017128,0.19498926401138306,0.04897109046578407,-0.09286931902170181,-0.08907472342252731,-0.0450548455119133,0.008165962062776089,-0.11991549283266068,-0.10908672213554382,-0.12615078687667847,0.11183060705661774,-0.17171545326709747,0.09103462100028992,0.17500126361846924,-0.1880260854959488,-0.17428675293922424,-0.19939902424812317,-0.005306575447320938,-0.025751730427145958,-0.06262868642807007,0.031763967126607895,0.0040496946312487125,0.010661390610039234,-0.0951877012848854,0.06935589015483856,0.09700009226799011,0.013013009913265705,0.05682099238038063,0.05628173425793648,-0.08605450391769409,-0.04900214448571205,0.11896805465221405,-0.09860444068908691,-0.17101046442985535,-0.017591087147593498,0.09776691347360611,-0.17756769061088562,0.18676882982254028,0.09084661304950714,-0.07781026512384415,-0.13328303396701813,0.10485123097896576,-0.002759478287771344,0.07478552311658859,-0.10288677364587784,-0.17472946643829346,-0.05052836239337921,0.025479692965745926,0.11562533676624298,-0.05144195631146431,-0.1475372463464737,-0.09921316057443619,-0.07788518816232681,0.04799240082502365,0.046237483620643616,0.013163115829229355,0.11032041907310486,-0.08899097144603729,0.08503667265176773,-0.10914784669876099,-0.08681255578994751,0.06496480852365494,-0.12669053673744202,-0.13507424294948578,0.1104242205619812,0.05097920075058937,-0.1150229275226593,0.06974522024393082,0.007353850174695253,0.006105267908424139,-0.1358647644519806,0.18898707628250122,0.15661846101284027,0.12370113283395767,-0.13302774727344513,0.02040707692503929,-0.14588168263435364,-0.11122018843889236,0.014984015375375748,0.1291682869195938,0.16582666337490082,0.05776197463274002,0.018235910683870316,-0.0976974293589592,-0.10209212452173233,-0.182045578956604,-0.013432633131742477,-0.06404103338718414,-0.142409086227417,0.06604418158531189,0.07369719445705414,0.06958997994661331,0.030932310968637466,0.13495135307312012,0.14601777493953705,0.09706676751375198,0.18501713871955872,0.0011482612462714314,-0.13101695477962494,0.18408429622650146,-0.11041789501905441,0.10960712283849716,0.10220442712306976,-0.028806524351239204,0.16891857981681824,0.14014631509780884,-0.18795184791088104,-0.17338724434375763,0.02584054507315159,0.17215058207511902,0.02657742239534855,0.05171508342027664,-0.16222189366817474,0.04200926423072815,0.055552106350660324,0.07410205155611038,-0.03436768427491188,0.1433357298374176,0.19888393580913544,-0.08903224766254425,-0.12392718344926834,-0.0010049326810985804,0.0386715829372406,-0.1427694857120514,-0.01539069227874279,-0.03906621038913727,0.16666646301746368,-0.015502501279115677,0.18068277835845947,0.054270513355731964,0.08868975192308426,-0.06596130132675171,-0.19642014801502228,-0.08450984209775925,0.0859246701002121,-0.15297479927539825,0.08836932480335236,-0.16251127421855927,0.04423142597079277,-0.12247850000858307,0.13889209926128387,0.17959347367286682,-0.12185721099376678,-0.024230781942605972,-0.1859363168478012,0.0425204373896122,0.11703784018754959,0.0601959228515625,-0.14957422018051147,-0.057490117847919464,0.057454150170087814,-0.029530640691518784,0.14295807480812073,-0.06232652813196182,-0.18729139864444733,-0.08225187659263611,0.09553980827331543,0.10562940686941147,0.1038147360086441,0.015425707213580608,-0.1498616486787796,-0.12688204646110535,-0.1008024588227272,0.1872839331626892,-0.03839140385389328,-0.03797344118356705,0.1717887967824936,-0.19285400211811066,-0.008462877944111824,-0.03775305300951004,-0.1767338216304779,-0.10595787316560745,-0.07286990433931351,-0.009186501614749432,0.017321091145277023,-0.005751535762101412,-0.13471591472625732,0.17298424243927002,0.09591939300298691,-0.15320104360580444,-0.09875765442848206,0.02576536126434803,0.19613395631313324,0.14835694432258606,0.04554690048098564,0.1939382404088974,0.19166266918182373,0.0786469355225563,-0.14085233211517334,-0.09546356648206711,0.09131335467100143,-0.07069861143827438],[0.13955534994602203,0.1079125925898552,-0.051737044006586075,-0.12172091752290726,-0.035489071160554886,0.15641248226165771,-0.0005188380018807948,0.04401096701622009,0.1359458565711975,-0.09145906567573547,-0.11489450186491013,0.08399052172899246,1.7662649154663086,-2.032644510269165,-1.190232753753662,-0.8079290986061096,0.09589514881372452,-0.14631101489067078,0.20112811028957367,-0.7630671858787537,0.34460628032684326,-0.16274426877498627,-0.1019635871052742,0.017407823354005814,0.39663225412368774,0.5269445776939392,-0.5079492926597595,-0.3308466076850891,0.028028469532728195,0.9175447225570679,0.33444246649742126,-0.12167268246412277,0.006973278243094683,-0.0407366119325161,-0.028399169445037842,0.4138850271701813,0.09643112123012543,0.217153862118721,0.10871148109436035,-0.0873982235789299,0.1556168794631958,0.15281400084495544,0.09278278052806854,0.19913335144519806,0.24676014482975006,0.091683529317379,-0.06322339177131653,0.09567093849182129,-0.09474135935306549,-0.012796402908861637,0.10360313951969147,0.06327065080404282,0.1451454907655716,-0.06173139065504074,-0.0761132761836052,-0.02899266593158245,-0.11524216085672379,-0.18231362104415894,-0.1385727971792221,0.07989758998155594,0.039571575820446014,-0.18577519059181213,0.10145340859889984,0.24566976726055145,0.17456012964248657,-0.078074611723423,-0.004015483893454075,-0.1323491632938385,-0.19249141216278076,0.027004843577742577,-0.03662213683128357,-0.007121025584638119,0.05342043936252594,-0.01785394735634327,-0.053034860640764236,-0.09846749156713486,-0.03538957238197327,0.16425420343875885,-0.017914243042469025,0.03993973508477211,-0.11604642868041992,0.1787012219429016,0.057901572436094284,-0.031442709267139435,-0.13169142603874207,0.1649792343378067,0.13934552669525146,0.14370018243789673,-0.005434766411781311,0.006384399253875017,-0.01323883980512619,0.06732149422168732,0.18888774514198303,0.0004043791559524834,0.11719997227191925,0.16067185997962952,-0.1220085620880127,-0.05872151628136635,0.015467209741473198,0.1462782472372055,0.0645051896572113,0.05418075621128082,0.11078919470310211,-0.19836615025997162,-0.1488494873046875,-0.18344758450984955,0.1207670196890831,-0.053794976323843,-0.056042060256004333,-0.06966875493526459,0.014760710299015045,0.07195904105901718,0.060848452150821686,-0.07010029256343842,-0.1654774695634842,0.13577507436275482,0.16094809770584106,-0.07877876609563828,-0.020807702094316483,-0.13764509558677673,-0.06078920140862465,-0.16555455327033997,0.08314981311559677,0.029995450749993324,-0.05681588873267174,0.2111591249704361,-0.08893872052431107,-0.1691526621580124,0.08441533148288727,0.058210182934999466,0.15640020370483398,0.13141082227230072,-0.13665299117565155,-0.0945863351225853,0.1488020271062851,-0.1503489762544632,-0.04649974778294563,-0.0857880488038063,0.15751145780086517,0.03230014815926552,-0.022506283596158028,-0.18343043327331543,0.11122606694698334,-0.1562126725912094,0.18481262028217316,0.09592168033123016,-0.1670747995376587,0.023890836164355278,-0.11347924917936325,0.15287458896636963,-0.10802779346704483,-0.07225162535905838,0.16273710131645203,0.16115480661392212,0.07064202427864075,-0.06941895186901093,-0.054097145795822144,-0.17624397575855255,-0.04991282522678375,-0.0687912330031395,0.06773941963911057,-0.028748389333486557,0.19660645723342896,-0.05423150956630707,-0.07117712497711182,0.190389946103096,0.12161797285079956,0.005058877170085907,-0.0863439217209816,0.1562102884054184,-0.0208269190043211,-0.11960608512163162,0.3173774778842926,0.08000048995018005,-0.11156392097473145,0.10489390790462494,-0.12567868828773499,-0.00922300387173891,-0.08936018496751785,0.0014606349868699908,0.16139721870422363,-0.1663179248571396,0.090190090239048,-0.13915754854679108,0.01726251095533371,-0.03363543748855591,-0.1554124355316162,-0.054075662046670914,-0.02338379994034767,-0.0898466408252716,0.14456595480442047,-0.010890966281294823,-0.02410946600139141,-0.1949382722377777,0.044235799461603165,0.14500948786735535,-0.14554809033870697,0.08418213576078415,-0.09816242009401321,-0.14196768403053284,-0.08216885477304459,-0.10765670239925385,-0.10403536260128021,0.14419449865818024,-0.039489004760980606,0.11450078338384628,-0.1637325882911682,-0.16778364777565002,-0.1173776388168335,-0.07096005976200104,-0.15487459301948547,-0.015889156609773636,-0.1702120006084442,-0.09384593367576599,0.12297666817903519,-0.09767542779445648,-0.07737313210964203,-0.1829356700181961,-0.047085754573345184,-0.0906706228852272,0.12789477407932281,-0.010198453441262245,0.10573308169841766,0.056933123618364334,-0.06980728358030319,-0.1323363333940506,0.028714222833514214,0.008781873621046543,-0.14858926832675934,0.18865567445755005,0.15255442261695862,0.11325663328170776,0.029021821916103363,-0.12257292866706848,-0.10571596026420593,-0.16161789000034332,0.14211182296276093,0.14397016167640686,0.14688843488693237,0.09248264878988266,-0.15003326535224915,0.0312805250287056,-0.016704320907592773,0.16155128180980682,0.02876577340066433,0.13407380878925323,-0.17400987446308136,0.06462623924016953,0.012150442227721214,0.13010387122631073,0.17174285650253296,0.06100757420063019,-0.09129423648118973,0.04909098148345947,-0.190852552652359,-0.12733356654644012,0.04934657737612724,0.13171574473381042,0.1687040627002716,-0.019338546320796013,-0.08422580361366272,-0.10029663890600204,0.16743996739387512,-0.04568754509091377,0.06584792584180832,-0.1261707842350006,0.12006493657827377,0.06010857969522476,0.10669821500778198,-0.16747449338436127,0.07274214923381805,-0.11499917507171631,-0.1910102218389511,-0.15806712210178375,0.03319719061255455,-0.10070911794900894,0.1443331390619278,-0.047916434705257416,-0.1941283792257309,-0.1115502193570137,-0.025542816147208214,-0.11096952110528946,0.0578758679330349,0.022683052346110344,-0.06248157098889351,-0.05850636586546898,0.0038084746338427067,0.16345439851284027,-0.1930563747882843,0.1683923304080963,-0.01766483299434185,0.15560248494148254,0.0884336531162262,0.08726033568382263,0.05232561379671097,0.0844004899263382,-0.017556028440594673,0.08374621719121933,0.07544953376054764,-0.1413157880306244,0.18896238505840302,0.14887523651123047,0.10405849665403366,0.14855507016181946,0.1855574995279312,0.07749617844820023,0.13063323497772217,0.06238502264022827,0.11652030050754547,-0.001135870348662138,-0.01726919412612915,0.11885789781808853,0.04941610246896744,-0.03083186410367489,0.24592159688472748,0.017345238476991653,0.07873901724815369,-0.1893329918384552,-0.17401883006095886,0.029579950496554375,0.014806081540882587,0.12640875577926636,-0.04537690803408623,0.18133097887039185,0.10160137712955475,0.15054887533187866,-0.016835292801260948,0.1731061190366745,0.06708632409572601,-0.17184613645076752,-0.06711683422327042,-0.17110079526901245,0.148391991853714,0.1927165538072586,0.01255777757614851,0.12451771646738052,0.026827314868569374,0.07540640980005264,-0.15328668057918549,0.14714361727237701,-0.1013391986489296,0.05159541219472885,-0.10650201141834259,-0.13813945651054382,-0.030734144151210785,0.04342769831418991,-0.19868817925453186,0.1494351476430893,0.0188347976654768,-0.1798827052116394,0.14029742777347565,0.15503278374671936,-0.14243654906749725,-0.0685039758682251,0.0045300936326384544,0.10805688053369522,0.10544097423553467,0.015691688284277916,0.08151545375585556,0.13788928091526031,0.19497206807136536,-0.06523445248603821,0.12432786822319031,0.03267054632306099,-0.001991837052628398,0.18472886085510254,0.13843175768852234,-0.026463115587830544,0.07731776684522629,-0.07198936492204666,-0.022070856764912605,0.11775951087474823,-0.11253058910369873,0.0325179286301136,0.013148793019354343,-0.09513629227876663,0.1919601559638977,-0.10474364459514618,-0.10376844555139542,-0.17074322700500488,-0.02761472389101982,0.03161954507231712,0.08685828745365143,-0.19924010336399078,-0.16103717684745789,0.010306864976882935,0.1949853152036667,-0.0771658793091774,-0.10853487998247147,-0.19821326434612274,0.11356744170188904,-0.07712113857269287,0.05856505036354065,-0.19053426384925842,0.14906832575798035,-0.015539946965873241,-0.18689419329166412,0.035719867795705795,-0.04875755310058594,-0.1286129504442215,-0.09152429550886154,-0.15523101389408112,-0.15648677945137024,-0.10736221075057983,0.07871983200311661,-0.1083986908197403,-0.14891578257083893,-0.06628721952438354,0.10406969487667084,0.023457340896129608,0.07562694698572159,0.13343167304992676,0.09244813024997711,0.041085194796323776,0.019559035077691078,-0.07059276849031448,-0.16797210276126862,0.051584143191576004,0.0759180560708046,0.11253461241722107,-0.036432214081287384,-0.08215375244617462,0.1963476538658142,0.11755301803350449,0.06109488382935524,-0.04526996240019798,0.16077600419521332,-0.07024016976356506,0.1973114162683487,-0.09011402726173401,0.10854633152484894,0.015267946757376194,0.17122089862823486,0.09921211749315262,-0.06869573146104813,0.09597546607255936,-0.19186082482337952,0.11349213123321533,0.42157799005508423,-0.18599605560302734,0.1282745897769928,0.15974360704421997,-0.15392889082431793,0.04662124812602997,-0.12653748691082,-0.12119553238153458,0.044792722910642624,0.025938140228390694,0.12620067596435547,0.11667764186859131,0.2705078125,-0.15014590322971344,-0.027572747319936752,-0.13823965191841125,0.1356244832277298,0.192710742354393,0.13560810685157776,-0.054195668548345566,0.16270038485527039,0.1236012652516365,-0.14027933776378632,0.12886473536491394,-0.10698038339614868,-0.1411220133304596,0.05481898784637451,0.0532948300242424],[0.1515425145626068,0.278373658657074,0.21744085848331451,0.08373764157295227,-0.02908535860478878,0.023606782779097557,-0.04020107910037041,0.12716804444789886,0.07579365372657776,-0.02410306967794895,0.05869963765144348,0.20412378013134003,-1.96955144405365,-0.7612780928611755,-0.5502426624298096,-1.4289947748184204,-0.9215174317359924,-1.2940481901168823,-0.47933486104011536,-0.7674105167388916,-0.2693290412425995,0.823124349117279,0.4244818389415741,0.508205771446228,1.302750825881958,-2.1250712871551514,2.146066665649414,-2.558915853500366,0.03418981283903122,-0.8309265971183777,-0.722202718257904,-0.30301204323768616,0.042402561753988266,-0.006695715710520744,-0.034650128334760666,0.1753040999174118,0.09755902737379074,0.21756607294082642,0.17462243139743805,-0.015559472143650055,0.006587785668671131,0.006233842112123966,0.014974929392337799,0.20214177668094635,0.0904424712061882,0.1565978229045868,0.055071037262678146,0.024091439321637154,0.04414135962724686,0.13960959017276764,0.06683772057294846,-0.05592701956629753,0.13273443281650543,0.023520205169916153,-0.041884634643793106,0.08543425798416138,-0.01591114141047001,-0.014048145152628422,0.028351757675409317,0.16179253160953522,0.19080647826194763,0.09843406826257706,0.13143400847911835,0.11689775437116623,0.13344088196754456,0.04717760160565376,0.28357741236686707,0.08709757775068283,0.22343772649765015,-0.04937295243144035,0.10822352766990662,0.08811268955469131,0.259516179561615,0.22666221857070923,-0.051313575357198715,0.019869893789291382,-0.0398884117603302,-0.077892005443573,0.1535583734512329,-0.04549599066376686,0.1465996503829956,0.05047295242547989,0.16336974501609802,0.02836129069328308,-0.009581374004483223,0.0835026279091835,0.27500712871551514,0.11098504066467285,0.17431126534938812,0.27144527435302734,0.07028767466545105,0.2671181261539459,0.24933849275112152,-0.05059629678726196,0.16681444644927979,0.13407476246356964,0.16645486652851105,-0.027157310396432877,-0.023094555363059044,-0.16862954199314117,0.18788671493530273,-0.04419886693358421,-0.1416032910346985,-0.1209266409277916,0.018429450690746307,0.08828945457935333,0.18469709157943726,0.02670425735414028,-0.18418148159980774,0.14001289010047913,0.027708305045962334,0.1910550445318222,-0.18533514440059662,-0.19515720009803772,0.022364307194948196,0.019168853759765625,0.12211469560861588,0.09712205082178116,0.0892481729388237,0.18065476417541504,-0.07475285232067108,0.07404318451881409,-0.14346881210803986,0.007529738359153271,-0.010226113721728325,0.08461793512105942,0.15042491257190704,-0.13078995048999786,0.1395566463470459,-0.054953306913375854,-0.10706130415201187,0.1289491504430771,-0.024284573271870613,-0.006667811889201403,0.09210613369941711,-0.07714702934026718,-0.13849741220474243,0.018856042996048927,0.025188934057950974,-0.08023103326559067,0.1863337606191635,-0.1742110401391983,-0.07703530043363571,-0.027814427390694618,0.1815318912267685,0.01264133770018816,-0.07064332067966461,-0.09052015841007233,0.026148058474063873,0.013130825944244862,0.1586497724056244,0.06205829605460167,0.16938966512680054,0.013393200002610683,0.09048456698656082,0.04378236085176468,0.06975357979536057,0.1628267765045166,0.12033531814813614,0.04162963479757309,-0.020829813554883003,-0.1882815808057785,0.07175464183092117,0.16809013485908508,0.21712028980255127,0.21675780415534973,0.028053991496562958,-0.1777849942445755,0.08224038034677505,-0.10754144191741943,0.01635465770959854,0.020976603031158447,0.22823911905288696,0.17516086995601654,-0.1466599851846695,-0.12685051560401917,-0.09650567173957825,0.1714305579662323,0.10894858092069626,0.09318335354328156,0.0323977917432785,0.06754410266876221,-0.09811189025640488,0.00037638735375367105,-0.003497088560834527,0.025356264784932137,0.144295796751976,-0.06232700124382973,-0.15198279917240143,0.04888896271586418,0.046787671744823456,-0.026534782722592354,0.12562209367752075,0.11620714515447617,-0.051257453858852386,-0.169340580701828,0.04038175567984581,0.003922082483768463,0.08156698942184448,0.17480024695396423,0.13662302494049072,0.05320928618311882,-0.00525278877466917,0.08166629821062088,0.14484944939613342,-0.05117692053318024,-0.17017324268817902,-0.16870863735675812,-0.09584025293588638,-0.05880102887749672,0.1122010201215744,0.10518385469913483,-0.09744418412446976,-0.1889490783214569,0.05726150795817375,0.06638212502002716,0.05190638080239296,0.0675884559750557,0.005773093085736036,-0.05748555809259415,-0.04218488931655884,-0.05649002268910408,0.040202219039201736,0.04833027720451355,-0.08804339170455933,0.12918511033058167,-0.06285339593887329,-0.0709841325879097,-0.12959784269332886,-0.10570138692855835,-0.08021705597639084,-0.07510427385568619,0.13262170553207397,-0.04781370237469673,-0.009857521392405033,-0.005042391363531351,-0.18385395407676697,-0.07232474535703659,-0.13833090662956238,0.13316448032855988,-0.036307066679000854,0.18633529543876648,-0.14606347680091858,-0.11946173012256622,-0.019929295405745506,0.07037524878978729,-0.0886201560497284,-0.0010717591503635049,0.1405363529920578,0.008272320963442326,0.12246983498334885,-0.026973193511366844,-0.15127240121364594,0.14688804745674133,0.16101457178592682,0.025986500084400177,0.1680580973625183,0.01807379350066185,-0.05906261131167412,-0.0551711767911911,-0.006582618225365877,-0.17230729758739471,-0.03549337387084961,0.13151048123836517,0.0018520466983318329,0.039207641035318375,-0.19327998161315918,-0.06352154165506363,0.026959264650940895,0.13463468849658966,-0.07038301974534988,-0.19592292606830597,0.06406254321336746,0.1240801066160202,0.16013400256633759,-0.18718981742858887,-0.16039252281188965,0.06137159839272499,0.18072491884231567,-0.12112348526716232,0.10503492504358292,0.10531020909547806,0.141531839966774,0.02571122907102108,-0.021176280453801155,-0.19542670249938965,0.18298690021038055,-0.18052411079406738,-0.08755432069301605,0.17857331037521362,0.14992286264896393,0.18123969435691833,-0.06328423321247101,-0.0983148142695427,-0.11411236971616745,0.007648179307579994,0.11119687557220459,-0.011265934444963932,-0.12955419719219208,-0.03494185209274292,0.005051363725215197,0.08853437006473541,-0.19349297881126404,-0.19980135560035706,0.18190808594226837,-0.18192711472511292,-0.13958388566970825,0.10585145652294159,0.08262621611356735,0.04713258147239685,0.11089935153722763,0.07949604839086533,0.1779613196849823,0.1655770093202591,0.19080770015716553,-0.04644449055194855,0.08301898092031479,0.08386208117008209,-0.15341125428676605,-0.14544162154197693,0.19081257283687592,0.18313060700893402,0.04546535387635231,0.18440654873847961,0.1710233986377716,-0.06443570554256439,0.13443057239055634,0.1922471821308136,-0.02154567837715149,0.06503606587648392,-0.14301982522010803,-0.019620895385742188,0.1503363400697708,0.02035389468073845,0.13081544637680054,-0.19838398694992065,0.03338223695755005,0.05346919223666191,0.12140808254480362,-0.11093323677778244,0.04201137647032738,-0.036799442023038864,-0.0222407765686512,0.16881971061229706,0.16686761379241943,-0.13018016517162323,0.04459625855088234,0.045529041439294815,0.13342218101024628,0.12481410801410675,-0.028197266161441803,0.0877452865242958,-0.024836795404553413,-0.106314517557621,-0.009911957196891308,0.1285419762134552,-0.027426110580563545,0.10703842341899872,0.010483941063284874,0.13265851140022278,-0.03524516895413399,0.011269771493971348,0.08455392718315125,0.04719050973653793,-0.06628711521625519,0.08687746524810791,0.15693584084510803,0.15656454861164093,0.16160234808921814,0.10864681005477905,0.06740238517522812,0.09618991613388062,-0.056611668318510056,-0.0042882151901721954,0.18170437216758728,0.13518854975700378,-0.05643036589026451,0.10165726393461227,0.004607443697750568,0.0809793472290039,0.09276454895734787,-0.15512900054454803,-0.06288344413042068,0.05682368576526642,-0.061108414083719254,-0.07833243906497955,0.07798884809017181,0.08476578444242477,-0.098045714199543,-0.19560451805591583,0.1317289173603058,-0.08606450259685516,-0.05880161374807358,0.1115340143442154,0.03640351444482803,0.1460910141468048,0.028786126524209976,0.09266261756420135,-0.062038447707891464,0.14337798953056335,0.08986402302980423,-0.09337648749351501,-0.06441131979227066,0.006739787291735411,0.164937362074852,-0.19293168187141418,0.16625471413135529,0.035437654703855515,0.1082666739821434,0.07040686905384064,0.06927894800901413,0.18832921981811523,-0.060991331934928894,0.016726693138480186,-0.01916143298149109,-0.07294198870658875,-0.10127858817577362,0.06932801008224487,-0.033928632736206055,0.001808084431104362,0.12544724345207214,-0.14516432583332062,-0.05303174629807472,0.0684964582324028,0.16485285758972168,-0.11208131164312363,-0.00918385200202465,0.0014819031348451972,-0.11778327077627182,-0.08895373344421387,0.13455194234848022,-0.18995721638202667,-0.1638321578502655,0.00269868690520525,-0.042925264686346054,0.17841672897338867,-0.007797196973115206,-0.19004151225090027,0.012716559693217278,0.08482707291841507,0.025204665958881378,0.05447990819811821,-0.009555707685649395,0.046383678913116455,0.09884864836931229,-0.16561125218868256,-0.11939642578363419,-0.03255308046936989,0.13816216588020325,0.14538447558879852,0.15414558351039886,0.06643994897603989,-0.14489898085594177,-0.13867613673210144,0.09039057791233063,-0.07931257039308548,0.16932302713394165,0.030131492763757706,0.1851351112127304,0.1866358518600464,-0.04156625643372536,0.16236670315265656,-0.13304683566093445,0.1516575962305069,-0.13572335243225098,-0.0645211860537529],[-0.08170759677886963,0.022314276546239853,-0.1808558851480484,-0.18369396030902863,-0.25179603695869446,0.01325127575546503,-0.2620258927345276,-0.0691462829709053,-0.32489076256752014,-0.27785488963127136,-0.17069251835346222,-0.22342456877231598,1.129812240600586,1.790380835533142,-0.37237289547920227,0.028168467804789543,-1.0310558080673218,0.2859736680984497,1.1924000978469849,0.34143444895744324,0.4707379639148712,0.5665011405944824,0.40873751044273376,0.4609626829624176,-0.06059253588318825,0.48289456963539124,0.22504429519176483,0.6562303900718689,0.10111535340547562,0.3149305284023285,0.3114285171031952,0.3893458843231201,-0.22311025857925415,-0.03417583182454109,-0.3211137056350708,0.01159812044352293,-0.06986366957426071,-0.12846651673316956,-0.042750775814056396,0.030124973505735397,0.08684928715229034,0.06465665996074677,-0.13219274580478668,0.18058358132839203,0.03939022868871689,-0.18227732181549072,-0.03657018393278122,-0.30589622259140015,-0.23413197696208954,-0.017980681732296944,-0.1039218083024025,-0.311864972114563,0.012996356002986431,0.04948417469859123,-0.18536508083343506,-0.12364455312490463,-0.08187811821699142,0.0020497723016887903,-0.35052329301834106,-0.30381864309310913,-0.2551210820674896,-0.2610870599746704,-0.18737734854221344,0.02611628733575344,-0.2997848689556122,-0.16193270683288574,-0.23896640539169312,-0.18428002297878265,-0.1336887627840042,-0.1973409354686737,-0.10723157972097397,-0.3531877100467682,-0.050171006470918655,0.02886815369129181,-0.006053437944501638,-0.27136456966400146,-0.12706558406352997,-0.0905882716178894,-0.1334674209356308,-0.27820146083831787,-0.20979052782058716,-0.1979428380727768,-0.06729082018136978,-0.10173030197620392,-0.09868974983692169,-0.01905815489590168,-0.058946751058101654,-0.29737868905067444,-0.16940174996852875,-0.15987466275691986,-0.11868896335363388,-0.08800491690635681,-0.05136142671108246,-0.12003527581691742,-0.25368836522102356,-0.03743838518857956,-0.07967554032802582,-0.16842618584632874,-0.03919634222984314,0.19996221363544464,0.044244516640901566,-0.14027489721775055,-0.0016310802893713117,-0.0325159914791584,-0.11492972075939178,-0.12869952619075775,-0.02128499001264572,-0.10869977623224258,-0.1123129352927208,-0.0857844203710556,0.0835040956735611,0.13459259271621704,0.06978592276573181,-0.13599780201911926,0.1345946490764618,0.07221566885709763,0.13301219046115875,0.10805491358041763,0.13584865629673004,-0.13984684646129608,0.07473132014274597,-0.17386604845523834,0.009154473431408405,0.12939396500587463,-0.041638411581516266,-0.09879256784915924,-0.031382977962493896,-0.09345067292451859,-0.03794330358505249,-0.19660501182079315,-0.19914329051971436,0.014124514535069466,-0.17549440264701843,0.18842236697673798,0.06409551203250885,-0.08476023375988007,-0.18532048165798187,-0.07383245974779129,-0.030226698145270348,-0.052051715552806854,-0.1543578952550888,-0.08890914916992188,0.013255635276436806,-0.19657503068447113,0.019396210089325905,0.07029252499341965,-0.03807595744729042,0.1725175380706787,-0.07262197136878967,-0.1062120646238327,-0.08280157297849655,-0.0660862848162651,0.1364137977361679,0.09303456544876099,0.025952385738492012,-0.060236766934394836,-0.10314097255468369,-0.10990770161151886,-0.15480369329452515,0.11351627856492996,0.14385686814785004,-0.16812701523303986,-0.1421983242034912,0.17671386897563934,-0.1952454000711441,0.04570334404706955,0.16909672319889069,-0.09272494167089462,-0.16161204874515533,-0.1737261563539505,-0.14907459914684296,0.19782103598117828,-0.19131261110305786,0.10107375681400299,0.07849695533514023,0.17899219691753387,0.1794479638338089,-0.008003879338502884,-0.05839143693447113,-0.069053053855896,0.0006929176161065698,-0.0961856096982956,0.09264662116765976,0.19108811020851135,-0.030421916395425797,-0.04971480369567871,-0.08720968663692474,0.023810941725969315,-0.15915250778198242,0.057137928903102875,0.18586312234401703,-0.057043932378292084,0.10879924148321152,0.16843540966510773,0.12022532522678375,0.0026582074351608753,0.06741061061620712,-0.17193469405174255,0.048461299389600754,0.12891900539398193,-0.03857983648777008,-0.004364309832453728,-0.046199679374694824,-0.004395371302962303,-0.019339635968208313,-0.019996190443634987,-0.03964899107813835,-0.0036590383388102055,0.016827324405312538,0.0823526531457901,0.16362927854061127,0.06584034115076065,0.028909530490636826,0.056966476142406464,-0.03032711334526539,0.058621808886528015,0.13102279603481293,0.04908384755253792,0.010985221713781357,-0.08823540806770325,-0.17666961252689362,-0.11628405749797821,-0.017707476392388344,0.1153976246714592,0.026542862877249718,0.12410467118024826,0.09397320449352264,-0.17073820531368256,-0.15466147661209106,0.1256023794412613,-0.014058555476367474,0.10807377845048904,0.12773263454437256,-0.16898445785045624,0.0021418696269392967,-0.07758260518312454,-0.16466140747070312,-0.01307121105492115,0.1314404308795929,0.1557699739933014,0.19267433881759644,0.048947788774967194,0.002971119713038206,-0.1937849521636963,-0.1622420996427536,-0.09874614328145981,0.07727961242198944,-0.007966730743646622,0.18307414650917053,0.13263989984989166,-0.08968427777290344,0.16854584217071533,-0.14078804850578308,0.19013424217700958,0.13306494057178497,-0.03929208219051361,-0.17108075320720673,-0.15927302837371826,-0.16078051924705505,0.1984802782535553,-0.09619776159524918,0.16082769632339478,-0.18081466853618622,0.04577934741973877,-0.1972869634628296,0.0849529355764389,-0.15647155046463013,-0.05725984647870064,-0.16349203884601593,-0.11386515945196152,0.17768868803977966,-0.02813521958887577,-0.10574528574943542,0.07479801028966904,-0.1042124405503273,-0.05895310640335083,0.13191460072994232,0.050429828464984894,-0.19861476123332977,-0.07880416512489319,-0.09856009483337402,0.14399880170822144,-0.17074081301689148,-0.0744212344288826,-0.17198041081428528,-0.1409793645143509,-0.021152865141630173,-0.19056490063667297,-0.1339210867881775,0.029445873573422432,0.02590389922261238,-0.12685732543468475,-0.14794327318668365,0.1559293270111084,0.03288771212100983,-0.07539299875497818,0.034288279712200165,0.15513497591018677,0.19717815518379211,0.10600494593381882,-0.19784191250801086,-0.17673730850219727,0.0016770628280937672,0.1014447808265686,-0.11143519729375839,-0.16041451692581177,-0.09971784055233002,0.1712033599615097,-0.049679335206747055,-0.18389756977558136,0.09376515448093414,-0.19246365129947662,-0.021608944982290268,-0.07603861391544342,0.0942503809928894,0.14450876414775848,-0.17570972442626953,0.11240873485803604,0.021104348823428154,0.06748613715171814,0.19715437293052673,0.10168126225471497,-0.19966743886470795,-0.14474517107009888,-0.06251657009124756,-0.14196628332138062,-0.042802948504686356,0.009123838506639004,0.18281765282154083,0.07293648272752762,-0.004683296661823988,0.17912188172340393,-0.07115340977907181,-0.15021273493766785,0.09308380633592606,0.04395848512649536,-0.0446343757212162,-0.16311335563659668,-0.12371567636728287,-0.12728238105773926,-0.1809982806444168,-0.023547442629933357,-0.15723954141139984,-0.133163720369339,0.1912284791469574,0.00902120303362608,-0.11962392926216125,-0.03688231110572815,0.1415042132139206,-0.006755600683391094,0.15986844897270203,0.15487483143806458,-0.10313786566257477,0.18293291330337524,-0.05613953620195389,0.006110676098614931,-0.16047097742557526,0.1517917364835739,0.14183664321899414,0.12157754600048065,-0.1474064290523529,0.17682109773159027,0.0004317910934332758,0.08392447233200073,0.17006033658981323,0.04212053492665291,0.1886487752199173,-0.10918367654085159,0.005489456932991743,0.1358705759048462,0.11410105973482132,-0.06621149927377701,0.17867505550384521,0.0661931037902832,0.11597688496112823,-0.052525125443935394,0.053028833121061325,-0.1952323019504547,0.1654045730829239,-0.1284255087375641,0.0512162409722805,-0.030104737728834152,-0.02754909358918667,0.06428035348653793,0.025099484249949455,-0.17837552726268768,-0.13545109331607819,-0.04263070970773697,-0.14219872653484344,-0.19083955883979797,-0.005840140860527754,-0.1967015564441681,-0.1783033162355423,-0.11776226758956909,0.10403595119714737,-0.18228864669799805,-0.11941857635974884,-0.059698037803173065,-0.17397062480449677,-0.1854829639196396,-0.002774791559204459,0.03386954590678215,0.18811093270778656,-0.15624916553497314,-0.16739840805530548,0.1630278080701828,-0.03430192172527313,-0.1510869711637497,-0.1817055493593216,-0.0012671269942075014,-0.01662449724972248,-0.01926419883966446,0.04273689165711403,-0.15735654532909393,0.16433508694171906,0.13634119927883148,0.14033469557762146,0.12851576507091522,-0.07200182229280472,0.10444466024637222,-0.03068246878683567,0.08822007477283478,0.006582322530448437,-0.07013390213251114,-0.017060821875929832,-0.02804626151919365,-0.0062939939089119434,-0.17656239867210388,-0.05452284961938858,0.159709170460701,-0.16535907983779907,-0.15899443626403809,-0.0517021007835865,-0.1196967363357544,0.1844993382692337,-0.19111591577529907,0.06998736411333084,0.024530084803700447,-0.25219398736953735,0.15402986109256744,-0.02169877663254738,-0.18996088206768036,-0.16514332592487335,0.19345760345458984,-0.03505833074450493,-0.18968451023101807,-0.000993296387605369,0.06653651595115662,0.1794254332780838,0.0247369222342968,-0.04769696667790413,0.19828739762306213,0.1367539018392563,-0.07444560527801514,0.15646058320999146,-0.01598249562084675,0.0614018552005291,0.002336899284273386,-0.0642072930932045,0.19744382798671722,-0.02779584936797619,0.1290459781885147,0.16747699677944183,-0.020919738337397575,0.009812218137085438,-0.058509793132543564],[0.02995302714407444,0.058691807091236115,0.2810131013393402,-0.02308310568332672,0.06718120723962784,0.2535412907600403,-0.010916636325418949,0.27016785740852356,0.22298309206962585,0.10391496121883392,0.052037376910448074,0.08025380223989487,-0.8598113059997559,-0.27615344524383545,-0.9324188232421875,-0.14686480164527893,-0.4578017592430115,0.3294188976287842,0.9769408702850342,-0.4279215931892395,-0.1562412977218628,-1.0790518522262573,-0.5520651936531067,-0.6274592280387878,-1.099685788154602,2.725337266921997,-3.2782301902770996,2.5389561653137207,0.16454525291919708,-0.9133751392364502,-0.47899341583251953,0.039094094187021255,-0.0840793177485466,0.1656636744737625,-0.08081461489200592,-0.12580661475658417,-0.06935244798660278,-0.32294127345085144,-0.16460774838924408,0.15349765121936798,-0.18684905767440796,-0.13901858031749725,-0.04581228643655777,0.14465825259685516,-0.08498457074165344,0.10925854742527008,-0.0327913723886013,0.17939503490924835,0.005940758623182774,0.1386813521385193,0.2837370038032532,0.294185996055603,0.1934695541858673,0.18032898008823395,-0.0007934999302960932,0.02664325013756752,0.1563497930765152,-0.08955413103103638,-0.028941791504621506,0.016120288521051407,-0.3279431164264679,0.1759023815393448,-0.005962599068880081,-0.2781587243080139,0.10104433447122574,-0.025608522817492485,0.2509323060512543,-0.08904292434453964,0.08433439582586288,0.20680244266986847,0.05231422185897827,0.13647107779979706,0.16195863485336304,0.2621082663536072,-0.0024678767658770084,0.04668699577450752,0.09187299013137817,0.1222960352897644,0.23693187534809113,0.2605840861797333,0.08943908661603928,0.1892911195755005,0.1603662669658661,0.08816123753786087,0.27207979559898376,-0.021984269842505455,0.12133055925369263,-0.031129535287618637,-0.08969210833311081,0.1464828997850418,-0.07356755435466766,0.14242373406887054,0.008485603146255016,-0.01174994744360447,0.17236575484275818,0.04298711568117142,0.11233613640069962,-0.08394163846969604,0.03694428503513336,0.0710199773311615,0.13049454987049103,-0.11764252930879593,0.007952231913805008,-0.08276071399450302,0.04623924940824509,-0.16454368829727173,0.15739409625530243,-0.025899047031998634,0.03275638073682785,-0.0977189689874649,-0.15106506645679474,-0.12859724462032318,0.0857619047164917,-0.06208420917391777,0.18664756417274475,0.10921546816825867,-0.06043069809675217,-0.1650775671005249,-0.1402631551027298,-0.07561314105987549,0.08894047141075134,0.09074627608060837,-0.012531115673482418,0.08332030475139618,-0.013723005540668964,0.11228097230195999,-0.13144756853580475,-0.039072003215551376,-0.02801317535340786,-0.16671323776245117,0.17743490636348724,-0.18684959411621094,0.0789920911192894,0.030726201832294464,0.14871425926685333,-0.04063362255692482,-0.009968339465558529,-0.06603292375802994,-0.14398054778575897,0.14165014028549194,-0.006509804166853428,-0.06484613567590714,-0.15449164807796478,-0.04515670984983444,-0.127862349152565,-0.08487491309642792,0.038030482828617096,-0.11544366180896759,-0.0972435474395752,0.09303821623325348,0.09728609770536423,0.19999727606773376,-0.15828822553157806,-0.1097792237997055,0.09628703445196152,0.1814439296722412,0.03145989775657654,0.06829585134983063,0.1397080421447754,-0.04603585973381996,-0.05820184201002121,0.15126881003379822,-0.09503312408924103,-0.2313082069158554,0.08812808245420456,0.03710377961397171,0.128506138920784,0.0004677168617490679,0.05638379603624344,0.09836533665657043,-0.11719416826963425,-0.14293624460697174,-0.13285347819328308,-0.006958060897886753,0.1755824089050293,-0.0015421750722452998,0.05226016789674759,0.13595600426197052,-0.03702697157859802,-0.13810722529888153,-0.02284606732428074,0.16359442472457886,-0.14602825045585632,0.10308604687452316,0.09378539770841599,-0.12721489369869232,0.11806804686784744,0.18061919510364532,-0.07915756851434708,-0.07011266052722931,-0.17939886450767517,0.027361765503883362,0.015346388332545757,0.14839495718479156,-0.02236727997660637,0.11813323199748993,0.06633505970239639,-0.16031472384929657,0.1726832538843155,-0.002516053384169936,-0.17480257153511047,0.057754889130592346,0.11079685389995575,0.07933109998703003,-0.04120444878935814,0.07203895598649979,0.05363928899168968,-0.001891782390885055,-0.023925606161355972,-0.09877565503120422,0.1929999738931656,-0.08937182277441025,-0.02844778075814247,-0.06881225109100342,0.034451182931661606,0.12132654339075089,0.064134880900383,-0.1491497904062271,0.032124217599630356,-0.1802435964345932,0.12841884791851044,-0.16034676134586334,-0.034019917249679565,-0.004772898741066456,0.08814448118209839,-0.17362438142299652,0.06634993851184845,-0.12924720346927643,0.017745591700077057,0.024175412952899933,-0.13715729117393494,-0.12327014654874802,-0.14123620092868805,-0.0800955593585968,-0.12398990243673325,-0.07327651232481003,-0.0019951763097196817,-0.059501148760318756,0.11757449805736542,0.08721805363893509,-0.11176250874996185,0.11700569838285446,0.10758005082607269,-0.06714442372322083,-0.0970466211438179,-0.08148430287837982,0.13286733627319336,0.00000825502229417907,-0.04577425867319107,-0.047119975090026855,-0.15450167655944824,0.07589611411094666,0.12438379973173141,-0.02084350399672985,-0.023031769320368767,-0.0007452733116224408,-0.041898708790540695,0.16491159796714783,0.16210977733135223,-0.17553873360157013,-0.13707438111305237,-0.16522425413131714,0.1617591828107834,-0.035435840487480164,0.030343586578965187,0.09282513707876205,0.009873326867818832,-0.18397630751132965,-0.08912841230630875,-0.0355064794421196,0.14153112471103668,-0.1518862396478653,0.056213825941085815,-0.197563037276268,-0.1297820806503296,0.0600878968834877,0.12580758333206177,0.12347911298274994,0.04346597194671631,0.050638627260923386,-0.009220540523529053,0.09968911856412888,0.09331612288951874,0.15871304273605347,0.08708595484495163,0.14210331439971924,-0.15060952305793762,0.13322043418884277,-0.021009650081396103,-0.10089022666215897,-0.19950030744075775,0.06792256981134415,-0.0072358218021690845,0.10293594002723694,0.0912787914276123,-0.026550671085715294,0.13371849060058594,-0.07699642330408096,-0.09460096806287766,-0.17203693091869354,0.03942031040787697,0.07988353818655014,0.16503924131393433,-0.0701814666390419,0.187828928232193,-0.1681399941444397,0.06300865858793259,-0.13754922151565552,-0.1602906882762909,0.07777831703424454,-0.10362188518047333,0.01827392727136612,-0.23299358785152435,-0.15602490305900574,0.12598031759262085,-0.08512631803750992,-0.1571073681116104,0.02626136504113674,-0.12315775454044342,-0.140081524848938,0.11736220866441727,-0.07794748991727829,0.12426634877920151,0.07620144635438919,0.1456293910741806,0.10975196957588196,-0.1995120495557785,-0.056810494512319565,-0.14883944392204285,0.06853212416172028,-0.0636109858751297,0.13663211464881897,0.19319112598896027,0.07772434502840042,-0.0478968545794487,-0.08940665423870087,-0.023706085979938507,-0.15576790273189545,0.15255220234394073,0.16055655479431152,0.07533133774995804,-0.16020376980304718,0.09890221059322357,0.03252340853214264,-0.07486709952354431,-0.030470626428723335,0.09268444031476974,0.14218221604824066,0.12776707112789154,0.15391191840171814,0.015613066032528877,0.03831734508275986,0.15179777145385742,0.19877584278583527,-0.06883466988801956,-0.1629844754934311,0.021368063986301422,-0.18638980388641357,0.02778811752796173,-0.18663927912712097,-0.1617433726787567,0.14974980056285858,-0.04108654707670212,0.191954106092453,0.03175230324268341,-0.11240037530660629,0.10231582820415497,0.025983354076743126,0.13643915951251984,0.1794615536928177,-0.016581807285547256,0.06262017041444778,-0.09109117835760117,0.09877949953079224,0.18410472571849823,0.050112102180719376,-0.152816042304039,-0.15308067202568054,0.11479667574167252,0.05066044256091118,0.16931135952472687,-0.18842008709907532,0.07602535933256149,-0.19850632548332214,0.1387045532464981,-0.058413099497556686,-0.028847649693489075,0.07420022785663605,-0.1770123988389969,0.150467649102211,0.007935019209980965,-0.10005167126655579,-0.0522158183157444,0.19099199771881104,-0.020813139155507088,-0.09089499711990356,0.16492384672164917,0.09783792495727539,0.15626047551631927,-0.19848068058490753,0.1443018615245819,0.1879393607378006,-0.01589091680943966,0.001387980068102479,-0.03032209351658821,-0.023999853059649467,-0.13124650716781616,0.09231075644493103,0.06359392404556274,0.19604314863681793,-0.16269351541996002,0.16815704107284546,-0.16481547057628632,0.12418070435523987,-0.07738110423088074,-0.008796549402177334,0.06291721761226654,-0.06502983719110489,-0.10525790601968765,-0.04510621726512909,0.17328108847141266,0.16586729884147644,-0.1611224114894867,-0.005968830082565546,0.127363383769989,-0.0005844678380526602,-0.17573529481887817,-0.08613375574350357,-0.1710028499364853,-0.015971699729561806,0.005237860139459372,0.02042973041534424,-0.18969936668872833,-0.13963156938552856,0.0224586334079504,-0.10590164363384247,0.08804231137037277,0.11235228925943375,-0.08315442502498627,0.07610681653022766,0.07288902997970581,0.04692285135388374,0.1499710977077484,-0.01813749223947525,-0.007160195615142584,-0.03446691483259201,0.10128992795944214,0.056191448122262955,0.07308606058359146,0.0866880789399147,0.13931326568126678,-0.13964064419269562,0.020184677094221115,-0.06970901787281036,0.019702116027474403,-0.07028157263994217,0.054396938532590866,0.003605339676141739,0.12629909813404083,0.17435702681541443,0.012525973841547966,0.10696199536323547,-0.09246673434972763,0.12929289042949677,0.16461589932441711,-0.0028238166123628616],[-0.3149932622909546,-0.1513805389404297,0.19120214879512787,0.01610798016190529,-0.12381957471370697,-0.06472034007310867,-0.060728445649147034,0.00428259139880538,0.13286249339580536,0.10830418020486832,-0.0614030659198761,0.02513965778052807,-2.0598697662353516,1.3077293634414673,1.5226010084152222,-1.0983662605285645,0.4561770260334015,0.5560216903686523,0.5112296342849731,-0.11353779584169388,-0.14401784539222717,0.4186915457248688,0.32578200101852417,0.16165047883987427,-0.596689760684967,0.14953073859214783,-0.6173399686813354,0.5728508830070496,0.19559305906295776,0.7478405833244324,0.6182544827461243,0.05829205363988876,0.020151203498244286,0.10529129207134247,0.1072831079363823,-0.4646165370941162,0.05601200461387634,-0.40746086835861206,0.19313202798366547,0.11837969720363617,-0.12107187509536743,-0.04511946067214012,0.11710311472415924,-0.1710784137248993,-0.22397956252098083,0.19656233489513397,0.09991095215082169,0.10364499688148499,0.019508568570017815,-0.08407773822546005,0.1695014089345932,-0.15910424292087555,0.02930617704987526,0.0697476863861084,0.1834545135498047,0.05706767365336418,-0.10157392919063568,-0.12728962302207947,0.13398991525173187,0.13136661052703857,-0.3460233807563782,0.03905973210930824,-0.08213774114847183,-0.028737381100654602,0.21300630271434784,0.14541567862033844,0.05311516299843788,0.08300154656171799,0.055446941405534744,-0.12442558258771896,0.1274096965789795,-0.0679050087928772,0.16895553469657898,0.14483454823493958,-0.023061513900756836,-0.01264581922441721,0.0831451267004013,0.0008861512178555131,-0.0507081001996994,0.007069087121635675,0.1412406712770462,-0.09940176457166672,0.03927556052803993,0.09974804520606995,0.18684396147727966,-0.040495146065950394,0.09722372144460678,0.12770923972129822,-0.0926937684416771,-0.07409877330064774,0.16208600997924805,0.01937227137386799,-0.16186775267124176,-0.15913991630077362,0.18452700972557068,0.19911900162696838,-0.09427040070295334,-0.000814872735645622,-0.1283196061849594,0.05158171057701111,0.012106038630008698,0.14070196449756622,-0.025387229397892952,0.19177286326885223,0.08791562169790268,-0.12259910255670547,-0.18305647373199463,-0.14070038497447968,-0.015693360939621925,-0.14012515544891357,0.06397709995508194,0.04365301504731178,0.07077272236347198,0.16546349227428436,-0.19632233679294586,-0.19303007423877716,-0.13285331428050995,0.004071124829351902,0.13591596484184265,-0.06674046814441681,0.11850577592849731,-0.09088369458913803,-0.01854887045919895,-0.10315084457397461,0.15857428312301636,0.021410580724477768,-0.005491200834512711,-0.03482167050242424,-0.013990956358611584,-0.10350093245506287,0.17813104391098022,-0.11867938190698624,-0.1800798922777176,0.010127865709364414,-0.1970202624797821,0.1490142047405243,-0.13630829751491547,0.13715112209320068,-0.06534954905509949,0.0408446379005909,-0.13580070436000824,-0.04167624190449715,-0.07163242995738983,0.12111139297485352,-0.00941343791782856,0.11182324588298798,-0.16574899852275848,0.09009873121976852,-0.02618008852005005,0.062315963208675385,0.1726875901222229,-0.08435459434986115,0.17997728288173676,-0.11610247939825058,0.08625604957342148,0.17426149547100067,-0.11988404393196106,0.029213538393378258,0.17112118005752563,0.07803954184055328,-0.07730889320373535,-0.13659830391407013,0.09990233927965164,-0.16808152198791504,-0.23016683757305145,0.04072932153940201,-0.19501709938049316,0.12666073441505432,-0.14535699784755707,0.10494691133499146,0.1286064237356186,0.08073513954877853,-0.12702254951000214,0.08474873751401901,-0.015132050029933453,0.06077152118086815,0.052540991455316544,-0.08188093453645706,0.058029286563396454,-0.0607009083032608,-0.011341642588376999,-0.12717480957508087,-0.028790319338440895,0.1501256227493286,-0.17360927164554596,-0.18665389716625214,0.022462347522377968,0.05138607695698738,0.02764953300356865,0.17993411421775818,-0.1654910296201706,-0.07577420771121979,0.10272353142499924,0.04774351418018341,0.0035548622254282236,0.18442973494529724,-0.18225066363811493,0.13360939919948578,-0.10071779042482376,-0.15570273995399475,-0.06795317679643631,0.1911279857158661,0.027498353272676468,0.11451638489961624,-0.07610158622264862,-0.014829971827566624,-0.11153016239404678,-0.023542774841189384,0.14046142995357513,-0.1215314120054245,0.04081661254167557,0.16674143075942993,0.19711343944072723,-0.14516986906528473,0.1386946141719818,0.05211612582206726,-0.1326475888490677,0.1512909084558487,-0.16851210594177246,0.08428622782230377,0.09841237962245941,-0.05241921916604042,-0.02378246560692787,-0.07483270019292831,-0.02601064182817936,0.14940589666366577,-0.058799318969249725,0.10466744005680084,-0.04846673086285591,-0.10146486014127731,-0.1577123999595642,0.09701860696077347,0.17833882570266724,-0.17383688688278198,0.06582599878311157,-0.12621566653251648,-0.09274832159280777,0.012762255035340786,0.018774140626192093,0.10342921316623688,0.04808410629630089,-0.022818271070718765,0.008297367952764034,0.028408832848072052,-0.14419183135032654,0.08107886463403702,-0.019890885800123215,-0.014547552913427353,-0.05183928832411766,-0.13475695252418518,-0.0028123839292675257,0.0846402570605278,0.16524945199489594,0.1557595580816269,0.053762611001729965,-0.174622043967247,-0.14004532992839813,-0.059731461107730865,0.08801297098398209,0.05514098331332207,-0.01541855651885271,0.13484811782836914,-0.1116628348827362,0.060597002506256104,-0.12299606204032898,0.15507113933563232,0.08333966135978699,-0.057347770780324936,-0.16424675285816193,-0.08919405937194824,-0.04712919145822525,-0.08072365075349808,-0.09831297397613525,-0.14995922148227692,0.18106864392757416,0.10337772965431213,0.17109355330467224,-0.023990709334611893,-0.11098229140043259,0.04484199732542038,-0.16024619340896606,0.14340144395828247,-0.11106457561254501,0.08290745317935944,0.11986638605594635,-0.19759491086006165,-0.021353829652071,-0.15929825603961945,0.19113662838935852,0.1752159148454666,0.07095406949520111,-0.13344299793243408,0.13897792994976044,0.09491020441055298,0.1400938332080841,-0.005382819101214409,0.013049229048192501,-0.061859529465436935,-0.01831447333097458,-0.04829820245504379,0.0700855627655983,0.020062744617462158,0.1094810888171196,-0.1696777641773224,0.04780503734946251,0.04389839619398117,-0.08018907159566879,0.0049317991361021996,0.16271081566810608,-0.043770406395196915,0.043519213795661926,-0.16911683976650238,0.052918270230293274,-0.19303551316261292,0.031165778636932373,-0.028599748387932777,-0.029007401317358017,-0.09943369776010513,-0.03610476106405258,0.19073480367660522,-0.12940455973148346,-0.02395564690232277,0.1315709799528122,0.1717829406261444,0.009736048988997936,-0.032184503972530365,-0.15719600021839142,0.14878804981708527,0.07307521998882294,-0.08494606614112854,0.018529579043388367,-0.05154945328831673,0.060909196734428406,0.17840619385242462,0.07106117904186249,-0.0322234071791172,0.1787315458059311,-0.17595621943473816,-0.1758803427219391,-0.12454432249069214,0.06895029544830322,0.18777085840702057,-0.16080550849437714,0.0394146628677845,-0.17982523143291473,-0.14516131579875946,0.07062137126922607,-0.1807256042957306,-0.1070883497595787,0.07108071446418762,0.03451723977923393,0.14236287772655487,-0.17052419483661652,-0.10330071300268173,-0.11129998415708542,-0.02830212563276291,0.08564572036266327,0.14241723716259003,-0.05795186758041382,-0.07081280648708344,-0.05740302428603172,0.07792647927999496,-0.0972088947892189,-0.0723552405834198,0.1570449322462082,-0.0066312882117927074,-0.09736381471157074,-0.1008567288517952,-0.08736590296030045,-0.15905487537384033,-0.07251067459583282,-0.1132180467247963,0.03127236291766167,-0.18620210886001587,-0.15016944706439972,0.18493422865867615,-0.11376266926527023,-0.005075276363641024,0.007153835613280535,0.002764343051239848,0.03341648727655411,-0.05789116397500038,0.04942599684000015,-0.038797538727521896,-0.1252472996711731,0.08913440257310867,-0.014763456769287586,-0.1499527543783188,-0.18336808681488037,0.13274197280406952,0.11866813153028488,-0.05037873983383179,-0.14839518070220947,-0.06454279273748398,-0.16955482959747314,0.010988080874085426,-0.0009703675168566406,0.16638289391994476,-0.050950393080711365,0.04539972171187401,-0.17929059267044067,-0.07494622468948364,0.05974569171667099,0.12408977746963501,0.055091895163059235,-0.1910913735628128,0.1036824882030487,-0.02527572400867939,0.10078418254852295,0.1578410267829895,0.012970145791769028,-0.11784213036298752,0.060665566474199295,0.1736205816268921,0.019398439675569534,0.042990922927856445,0.02052496001124382,-0.18085569143295288,-0.10428434610366821,0.12810882925987244,-0.11319456994533539,0.07746755331754684,-0.07776948064565659,-0.10942898690700531,-0.16042129695415497,-0.04698999971151352,0.11411041021347046,-0.07882905751466751,0.1065828949213028,-0.18350890278816223,0.09279615432024002,-0.030035311356186867,0.16549454629421234,-0.08378687500953674,0.0775979533791542,0.04526593163609505,-0.16231884062290192,-0.06361585855484009,-0.45649898052215576,-0.18041038513183594,-0.07919749617576599,0.1571245938539505,0.13481195271015167,0.11576075106859207,0.1762687712907791,0.04823973774909973,0.02028927206993103,-0.17029309272766113,-0.15544307231903076,-0.0010894564911723137,-0.10640982538461685,0.15852928161621094,-0.03119512088596821,-0.001865531550720334,0.15755853056907654,-0.16523917019367218,-0.08743422478437424,0.0963403582572937,-0.199750617146492,-0.09536314010620117,-0.13125789165496826,0.142134889960289,-0.14868660271167755,-0.07000157237052917,-0.17977149784564972,0.169645294547081],[0.04048243537545204,0.3187592625617981,0.09195470064878464,0.16829051077365875,0.2667439579963684,0.24464139342308044,0.025757746770977974,0.2070649266242981,0.12039658427238464,0.10156026482582092,0.3008769154548645,0.03736940398812294,-0.8644342422485352,-1.3780560493469238,-2.019155502319336,0.31801196932792664,-0.39355728030204773,-0.91138756275177,-0.8792436122894287,0.37151989340782166,-0.30577436089515686,-1.352615237236023,-0.8008832335472107,-0.43694254755973816,0.10011611133813858,-0.6032392382621765,0.61553955078125,-0.1915573924779892,0.19061462581157684,-0.8357776999473572,-0.050895798951387405,-0.29003793001174927,0.19734184443950653,0.08615413308143616,0.33582326769828796,-0.10809354484081268,0.027218854054808617,0.1677975058555603,-0.15621788799762726,0.05885232239961624,-0.02356172353029251,0.1403721123933792,-0.0677826777100563,0.12842585146427155,-0.09562759846448898,0.14122387766838074,0.2059689313173294,0.2953673303127289,0.1479184925556183,0.3092907667160034,0.33067092299461365,0.14776185154914856,0.2492966204881668,0.3282894492149353,-0.020884349942207336,0.11786303669214249,0.14303618669509888,0.027532169595360756,0.13027019798755646,0.3103175163269043,-0.2500915825366974,0.22359853982925415,0.1389860361814499,-0.24526600539684296,0.31522247195243835,0.18705718219280243,0.23283569514751434,0.08826937526464462,-0.028702575713396072,0.07573787122964859,0.35473302006721497,0.21781276166439056,0.210159033536911,0.04045199975371361,0.24297228455543518,0.30731630325317383,0.2491517812013626,0.22639262676239014,0.1444610208272934,0.300679475069046,0.06540483236312866,0.013168707489967346,0.29747340083122253,0.09174687415361404,0.0935346931219101,0.1788489669561386,0.03316051885485649,0.24308806657791138,0.13944165408611298,0.1213655024766922,0.12810897827148438,0.21403387188911438,0.32157859206199646,0.06209946051239967,0.28826025128364563,-0.019136471673846245,0.07355965673923492,0.20173755288124084,0.002481045201420784,0.13813135027885437,0.08671528846025467,-0.16858574748039246,-0.016018779948353767,-0.10629871487617493,-0.16665881872177124,0.07122752815485,0.11747767776250839,0.15549786388874054,0.16531428694725037,0.09900234639644623,0.058673616498708725,-0.050503622740507126,0.18189039826393127,-0.04270711913704872,0.0739104375243187,0.012141241692006588,-0.14621929824352264,-0.11576387286186218,-0.15007418394088745,-0.151624858379364,0.02218468487262726,-0.16811521351337433,-0.14899331331253052,0.05809667333960533,0.14228498935699463,-0.16889773309230804,-0.1380542367696762,0.1466725766658783,-0.0363597609102726,-0.12325675040483475,-0.1270270198583603,0.03244941309094429,0.06601491570472717,0.187443345785141,-0.020912781357765198,0.010593653656542301,0.19063077867031097,-0.1249384731054306,0.0054066795855760574,-0.05273657292127609,0.16576534509658813,-0.11642678081989288,0.015002839267253876,0.17956291139125824,0.18470452725887299,-0.05514758452773094,-0.03762713447213173,-0.08603665977716446,-0.03808873891830444,0.04617937654256821,0.1695459932088852,0.07656492292881012,0.16498011350631714,-0.038742341101169586,-0.019029950723052025,-0.17477384209632874,-0.10883844643831253,-0.030364738777279854,-0.05937065929174423,0.14813704788684845,0.007565736770629883,-0.041028060019016266,-0.1983676552772522,0.06183517351746559,0.0898243710398674,-0.09945303946733475,0.017202815040946007,0.044050659984350204,0.10787386447191238,-0.15825751423835754,-0.026112284511327744,0.10670217126607895,-0.012745505198836327,-0.08214031159877777,0.007966725155711174,-0.06662823259830475,-0.19201131165027618,-0.020413631573319435,0.09081605821847916,-0.06270477175712585,-0.0014106000307947397,-0.14098592102527618,-0.1297255903482437,0.17492124438285828,0.18732057511806488,0.10205916315317154,0.10725655406713486,-0.05975855141878128,-0.07890626043081284,0.18732060492038727,-0.06873412430286407,-0.10981538146734238,-0.08456934988498688,0.09183982759714127,-0.1589004546403885,-0.030735978856682777,-0.14572399854660034,0.03290528431534767,0.09666409343481064,0.13181142508983612,-0.05264653265476227,-0.09579459577798843,0.15358690917491913,0.1648215502500534,-0.11422933638095856,0.10014024376869202,0.08679376542568207,0.033270832151174545,0.1515049785375595,-0.01766343042254448,0.04913535341620445,0.027813218533992767,-0.19624771177768707,-0.1033279076218605,-0.06377876549959183,0.12417295575141907,-0.19501525163650513,-0.01788708195090294,0.19795425236225128,0.04621000587940216,-0.04499101638793945,0.1835947483778,-0.05091467872262001,0.11392504721879959,0.012853151187300682,0.05054764077067375,-0.006525834556668997,0.13461866974830627,0.11182167381048203,-0.0194063950330019,-0.1526971012353897,-0.015677638351917267,-0.1737649142742157,0.16543562710285187,-0.08281275629997253,0.13409578800201416,-0.13964501023292542,0.1860993355512619,0.007944170385599136,0.19209440052509308,0.1819029152393341,-0.19171924889087677,0.16233424842357635,-0.05049725994467735,-0.161996528506279,-0.10285913944244385,0.09716390073299408,0.07802244275808334,-0.028083210811018944,0.18245650827884674,-0.15455515682697296,0.18101388216018677,-0.05225955694913864,0.007548006251454353,0.19328123331069946,0.11719664186239243,-0.10585451126098633,-0.06844388693571091,0.06407131254673004,0.026106903329491615,0.029508432373404503,0.05722301825881004,-0.19185981154441833,0.16856810450553894,-0.014652748592197895,0.08498898148536682,0.15618276596069336,0.17423118650913239,-0.14362816512584686,-0.19422073662281036,0.10464110225439072,-0.08586275577545166,0.07390094548463821,-0.09020616114139557,-0.18353429436683655,-0.1492031365633011,0.09259188175201416,0.008875519037246704,-0.1905171275138855,0.19606263935565948,-0.03374283015727997,-0.06330348551273346,-0.12121386080980301,-0.03215431794524193,0.010355323553085327,-0.042000219225883484,-0.15047959983348846,-0.05294188857078552,-0.04018387198448181,0.055984001606702805,-0.0434182807803154,0.19435030221939087,-0.15950581431388855,-0.19788923859596252,-0.13982456922531128,-0.14558514952659607,0.16622066497802734,-0.12497144192457199,-0.15129448473453522,-0.05163038149476051,-0.02564476989209652,-0.12659502029418945,0.12614476680755615,0.15001201629638672,0.0653943344950676,0.1879357248544693,-0.02977651357650757,0.038709405809640884,0.00850269477814436,0.08760283887386322,0.0929928570985794,-0.022764919325709343,-0.16435940563678741,0.14504879713058472,0.033605050295591354,-0.10809415578842163,-0.08453579992055893,0.07832659780979156,0.05019452050328255,0.027945972979068756,-0.08452694863080978,-0.13719911873340607,0.10868123173713684,-0.19259753823280334,-0.1643664389848709,0.08048141747713089,0.07155013084411621,0.1332739293575287,0.043114371597766876,0.0481041818857193,0.129954993724823,0.11064112186431885,-0.05550635978579521,-0.12969066202640533,-0.09726428240537643,-0.13584330677986145,-0.07766970992088318,-0.10750020295381546,0.005721519701182842,0.044453103095293045,0.06457456201314926,-0.08125431835651398,-0.004198170267045498,-0.05644343048334122,0.14566493034362793,0.16580745577812195,-0.18800590932369232,0.18128810822963715,-0.14911271631717682,-0.11596141755580902,0.10607432574033737,0.11729241907596588,-0.015992045402526855,-0.1382707804441452,0.0029348290991038084,-0.0029138161335140467,-0.19489192962646484,-0.14637529850006104,0.07211863994598389,0.09545741975307465,-0.028177857398986816,0.089215487241745,-0.17647376656532288,-0.03312993794679642,-0.1955147087574005,-0.008223243989050388,-0.01855749823153019,0.1808360069990158,0.17356516420841217,0.06141876056790352,-0.1131516695022583,-0.024757057428359985,-0.10515230149030685,-0.12315523624420166,0.1488976627588272,-0.03379877656698227,0.1869407743215561,-0.1647104024887085,0.12758846580982208,0.12526150047779083,-0.05161517113447189,0.13916446268558502,-0.15935131907463074,-0.049121398478746414,-0.05215400829911232,-0.07324746251106262,-0.1535421758890152,-0.08782996982336044,-0.016116227954626083,0.14634346961975098,0.017434366047382355,0.10061986744403839,-0.010805454105138779,-0.12500469386577606,-0.11983697861433029,-0.13213281333446503,0.19872836768627167,0.15848436951637268,0.16320371627807617,-0.10328034311532974,0.08330413699150085,0.012079336680471897,-0.040855772793293,0.15939684212207794,-0.05865031108260155,0.03067542053759098,-0.03371574357151985,-0.0074541326612234116,0.08961189538240433,0.013865198940038681,0.16207918524742126,-0.16941925883293152,-0.19314570724964142,-0.1632070094347,0.14351628720760345,-0.022543251514434814,0.013352448120713234,-0.11606312543153763,0.05961447209119797,0.16244150698184967,0.17636068165302277,-0.09692738950252533,-0.1354774683713913,-0.14959873259067535,-0.030896645039319992,0.181807741522789,0.16777393221855164,-0.09488704800605774,0.09283003956079483,-0.025303956121206284,0.042909398674964905,-0.19304004311561584,0.10879618674516678,-0.008871806785464287,-0.08706598728895187,0.11929182708263397,0.17829987406730652,0.11980380862951279,-0.39681476354599,0.17911411821842194,0.11580835282802582,0.15722155570983887,-0.09596192836761475,-0.15483957529067993,0.016448967158794403,-0.05220557376742363,0.09256107360124588,0.07519184798002243,0.18435998260974884,0.14235876500606537,0.017579231411218643,0.027813807129859924,0.132894366979599,-0.14546841382980347,-0.005372879561036825,0.135797381401062,0.004308994393795729,0.1521243453025818,0.13554051518440247,0.1279047429561615,0.10906118154525757,-0.05256517976522446,0.16386492550373077,-0.16223765909671783,-0.021277116611599922,0.17205627262592316],[0.4481596052646637,0.09471400082111359,-0.04070020094513893,-0.09987203776836395,-0.03605486825108528,0.07888314127922058,-0.16674132645130157,-0.17693603038787842,0.12142357975244522,0.08978385478258133,0.002698520664125681,-0.10765566676855087,-1.521121621131897,-2.1919846534729004,0.08613672107458115,2.312349796295166,-0.8059228658676147,-0.5201608538627625,0.5371379256248474,-0.16009274125099182,-0.700847327709198,0.8043593168258667,0.5163138508796692,0.49890682101249695,0.1445149928331375,0.7360498309135437,-0.4269857108592987,0.26645877957344055,0.166772723197937,1.4514427185058594,-0.4915379583835602,0.14432239532470703,0.0773511677980423,-0.057076431810855865,-0.027175305411219597,0.4418494701385498,0.09121239930391312,-0.2646183967590332,-0.10980939865112305,0.1782161295413971,0.1147092804312706,0.15993042290210724,0.014780282974243164,0.15603141486644745,0.0755205824971199,-0.04037224128842354,0.18171192705631256,-0.09485798329114914,-0.10988008230924606,0.04746806249022484,0.15609923005104065,0.15369261801242828,-0.06969346106052399,-0.20199601352214813,0.08003422617912292,0.09226163476705551,0.09275899827480316,0.09463464468717575,0.11689598113298416,-0.15828832983970642,0.37285563349723816,-0.1955523043870926,0.10724329948425293,0.019831642508506775,-0.17432008683681488,0.11118526756763458,-0.14569148421287537,0.10877499729394913,0.02028742991387844,-0.15636612474918365,-0.136957049369812,-0.09872031956911087,0.17438040673732758,0.07889226824045181,-0.14406833052635193,-0.07325460761785507,0.10697171092033386,-0.1507626473903656,0.0015233260346576571,0.1719941794872284,-0.1908360868692398,-0.10676699876785278,0.1653352677822113,-0.02607942931354046,-0.1678580939769745,-0.16784361004829407,0.15072818100452423,0.14648574590682983,0.1568707525730133,-0.17929837107658386,-0.11712297797203064,-0.040328189730644226,-0.032815173268318176,0.17177091538906097,-0.06726091355085373,0.03301084786653519,0.08318522572517395,-0.17225715517997742,-0.205045685172081,0.056184228509664536,0.09618005901575089,-0.09715770930051804,-0.04825255274772644,-0.1382598876953125,0.10726964473724365,-0.08374997973442078,0.07565198838710785,-0.10656911134719849,0.04296179115772247,0.0006825508316978812,-0.040207695215940475,-0.033476755023002625,0.1546645164489746,-0.03954324871301651,-0.06478391587734222,0.06397197395563126,0.06968895345926285,0.18951372802257538,0.1479039043188095,0.0025109602138400078,0.1873338520526886,-0.18185079097747803,-0.17228446900844574,0.14237168431282043,0.09577453136444092,-0.014301959425210953,0.12762652337551117,0.066568523645401,-0.07340487837791443,-0.16568751633167267,0.1689600795507431,0.04218556359410286,-0.15604960918426514,-0.06076088547706604,-0.027526848018169403,-0.1628454178571701,-0.06954316049814224,-0.01817578449845314,0.10768236219882965,-0.1848284900188446,0.047627177089452744,0.10255548357963562,-0.012375252321362495,0.19949637353420258,-0.05804529786109924,0.01953497715294361,-0.15915384888648987,0.1104595810174942,0.010023706592619419,-0.112858846783638,-0.13226234912872314,0.076366126537323,0.06051584333181381,-0.18155984580516815,0.17000733315944672,-0.19302211701869965,-0.14252115786075592,-0.06184075027704239,-0.09286030381917953,-0.10102157294750214,0.1513320803642273,-0.07935115694999695,-0.174556702375412,0.1417684704065323,-0.04406385123729706,0.01922093890607357,0.032348185777664185,0.06341847032308578,0.00944221019744873,0.17460927367210388,0.0992310419678688,-0.14846312999725342,0.08507073670625687,0.28046414256095886,-0.00790377240628004,-0.16081100702285767,-0.058555878698825836,0.13595150411128998,-0.12419253587722778,0.04926474019885063,-0.02805691957473755,0.10019570589065552,-0.04182950034737587,-0.18261466920375824,-0.17098811268806458,0.15015658736228943,0.06996314227581024,0.06446704268455505,-0.09192965924739838,0.09047352522611618,-0.15636415779590607,0.12207186222076416,0.13324756920337677,-0.011434012092649937,-0.01776166632771492,0.028446132317185402,-0.10184674710035324,-0.10328347235918045,-0.15725621581077576,-0.0488516204059124,0.07160777598619461,0.030719345435500145,-0.05148037150502205,-0.12838231027126312,-0.09591445326805115,-0.08105716109275818,0.026154786348342896,0.03617526590824127,0.1696455031633377,-0.07485651224851608,-0.10055463016033173,0.14371278882026672,0.18887586891651154,-0.12137975543737411,0.008454814553260803,-0.0041653732769191265,-0.12912669777870178,-0.19084432721138,0.15395697951316833,0.12265601754188538,-0.0584121011197567,-0.10774671286344528,-0.1640646755695343,-0.18186964094638824,0.09642498940229416,-0.06828318536281586,0.038435861468315125,0.13847637176513672,0.04020281881093979,-0.13282136619091034,0.14177735149860382,-0.15024371445178986,-0.062446802854537964,-0.1592608243227005,0.006614292971789837,-0.010938315652310848,0.15104514360427856,0.07004724442958832,0.0649934709072113,-0.10753849893808365,0.076412633061409,0.04257168993353844,0.01995757408440113,-0.029236722737550735,-0.034912705421447754,0.05067632719874382,0.027103153988718987,-0.09695642441511154,-0.13301868736743927,-0.09494156390428543,0.04799814149737358,-0.15899601578712463,-0.05442715436220169,-0.03617166727781296,-0.08086907863616943,-0.0735633596777916,-0.03196723759174347,0.1702081561088562,0.1048685684800148,-0.19810637831687927,-0.09982998669147491,0.10476372390985489,0.15521737933158875,-0.10340647399425507,0.012070576660335064,0.14004628360271454,0.10029982030391693,0.008652144111692905,-0.14352744817733765,0.10659653693437576,0.02881467156112194,-0.05393657460808754,-0.17785154283046722,0.178701713681221,-0.12308508157730103,-0.058404989540576935,-0.19155509769916534,-0.15957269072532654,-0.12316731363534927,-0.19608525931835175,0.18657992780208588,0.06109549105167389,0.06459040194749832,-0.19065527617931366,0.1196855753660202,-0.06473919749259949,-0.11592966318130493,0.16440585255622864,-0.11017289757728577,-0.16104727983474731,0.09025505185127258,0.14833681285381317,-0.1713288128376007,-0.08990605920553207,0.026383722200989723,0.10273189842700958,0.053154703229665756,-0.059305086731910706,0.05393530800938606,-0.15231361985206604,-0.18932181596755981,0.1114036962389946,0.00565916346386075,-0.01540845911949873,0.1488780528306961,0.1732024848461151,0.14245948195457458,-0.13840241730213165,-0.034312840551137924,0.11708658188581467,0.09372325241565704,0.03564023599028587,0.27281084656715393,0.18945486843585968,-0.05105007812380791,0.00558248907327652,0.11386740207672119,-0.010282698087394238,-0.1947626769542694,-0.08009838312864304,-0.035939399152994156,-0.06259997189044952,0.1854519248008728,0.06576599925756454,-0.11414344608783722,0.12038756906986237,-0.1614397168159485,-0.1196497455239296,-0.03305429220199585,0.1341836303472519,-0.006425963714718819,0.00946546345949173,0.07533356547355652,0.18308982253074646,-0.10662658512592316,0.12459053844213486,0.18639345467090607,-0.04253991320729256,-0.14419537782669067,-0.022237291559576988,-0.16258738934993744,-0.19893291592597961,-0.004260346759110689,-0.1341647356748581,0.16963918507099152,-0.04165774956345558,0.05081673339009285,-0.12559843063354492,0.16696244478225708,0.07688433676958084,0.10897868126630783,-0.0025682905688881874,0.03294173255562782,-0.1568097621202469,-0.023355770856142044,0.0640655905008316,0.16390515863895416,0.1584651619195938,-0.14524076879024506,-0.16915789246559143,-0.1274716854095459,-0.10753259807825089,-0.07230466604232788,0.13017472624778748,-0.19657456874847412,-0.16268445551395416,-0.1974479705095291,-0.05802858993411064,-0.02428359165787697,0.0966789498925209,0.0785965695977211,-0.08074091374874115,0.07051259279251099,0.15286532044410706,-0.013861359097063541,-0.024665169417858124,-0.13041375577449799,-0.1970391571521759,-0.07041795551776886,-0.08856996893882751,0.09241408109664917,0.12727847695350647,0.13544486463069916,0.06829002499580383,0.07439678907394409,0.10157641023397446,0.04577917978167534,-0.00211386033333838,-0.17904162406921387,-0.10715831071138382,-0.10267329216003418,0.07478416711091995,-0.08874969929456711,-0.12856322526931763,-0.08400630205869675,0.04882912337779999,0.04340793192386627,0.14196771383285522,0.19276612997055054,-0.07511933147907257,-0.1228461042046547,0.1237839087843895,-0.10367299616336823,-0.08658357709646225,-0.11696499586105347,0.09033583849668503,-0.03223863244056702,-0.060550376772880554,0.01756185106933117,0.05188944190740585,0.1755625158548355,-0.1217217743396759,0.10737810283899307,0.03811056166887283,-0.1805179864168167,-0.1487538069486618,-0.19716542959213257,0.026530727744102478,-0.04107241705060005,-0.1533363312482834,0.12672771513462067,0.16698020696640015,0.17410539090633392,-0.12423552572727203,-0.043760932981967926,0.17168563604354858,0.15310999751091003,0.198463574051857,0.16534976661205292,-0.15050992369651794,-0.10424848645925522,-0.08400528877973557,0.0231305118650198,0.16112075746059418,-0.1066945418715477,-0.0029760533943772316,0.01291598379611969,0.03516022488474846,0.11186119168996811,0.17270156741142273,-0.10568901151418686,-0.006750885862857103,0.13258908689022064,0.1636553853750229,0.010425745509564877,0.10006211698055267,0.12116926163434982,-0.1757914125919342,0.12264662235975266,0.14317995309829712,-0.07911036908626556,0.026984330266714096,0.07352247834205627,-0.012153803370893002,0.17273589968681335,-0.07342153787612915,-0.1308775097131729,-0.18849560618400574,0.05732104927301407,0.062377311289310455,-0.18487314879894257,0.15065619349479675,-0.16422195732593536,-0.1845073699951172,0.09441426396369934,0.1183207780122757],[0.8797415494918823,-0.10927490890026093,0.028170045465230942,-0.28233814239501953,0.005206577479839325,-0.15692998468875885,-0.10839828848838806,-0.17331373691558838,-0.1550738364458084,-0.011992796324193478,-0.22989992797374725,-0.05727601423859596,0.18636025488376617,-0.5662247538566589,-0.12992142140865326,0.6811888217926025,0.21966251730918884,0.15106041729450226,0.13190901279449463,0.970537006855011,-0.5377507209777832,-0.6629773378372192,-0.13574884831905365,-0.3151528537273407,-0.4804149866104126,0.5398470163345337,-0.4591868221759796,0.7048256993293762,-0.19583949446678162,-0.726654589176178,-0.4210785925388336,-0.10358569771051407,-0.1498473584651947,-0.2753969430923462,0.020565830171108246,1.206275463104248,0.30820026993751526,0.5605432987213135,0.05969340726733208,-0.05248614028096199,0.20701025426387787,0.033973295241594315,-0.03579111024737358,-0.0969252660870552,0.4375689625740051,-0.058050382882356644,-0.1459726244211197,-0.10315947234630585,0.037408944219350815,-0.23812557756900787,-0.20975004136562347,-0.14880557358264923,-0.01848130114376545,-0.20660024881362915,-0.24850398302078247,-0.17238350212574005,-0.19135256111621857,-0.20387615263462067,-0.015251528471708298,0.0067282733507454395,0.8194751739501953,-0.14253902435302734,-0.28118619322776794,0.39647170901298523,-0.19741156697273254,-0.08626018464565277,-0.0764985978603363,-0.20375429093837738,0.05855835974216461,-0.11691292375326157,-0.2364151030778885,-0.01629573106765747,-0.2793859839439392,0.03876454383134842,-0.28445929288864136,0.011785081587731838,-0.002216947730630636,-0.260445237159729,-0.2552441358566284,-0.1903182864189148,0.019715512171387672,0.014127621427178383,-0.2548641860485077,-0.17934301495552063,-0.057248059660196304,0.01567656174302101,-0.2905285656452179,0.04792177304625511,-0.3108246624469757,-0.17468295991420746,-0.07466775178909302,0.04510023072361946,-0.2795041799545288,-0.22870847582817078,0.08277543634176254,-0.04619075357913971,-0.2628284990787506,-0.29022416472435,-0.050876665860414505,0.026709996163845062,0.08765409886837006,0.00970128457993269,0.06080358475446701,0.03782080113887787,0.1751461923122406,0.1683734655380249,0.06386111676692963,0.16266806423664093,0.08645987510681152,-0.02774910070002079,-0.18287168443202972,0.1368793398141861,-0.04463688284158707,-0.03758488595485687,0.1950724571943283,-0.1707754284143448,0.028392480686306953,0.02510567009449005,0.07273782044649124,0.12930159270763397,0.051353923976421356,-0.008034370839595795,-0.004023806657642126,0.09024518728256226,0.15140247344970703,0.08452044427394867,0.11548995971679688,-0.012505026534199715,0.023777971044182777,-0.025319166481494904,-0.12981702387332916,-0.07040619850158691,0.12703317403793335,0.02616448700428009,-0.11216761916875839,0.05833397060632706,-0.06573101133108139,0.19308005273342133,0.12358900904655457,0.10930661857128143,0.17092733085155487,-0.15056771039962769,-0.13310891389846802,0.046551257371902466,-0.00809851661324501,-0.11827369779348373,-0.04458901286125183,0.011574867181479931,-0.16613946855068207,-0.10502435266971588,-0.015237170271575451,-0.17987188696861267,0.18263772130012512,-0.05996014550328255,0.005621299147605896,-0.08367626368999481,-0.11777748912572861,-0.007944153621792793,0.192655548453331,-0.08824015408754349,0.11883050948381424,0.03318973258137703,0.13758108019828796,0.4684835970401764,0.3110271096229553,0.2224763184785843,0.4031529724597931,0.08077923208475113,-0.021260716021060944,0.12845878303050995,0.17046485841274261,0.00981052964925766,0.2653236985206604,0.6208257675170898,-0.021884268149733543,0.1898127794265747,-0.10551368445158005,-0.17391473054885864,0.11436294764280319,0.06899702548980713,-0.0962250605225563,0.0909070149064064,0.163960263133049,-0.14740784466266632,0.0666351467370987,-0.12765280902385712,0.11897403001785278,0.02024213969707489,0.004036939702928066,-0.09929931908845901,0.1869620382785797,0.0980558916926384,0.00048669747775420547,-0.06485994160175323,-0.12295356392860413,-0.12727244198322296,0.1676146537065506,0.19654080271720886,0.1122378259897232,-0.16325992345809937,0.11300249397754669,0.14469900727272034,-0.032155491411685944,0.016208231449127197,-0.022160742431879044,-0.09029613435268402,0.05674627050757408,0.1704254150390625,-0.15593208372592926,0.0698671042919159,0.14650000631809235,-0.08558733761310577,0.003160767024382949,-0.15570631623268127,-0.02740335837006569,0.1777864694595337,0.03895144537091255,-0.07812771201133728,0.02363669127225876,0.11272125691175461,-0.16348551213741302,-0.04724003002047539,0.14212478697299957,-0.091269351541996,0.08480273187160492,-0.09706155210733414,0.17182274162769318,0.1683143675327301,0.03401925787329674,0.03640136122703552,-0.1162925586104393,-0.12472183257341385,0.18024945259094238,-0.1054714173078537,-0.12088985741138458,-0.011177613399922848,0.03978985920548439,0.19409938156604767,0.06322816759347916,-0.05944223329424858,0.1446826010942459,-0.01448374055325985,-0.009511621668934822,0.11316589266061783,0.1029742956161499,-0.013473725877702236,0.08758721500635147,0.18031007051467896,-0.13707640767097473,0.017599407583475113,-0.12489216029644012,0.14845353364944458,0.12639442086219788,0.07795342057943344,-0.16143468022346497,0.10886065661907196,-0.09381925314664841,0.14826971292495728,0.06843305379152298,0.08397115767002106,-0.08868077397346497,0.1017674058675766,-0.11690279841423035,-0.15857195854187012,0.10622811317443848,-0.04550062492489815,0.18771545588970184,0.168852299451828,0.14003881812095642,0.010755476541817188,0.1554892361164093,-0.18670867383480072,0.0355604887008667,-0.03126034885644913,-0.14635473489761353,-0.06603781133890152,-0.07827252149581909,0.004937296267598867,-0.04390932619571686,-0.1216273382306099,0.053555916994810104,0.07497507333755493,-0.05690773203969002,0.19911932945251465,-0.13789208233356476,0.1753401905298233,0.10317817330360413,0.02606256678700447,-0.0850011333823204,0.12274409085512161,0.11417233198881149,0.15573853254318237,0.04904354736208916,-0.1496189385652542,-0.020663032308220863,0.17715203762054443,-0.0179385207593441,0.09510565549135208,-0.005152096506208181,-0.039672914892435074,-0.13096965849399567,-0.11331002414226532,0.11376990377902985,-0.1226315125823021,-0.16405311226844788,0.1814401000738144,0.13117863237857819,0.18042033910751343,0.051639437675476074,0.08462151885032654,-0.012156895361840725,-0.056006211787462234,0.46561118960380554,-0.15377891063690186,0.1631546914577484,-0.010440481826663017,0.013944181613624096,-0.19830703735351562,0.10611339658498764,-0.10121111571788788,0.15821170806884766,0.18169942498207092,-0.07981155812740326,0.16439415514469147,-0.17106181383132935,0.0017678489675745368,-0.004059603903442621,0.06910187005996704,-0.01241947803646326,-0.022725550457835197,-0.15582232177257538,-0.021590273827314377,0.06766504049301147,0.18459859490394592,0.08638214319944382,0.023119965568184853,0.1298195868730545,0.1544073522090912,0.11516336351633072,0.17474165558815002,-0.009644538164138794,-0.010743382386863232,0.1441660374403,-0.18900398910045624,-0.15448792278766632,0.0006197263137437403,-0.06905785202980042,0.04947735369205475,-0.12790250778198242,0.1276148557662964,-0.012008355930447578,-0.08047414571046829,-0.1829659342765808,0.11588132381439209,-0.10511331260204315,0.15247468650341034,0.051883768290281296,0.17158664762973785,0.159933939576149,-0.16504840552806854,-0.0789383053779602,-0.12664607167243958,-0.025269553065299988,-0.1309376060962677,-0.0019137745257467031,0.11770609021186829,0.030696207657456398,-0.03661102429032326,0.020783303305506706,0.11414047330617905,-0.14993146061897278,-0.12898622453212738,0.0644739493727684,0.09131018072366714,-0.17043939232826233,-0.16269484162330627,0.02123100869357586,0.13415127992630005,-0.12616947293281555,0.006653380114585161,-0.1173037737607956,0.17101150751113892,0.14280839264392853,-0.15585078299045563,-0.019934048876166344,-0.01737656071782112,0.01013276632875204,-0.0918964073061943,0.15148311853408813,-0.10050589591264725,0.0888889953494072,0.0519988127052784,0.14008019864559174,0.13512057065963745,0.07872537523508072,-0.10768984258174896,0.11941105127334595,-0.1886194795370102,-0.19656740128993988,-0.06722758710384369,-0.1265496462583542,0.085629403591156,0.05355538800358772,0.05341328680515289,-0.031066589057445526,0.17342358827590942,0.10443216562271118,0.12889137864112854,0.1841205507516861,-0.18323811888694763,0.01354830153286457,-0.18709732592105865,-0.012749149464070797,0.11378892511129379,0.19455042481422424,0.06937077641487122,0.07015328109264374,0.12044371664524078,-0.05511587858200073,0.17443087697029114,0.09337186813354492,0.18680556118488312,0.0071326629258692265,0.055683936923742294,0.11064963042736053,-0.058178700506687164,-0.13338281214237213,-0.09841236472129822,0.09777168184518814,0.1707640141248703,-0.08480577170848846,-0.18932296335697174,-0.06393427401781082,-0.0031206996645778418,0.10176920145750046,0.16367007791996002,-0.10632886737585068,0.18751393258571625,1.0120823383331299,-0.1836877018213272,0.08399943262338638,0.1652671992778778,-0.15317600965499878,0.0969606563448906,0.13824860751628876,0.02529907040297985,0.08187784999608994,0.03768113628029823,-0.1541639268398285,-0.13826590776443481,0.26572221517562866,0.04150257632136345,-0.15549850463867188,0.07329216599464417,-0.07896032184362411,-0.06611987203359604,-0.02762601524591446,-0.14337706565856934,0.020506657660007477,0.050258733332157135,0.009832366369664669,0.16794833540916443,-0.05436791479587555,0.12795878946781158,0.13352805376052856,0.14087438583374023],[-1.3392993211746216,0.13753096759319305,0.12471926957368851,0.06671234220266342,0.19416125118732452,0.15333692729473114,0.3237774968147278,0.4015737771987915,0.12694498896598816,0.18514353036880493,0.14859482645988464,0.21708829700946808,-1.3473598957061768,-0.5727599263191223,1.5772041082382202,1.346291184425354,0.15475334227085114,-0.5241051316261292,-0.8153553009033203,-0.3756335973739624,-0.45792168378829956,-0.04787972941994667,0.04529482498764992,0.12324563413858414,1.7906606197357178,-1.214364767074585,1.9114853143692017,-1.7401546239852905,-0.013394278474152088,-0.21052110195159912,-0.3332419991493225,-0.029662223532795906,0.36991575360298157,0.23979417979717255,0.20723697543144226,-2.0231308937072754,-0.5040422677993774,-0.8530603051185608,-0.18003149330615997,0.024505315348505974,-0.18342186510562897,-0.24728038907051086,0.0628824532032013,-0.12124183028936386,-0.6516375541687012,0.3854244649410248,0.10616111755371094,0.2077057659626007,0.1420619785785675,0.4231656491756439,0.4284083843231201,0.17391632497310638,0.45079660415649414,0.31884098052978516,0.3458789885044098,0.16650760173797607,0.20276223123073578,0.23864582180976868,0.4270411431789398,0.1881519854068756,-1.2927112579345703,0.04114341735839844,0.28412047028541565,-0.7428532242774963,0.36359232664108276,0.20063146948814392,0.28580474853515625,0.43846815824508667,0.3954366445541382,0.09973850101232529,0.1986878365278244,0.13510292768478394,0.39118432998657227,0.21484732627868652,0.37408244609832764,0.41745322942733765,0.2603034973144531,0.08725913614034653,0.38139602541923523,0.2947823405265808,0.4376595616340637,0.1585567593574524,0.29123449325561523,0.2739522457122803,0.3535810708999634,0.4029249846935272,0.2956002950668335,0.38515886664390564,0.1848936229944229,0.3584273159503937,0.1857488751411438,0.27631843090057373,0.42515483498573303,0.2260960042476654,0.31282904744148254,0.3479388952255249,0.2715226113796234,0.3624185621738434,0.23263730108737946,0.030538996681571007,-0.16597390174865723,-0.10360151529312134,0.02011778950691223,0.1421741247177124,0.17547595500946045,0.1414414793252945,-0.10217556357383728,0.013842650689184666,0.15071742236614227,0.08085073530673981,-0.0011786377290263772,0.1058632880449295,-0.009689866565167904,0.16425921022891998,-0.07256866991519928,-0.182314932346344,0.09228581935167313,-0.11807405948638916,-0.1960878074169159,-0.023571955040097237,0.016519736498594284,0.09686323255300522,-0.09306004643440247,0.02159116044640541,0.12164950370788574,-0.37322500348091125,-0.07101164758205414,0.102913036942482,-0.11362756043672562,-0.08582579344511032,0.04107942059636116,0.008768812753260136,-0.17915596067905426,0.17669889330863953,-0.17266593873500824,-0.09912130236625671,0.12713459134101868,-0.09630013257265091,-0.12245513498783112,-0.09405683726072311,-0.11092551797628403,0.18502314388751984,-0.12512126564979553,-0.0036591223906725645,0.03084467723965645,-0.04578272998332977,-0.01820947974920273,0.14327400922775269,0.09289798885583878,-0.15130670368671417,0.027934657409787178,-0.1428428292274475,0.17869111895561218,-0.17315350472927094,-0.05641824007034302,0.08205242455005646,0.05340973287820816,0.00598590774461627,0.11612953990697861,0.03014158457517624,0.06824440509080887,0.1488078534603119,-0.07576727122068405,-0.5106519460678101,-0.4956164062023163,-0.7099918723106384,-0.5179793834686279,-0.16570889949798584,-0.1895039826631546,-0.04340508207678795,-0.10187628865242004,-0.04904297739267349,-0.6768069863319397,-0.876371443271637,0.0075084129348397255,0.19534894824028015,-0.04798860102891922,0.11353117972612381,-0.17072106897830963,0.1240396574139595,-0.010013549588620663,-0.04543495923280716,-0.10780958831310272,-0.05764641612768173,0.1675749570131302,0.14758750796318054,-0.17437776923179626,-0.17012348771095276,0.1589994877576828,-0.1424037516117096,0.12028637528419495,-0.01688324846327305,0.039732154458761215,0.07537153363227844,0.0574050210416317,0.049206141382455826,-0.19295944273471832,-0.1877533197402954,-0.1737816333770752,-0.012008646503090858,0.18187172710895538,-0.07833677530288696,-0.1673806756734848,-0.19515454769134521,0.058978449553251266,-0.15656539797782898,-0.025522718206048012,-0.1291293501853943,-0.007451285142451525,0.019693367183208466,0.01071378868073225,-0.146138995885849,0.05945859104394913,-0.12392779439687729,0.1581682413816452,0.08775045722723007,-0.05693850293755531,0.053252898156642914,-0.03826986998319626,-0.09807159751653671,-0.11845239996910095,0.0017943837447091937,0.06080804392695427,-0.12130193412303925,-0.12269207835197449,-0.16715407371520996,-0.026617178693413734,0.017386052757501602,-0.08055702596902847,0.1326485127210617,0.07959271222352982,0.10689476132392883,-0.03731627017259598,0.005758914165198803,-0.005601949989795685,-0.1802302449941635,-0.02999696135520935,0.0942000299692154,-0.07349822670221329,-0.011937065981328487,-0.018590815365314484,0.11063112318515778,0.1506498008966446,-0.04825814813375473,0.12935273349285126,0.014680396765470505,-0.17031683027744293,-0.020641950890421867,0.19287216663360596,0.16100628674030304,-0.19954800605773926,0.027300475165247917,-0.11334645003080368,0.14307720959186554,0.0066343024373054504,0.15651434659957886,-0.05082215368747711,0.08091380447149277,-0.09843265265226364,0.02737676538527012,-0.18838225305080414,-0.14165227115154266,0.1998492181301117,-0.056085750460624695,-0.16524583101272583,-0.04376301169395447,0.14611704647541046,-0.16247063875198364,0.02495056577026844,-0.12208797037601471,0.13872724771499634,-0.08628632128238678,0.003917935770004988,-0.18000489473342896,0.13946110010147095,-0.11644773930311203,0.054483190178871155,0.0887947678565979,-0.07522109150886536,0.14956846833229065,0.041617777198553085,0.06824841350317001,0.10840301215648651,0.08488539606332779,0.17275869846343994,0.07155613601207733,0.1848888248205185,0.13840730488300323,0.0675729513168335,0.012110850773751736,-0.17070254683494568,0.17893049120903015,-0.014782543294131756,-0.061727818101644516,-0.13000288605690002,0.11243069916963577,0.012874907813966274,-0.10002148151397705,0.04661742225289345,0.1274927854537964,0.1775156408548355,-0.03379453346133232,0.11414014548063278,-0.028210410848259926,0.11690542101860046,0.12019984424114227,-0.10994695127010345,0.11023350805044174,0.18007197976112366,-0.1241728737950325,0.05888177827000618,-0.19793307781219482,-0.6806660890579224,-0.06123356893658638,-0.32969948649406433,0.11738895624876022,-0.18791677057743073,0.14652161300182343,0.00628167949616909,0.08877596259117126,0.1278805285692215,0.06961198151111603,-0.019971607252955437,-0.15424105525016785,-0.12777552008628845,0.05672366917133331,-0.17514383792877197,-0.10760176181793213,0.16117648780345917,0.1475980281829834,0.16293415427207947,0.1784324049949646,-0.15304231643676758,0.15043555200099945,-0.0938369408249855,-0.16153690218925476,-0.09344882518053055,0.002630179515108466,-0.06347200274467468,-0.18687330186367035,-0.12141678482294083,-0.07187870144844055,-0.4740004241466522,-0.08088893443346024,0.10685556381940842,-0.12582747638225555,-0.18463034927845,0.05009205639362335,-0.19660459458827972,-0.046478521078825,0.08096126466989517,-0.18280601501464844,-0.039648253470659256,-0.1223493367433548,-0.0233452245593071,-0.010713471099734306,0.10547365248203278,-0.09770512580871582,0.1312406212091446,-0.12031032145023346,0.06188918650150299,0.0216232817620039,0.05181434378027916,-0.09372776001691818,0.1507750004529953,0.06075878068804741,0.09008769690990448,0.01893160678446293,-0.1781308501958847,0.18666775524616241,-0.08216344565153122,0.08796482533216476,-0.061596885323524475,0.11940260976552963,0.08906207978725433,-0.13746106624603271,0.11720449477434158,-0.1895310878753662,-0.16451282799243927,-0.12975086271762848,-0.1900709569454193,-0.06573383510112762,0.18675249814987183,0.0033784450497478247,-0.08602192997932434,-0.19439390301704407,-0.07446955889463425,0.15915511548519135,0.08281254768371582,0.05179543048143387,0.15736927092075348,-0.12278135120868683,-0.04027911648154259,-0.01938285119831562,0.10788392275571823,0.1334013193845749,0.15636654198169708,-0.19736532866954803,0.05153748020529747,0.13197362422943115,-0.07005929201841354,-0.04856477305293083,-0.12113342434167862,-0.007749693002551794,-0.13461846113204956,-0.11594417691230774,0.06443584710359573,-0.06473199278116226,0.023559924215078354,0.022810427471995354,-0.09360073506832123,-0.14673404395580292,0.1352560818195343,-0.12969961762428284,0.06692887842655182,-0.05237007886171341,0.15017162263393402,-0.1495075821876526,0.01862718164920807,-0.1951964944601059,-0.09180141240358353,0.049200575798749924,0.10822296887636185,0.16150149703025818,-0.0603896863758564,-0.07593460381031036,-0.16242007911205292,0.15905894339084625,0.1309671550989151,0.07980239391326904,0.11998733133077621,-0.13211658596992493,0.1793908178806305,-0.17696525156497955,-0.19768628478050232,0.1856345683336258,-0.10784745961427689,-0.12177534401416779,-1.9528465270996094,0.05250738933682442,0.17567002773284912,0.006473294924944639,0.14206446707248688,-0.024875154718756676,-0.09458141773939133,0.014756428077816963,0.0617198683321476,-0.0020274012349545956,0.19381670653820038,0.16493430733680725,-0.36077097058296204,-0.18289120495319366,-0.08998259902000427,-0.018028583377599716,-0.15309251844882965,-0.11786621063947678,-0.16538022458553314,0.1399073600769043,0.028379743918776512,0.00018266658298671246,0.18504691123962402,0.015164327807724476,-0.04785742238163948,0.11531415581703186,-0.1610327810049057,-0.10958104580640793],[-0.3987186849117279,-0.10902372747659683,0.08347225189208984,-0.10581852495670319,0.12371289730072021,0.055249352008104324,0.19777344167232513,0.12129131704568863,0.17684616148471832,-0.15262706577777863,-0.012431822717189789,0.10081373900175095,1.3902769088745117,0.1158485934138298,1.9372020959854126,0.4839498698711395,0.2721661925315857,-0.3599281907081604,-0.6449921727180481,0.3893468677997589,0.38637855648994446,-1.194678544998169,-0.5575928092002869,-0.7429876923561096,-0.3618481755256653,0.6297100186347961,-0.49444425106048584,0.36041924357414246,0.036853138357400894,1.4561477899551392,0.14434878528118134,0.001265130820684135,0.19897456467151642,-0.15415702760219574,0.18001320958137512,-0.4922676086425781,-0.2719234228134155,0.1188160851597786,0.1359998732805252,-0.13427183032035828,0.10828748345375061,0.1275503933429718,0.09590239822864532,0.13014072179794312,-0.3342488408088684,-0.10344509780406952,-0.02252235636115074,-0.11216749250888824,0.036494653671979904,-0.15060101449489594,-0.1244049146771431,0.11822406947612762,-0.1050398200750351,-0.05729425698518753,0.16798436641693115,0.17384743690490723,-0.11087523400783539,-0.0029245067853480577,-0.016713077202439308,-0.07538189738988876,-0.1560872495174408,-0.09660553932189941,-0.03241339698433876,-0.21875342726707458,-0.005936137400567532,0.17113164067268372,-0.05130520090460777,-0.0379454679787159,0.1314292997121811,0.14585134387016296,0.022923313081264496,-0.12717948853969574,0.1751418113708496,-0.07733463495969772,-0.1559215486049652,-0.008737092837691307,0.10846541076898575,-0.1443643718957901,0.1584053635597229,0.010507631115615368,-0.0552578829228878,0.10249559581279755,0.12339931726455688,0.17322270572185516,0.02473372407257557,-0.14013153314590454,-0.021968884393572807,-0.14428918063640594,-0.045217908918857574,0.16239941120147705,-0.023223871365189552,0.15498314797878265,0.17041994631290436,0.14927084743976593,0.06680798530578613,-0.024032797664403915,0.1352740377187729,-0.037848152220249176,-0.0012161624617874622,0.12420844286680222,0.037662323564291,-0.07894353568553925,-0.18363142013549805,0.10746271908283234,0.16997085511684418,-0.053662993013858795,0.18971115350723267,-0.14214655756950378,-0.1626306176185608,-0.108576200902462,-0.11838150024414062,0.16398325562477112,-0.02768036350607872,-0.15441614389419556,-0.14066098630428314,-0.0934499055147171,0.08181829005479813,0.12733598053455353,0.1826583594083786,0.09710682183504105,-0.03494090214371681,0.12131267040967941,0.037374887615442276,0.15577901899814606,0.07457331568002701,-0.1003931313753128,-0.07159598171710968,0.0009012548252940178,0.16796289384365082,0.11211837083101273,0.12022728472948074,0.13927297294139862,0.054344069212675095,0.169107124209404,0.014912118203938007,-0.06865614652633667,-0.07759511470794678,-0.06673301011323929,-0.07610753178596497,0.07798164337873459,0.07669269293546677,0.17786435782909393,-0.014933004043996334,-0.13674718141555786,0.058391522616147995,-0.04069724678993225,-0.1817326694726944,0.04310865327715874,0.08794646710157394,-0.04790748283267021,0.06408202648162842,-0.07651150226593018,0.13677583634853363,-0.06583262234926224,0.005040550604462624,-0.09728052467107773,-0.054732341319322586,0.02956879511475563,-0.09584566950798035,0.1404806673526764,0.17183029651641846,-0.170151948928833,-0.06568228453397751,-0.027101639658212662,-0.1036098301410675,-0.07748709619045258,-0.30213361978530884,0.12707893550395966,-0.1377338469028473,-0.03371889144182205,-0.16206319630146027,0.0009358858224004507,-0.1407998651266098,-0.06920064240694046,-0.11440408229827881,-0.035094767808914185,-0.011366407386958599,0.08629658818244934,0.051585838198661804,-0.06289710104465485,0.137098029255867,0.029885390773415565,0.0823662281036377,0.08965133130550385,0.19706258177757263,-0.01835702918469906,0.15375582873821259,0.1999937742948532,-0.09461052715778351,-0.18824049830436707,0.13554732501506805,0.18888360261917114,-0.17709779739379883,-0.009703895077109337,0.1705823689699173,-0.05356613174080849,0.1415732055902481,-0.00121059559751302,0.16061654686927795,-0.16422569751739502,0.06784430891275406,0.09035291522741318,0.01807268150150776,0.05413549393415451,-0.06291639804840088,-0.051068179309368134,-0.04028456658124924,-0.1499687135219574,-0.0091834906488657,0.04855626821517944,0.11415482312440872,-0.19075626134872437,-0.09994308650493622,0.1057363748550415,0.029273608699440956,-0.029134882614016533,0.10706043988466263,-0.06480717658996582,0.14302831888198853,-0.015865232795476913,-0.09835157543420792,-0.022590575739741325,-0.01472247764468193,-0.000054956799431238323,0.17162460088729858,-0.09087272733449936,0.08796420693397522,