{"type":"NeuralNetwork","sizes":[404,20,31],"layers":[{"weights":[],"biases":[]},{"weights":[[-0.31722360849380493,-0.10250642895698547,-0.18631687760353088,-0.10940931737422943,-0.0907890796661377,-0.2859169840812683,-0.1999954879283905,-0.09652098268270493,-0.39101076126098633,0.2017596811056137,2.877455234527588,0.8882519006729126,0.7185454368591309,0.902101993560791,-0.1310023069381714,0.5899667143821716,1.2997100353240967,2.002002000808716,-0.8395197987556458,0.6390162110328674,-1.0441826581954956,0.6617497801780701,0.1547156572341919,-1.0411816835403442,-0.5801887512207031,-0.023327121511101723,-0.13300257921218872,-0.2273104190826416,-0.018701016902923584,-0.23922474682331085,-0.17136754095554352,0.017897456884384155,-0.05594687908887863,-0.2416049987077713,-0.07071923464536667,-0.0774344652891159,-0.009845028631389141,-0.067601777613163,-0.2531709671020508,0.032493967562913895,-0.03271959722042084,0.04155626520514488,0.08223771303892136,-0.12169201672077179,-0.11487814784049988,-0.23515695333480835,-0.275380402803421,-0.03352726995944977,-0.0805908739566803,-0.21233786642551422,0.06510007381439209,-0.2799985110759735,-0.1224619671702385,-0.0882754921913147,-0.15039587020874023,-0.2538415193557739,-0.2796121835708618,-0.3201996088027954,-0.14867344498634338,-0.06990537792444229,0.04678869992494583,-0.08146674931049347,-0.15913593769073486,-0.1928083449602127,-0.17023886740207672,-0.19021759927272797,-0.06980981677770615,-0.13086842000484467,-0.28765344619750977,-0.14575614035129547,-0.03012695722281933,-0.09317037463188171,0.04929596930742264,0.19678325951099396,-0.009389681741595268,0.062144335359334946,0.07532970607280731,0.16406230628490448,0.03635992109775543,0.18516743183135986,-0.010534758679568768,0.18284232914447784,0.010886051692068577,0.05496644228696823,0.07141058892011642,0.06997044384479523,0.15681689977645874,0.06873644888401031,-0.17953762412071228,-0.10208742320537567,0.03740018233656883,-0.07824750244617462,0.1281147450208664,-0.1749277263879776,0.12544523179531097,-0.10157541930675507,-0.0667462944984436,-0.03350649029016495,-0.049442749470472336,-0.037746600806713104,0.02526247873902321,0.13223576545715332,0.05569538474082947,-0.02813367359340191,-0.1311386227607727,-0.12439616024494171,-0.012577465735375881,-0.03236450254917145,-0.01687285117805004,0.1124115139245987,-0.03854161128401756,-0.014590032398700714,-0.16468925774097443,-0.08753060549497604,-0.0937320664525032,-0.0704084262251854,-0.11205629259347916,-0.020649952813982964,0.007840052247047424,-0.021239494904875755,0.0679662898182869,0.15247312188148499,-0.054455991834402084,-0.19912253320217133,0.028489580377936363,-0.042385246604681015,0.12154074758291245,-0.14679671823978424,-0.021028727293014526,0.0944323018193245,-0.057060498744249344,-0.06901484727859497,0.10700267553329468,-0.16817013919353485,-0.037474025040864944,0.09474104642868042,0.10323648899793625,-0.02592744491994381,-0.1604420393705368,-0.10589178651571274,0.14815564453601837,0.19785362482070923,0.155633345246315,0.04584848880767822,-0.0036068910267204046,-0.10701604932546616,0.07434963434934616,0.11213099211454391,-0.02434515580534935,0.034191425889730453,0.13483883440494537,0.1052498072385788,-0.06041797250509262,0.008039337582886219,-0.1259123831987381,0.026730738580226898,0.045574385672807693,-0.06406610459089279,-0.021640170365571976,0.1067347452044487,-0.10903479903936386,0.14861126244068146,-0.170275017619133,-0.16546426713466644,-0.08603385090827942,-0.13945190608501434,0.10123346745967865,0.010972040705382824,0.15816587209701538,0.13291433453559875,0.15238608419895172,-0.032523948699235916,-0.06305724382400513,0.17040947079658508,-0.07215113937854767,0.002731859218329191,-0.07959887385368347,-0.009918417781591415,-0.035922031849622726,-0.16289743781089783,0.16066300868988037,0.11912590265274048,-0.189830482006073,0.18912750482559204,-0.03028866834938526,0.014585595577955246,0.1320139467716217,0.19171369075775146,-0.07520011067390442,0.1061074510216713,0.19769294559955597,0.13094696402549744,0.05666568502783775,0.11574109643697739,0.18735654652118683,0.012195669114589691,-0.16144302487373352,0.06516681611537933,-0.01837521605193615,-0.17670689523220062,0.026386162266135216,0.16955001652240753,-0.1686135083436966,-0.03286826238036156,-0.04853500798344612,0.15085625648498535,0.07904249429702759,-0.1040857583284378,-0.04960947483778,0.07090029120445251,-0.08995053917169571,0.06985127180814743,0.05343872308731079,0.08816731721162796,0.08906586468219757,-0.14110077917575836,0.08508144319057465,-0.07847371697425842,0.021687958389520645,0.018139423802495003,0.11996225267648697,0.05051040276885033,-0.047365281730890274,-0.0420355498790741,0.14887385070323944,-0.1003459170460701,0.17111454904079437,-0.05921714007854462,0.14900419116020203,0.059395987540483475,0.13407744467258453,-0.07218784838914871,-0.1717730313539505,-0.0738334134221077,-0.13949130475521088,0.18881933391094208,-0.16209886968135834,-0.012093918398022652,-0.08916138857603073,0.16476868093013763,-0.016358954831957817,-0.038286831229925156,-0.15034617483615875,0.06994537264108658,0.12291047722101212,0.19413283467292786,-0.0693533718585968,-0.19089381396770477,0.11850560456514359,0.05460965260863304,-0.12837770581245422,0.18922878801822662,0.19007636606693268,0.10845402628183365,-0.12577089667320251,0.013865966349840164,0.19574710726737976,0.18186524510383606,-0.15545225143432617,0.12490411847829819,-0.03410540893673897,-0.12266084551811218,0.07461895793676376,0.09540773183107376,0.18644322454929352,-0.12250073254108429,-0.08874513953924179,-0.05523800104856491,-0.16079458594322205,-0.0677555501461029,0.1281050443649292,-0.023752929642796516,0.07838883996009827,-0.03819848969578743,0.16792455315589905,0.1866033375263214,0.08603876084089279,0.043899912387132645,-0.10191240161657333,0.13152667880058289,-0.17881007492542267,-0.12373752892017365,-0.11082849651575089,-0.027757244184613228,-0.15231040120124817,0.19211232662200928,0.1823691874742508,0.16438302397727966,-0.1742430180311203,0.1876603066921234,-0.16412153840065002,-0.06029621511697769,0.002960243495181203,0.06036331504583359,0.07077515125274658,0.11620301008224487,-0.19172543287277222,-0.08004887402057648,0.028519194573163986,-0.17830076813697815,-0.17271235585212708,0.07718107104301453,0.16169311106204987,-0.0868963673710823,-0.15481887757778168,0.17726367712020874,-0.15563607215881348,0.03366372361779213,0.19662149250507355,0.16369697451591492,-0.1236325204372406,-0.1485462635755539,-0.0434708371758461,0.16056883335113525,0.00545082101598382,0.12370245903730392,0.05820636451244354,0.03329410403966904,0.18355721235275269,0.17986467480659485,0.05404909327626228,0.171482652425766,0.06895431876182556,-0.04782318323850632,0.0907418504357338,0.06529276072978973,-0.046730831265449524,0.024224676191806793,-0.040436577051877975,0.1666123867034912,0.08449326455593109,0.005879587028175592,-0.00980747677385807,-0.18357911705970764,0.06004294380545616,0.05913887172937393,0.1869468241930008,-0.1673988699913025,-0.19391804933547974,0.08380220830440521,-0.1758534014225006,0.0002923598513007164,-0.17605121433734894,0.16853997111320496,-0.19785752892494202,0.12556001543998718,-0.005021158140152693,-0.01170249842107296,0.08700130879878998,0.1825748085975647,-0.02837909758090973,-0.18515445291996002,-0.013421102426946163,0.03897852450609207,-0.04955165088176727,-0.0012525306083261967,-0.09809525310993195,0.14075593650341034,-0.036272384226322174,-0.06308279186487198,0.03137844428420067,0.04522053524851799,-0.18456491827964783,-0.0931696966290474,-0.1972932070493698,-0.02921121008694172,0.15600822865962982,0.004998734220862389,-0.11835282295942307,0.0006116969743743539,0.09313950687646866,0.0006717077339999378,0.1956840455532074,0.13590724766254425,0.01482966635376215,-0.029639998450875282,0.11345134675502777,-0.05594158172607422,-0.18391916155815125,0.07377371937036514,0.1755262017250061,0.07182598114013672,0.011174623854458332,0.018035395070910454,0.09393423795700073,-0.13543623685836792,-0.022425226867198944,0.03607276827096939,0.07885238528251648,0.0851641446352005,0.11022971570491791,-0.07531780004501343,0.19299137592315674,-0.1930796355009079,0.12152238935232162,-0.1236448809504509,0.19850268959999084,0.1281871795654297,0.009222395718097687,0.07842635363340378,0.03610103577375412,-0.003749973839148879,0.04406321048736572,-0.16420088708400726],[0.26338815689086914,0.20508266985416412,0.25825580954551697,0.34094953536987305,0.3037201166152954,0.07482334971427917,0.12723378837108612,0.26195254921913147,-1.4224238395690918,-1.8409311771392822,-0.6701789498329163,-1.830815315246582,0.03527432307600975,0.08867771178483963,0.2254604995250702,-1.594170093536377,-2.3602287769317627,-2.238528251647949,-1.2517955303192139,-0.40159013867378235,-1.348862886428833,-0.6587743163108826,0.06035691127181053,1.3492122888565063,-1.8783586025238037,-1.0135555267333984,0.21758955717086792,0.38139206171035767,0.15094448626041412,0.27613264322280884,0.15761308372020721,0.1479722112417221,0.3767130672931671,0.3940408229827881,0.3170590400695801,0.2241574227809906,0.2804136276245117,0.19798170030117035,0.19131332635879517,0.36743587255477905,0.138119637966156,0.27884143590927124,0.2139386683702469,0.24128277599811554,0.19805896282196045,0.13902254402637482,0.231655552983284,0.16215525567531586,0.35154280066490173,0.4183128774166107,0.3502114415168762,0.2463943362236023,0.12493646144866943,0.37700191140174866,0.10679744929075241,0.14386284351348877,0.43205180764198303,0.12506063282489777,0.08805180341005325,0.1855984628200531,0.37053099274635315,0.18457598984241486,0.39217811822891235,0.2381967008113861,0.38180944323539734,0.259420245885849,0.36983877420425415,0.34564656019210815,0.09828183799982071,0.19597546756267548,0.31349125504493713,-0.03408963233232498,0.005150428507477045,-0.14226499199867249,-0.011019045487046242,0.17945021390914917,0.13047072291374207,-0.031600985676050186,0.1617351770401001,-0.15544164180755615,-0.02096831612288952,0.1692679226398468,0.018305592238903046,-0.16661547124385834,0.007092814426869154,-0.05772353336215019,-0.040069546550512314,0.17368410527706146,0.102800652384758,-0.02472575008869171,0.033637434244155884,0.051274120807647705,0.08521296828985214,0.0809495747089386,-0.14314669370651245,-0.17338153719902039,-0.1980462521314621,-0.18292297422885895,0.18489713966846466,0.17998437583446503,-0.08766082674264908,0.06765537708997726,-0.15289822220802307,0.06416941434144974,-0.09977956116199493,-0.01681944727897644,0.14651088416576385,-0.14636190235614777,0.1772703230381012,0.08445760607719421,-0.018643321469426155,0.15655942261219025,0.031499434262514114,0.1360377073287964,0.15874642133712769,-0.13678650557994843,0.03243252635002136,-0.1637243926525116,0.16944539546966553,0.0605962909758091,-0.06341518461704254,-0.009345696307718754,0.05352676287293434,-0.03227125480771065,-0.07407576590776443,0.09074060618877411,-0.021510429680347443,-0.059676144272089005,-0.11751116812229156,-0.15450656414031982,-0.021497804671525955,0.14179743826389313,0.004322155378758907,0.015859976410865784,0.17183655500411987,0.07523907721042633,-0.06149744987487793,-0.10980506986379623,-0.17022626101970673,0.12461056560277939,-0.1214175745844841,0.17560015618801117,-0.17190204560756683,-0.1538015902042389,-0.11472757905721664,0.12187165766954422,0.046495601534843445,-0.13107673823833466,-0.01922808773815632,-0.13965094089508057,-0.09312038123607635,-0.08101323992013931,-0.042951539158821106,-0.1431916356086731,0.0231271181255579,0.06648454815149307,-0.1876896768808365,-0.066289521753788,0.12342150509357452,0.18637101352214813,0.19235128164291382,0.14536303281784058,0.1381588876247406,-0.04972155764698982,-0.1891305148601532,0.12815764546394348,0.0415012501180172,0.15578721463680267,0.1692361682653427,0.06678584218025208,0.1301858276128769,-0.06310519576072693,-0.03262314945459366,0.03041456639766693,-0.00026533458731137216,0.12106943875551224,-0.005353651009500027,0.030018478631973267,0.13581940531730652,-0.10879752784967422,-0.12829142808914185,-0.13899526000022888,-0.023425985127687454,-0.15330269932746887,-0.1341775804758072,0.08672235161066055,-0.017885783687233925,-0.15815959870815277,0.09924401342868805,-0.1656779944896698,-0.17616841197013855,-0.01703212596476078,-0.00638236990198493,-0.10545982420444489,0.13704530894756317,-0.09458252787590027,0.09239040315151215,-0.11444221436977386,-0.1752839833498001,0.06802590191364288,-0.17075850069522858,-0.07756080478429794,-0.07488250732421875,-0.18573708832263947,0.1773655265569687,0.061119478195905685,-0.13030120730400085,0.16546083986759186,-0.16201090812683105,-0.058120887726545334,-0.043269865214824677,-0.0856529027223587,0.047152504324913025,0.052181217819452286,0.10407614707946777,0.1457670032978058,-0.1117536798119545,-0.004321358632296324,-0.0058232201263308525,-0.04483631253242493,0.07631562650203705,0.15152551233768463,-0.1431483030319214,-0.08957693725824356,-0.004480308387428522,0.15993690490722656,0.18932205438613892,0.002588110975921154,0.05514940619468689,0.0014611545484513044,0.026304516941308975,0.06117452308535576,-0.17319965362548828,0.0708247721195221,0.1873045563697815,-0.13177120685577393,-0.1552666276693344,0.10272655636072159,0.11212382465600967,0.027051668614149094,-0.04516991600394249,-0.10704518109560013,-0.048968639224767685,0.18524593114852905,-0.07652445882558823,0.013554105535149574,0.02182566188275814,0.15525273978710175,0.1802496314048767,0.13348016142845154,-0.030584225431084633,0.09324941784143448,-0.16692349314689636,0.07288451492786407,0.10255744308233261,-0.14115241169929504,0.09996763616800308,-0.11008512228727341,-0.15225960314273834,0.14651437103748322,0.19130712747573853,-0.10265321284532547,-0.010449850931763649,-0.1890808492898941,-0.1526211053133011,0.08418101072311401,0.03581734746694565,0.099528007209301,0.11023969203233719,-0.12592004239559174,-0.1345280259847641,0.08998201787471771,-0.1700647622346878,-0.05476756393909454,-0.07803134620189667,-0.02367728389799595,-0.14138783514499664,-0.16773761808872223,-0.19581446051597595,0.0027439401019364595,-0.04822858050465584,-0.025432879105210304,-0.1959063559770584,0.006199881434440613,0.12835738062858582,0.17763936519622803,-0.013117440976202488,0.09367366880178452,-0.037080828100442886,0.08691226691007614,-0.043011534959077835,-0.1565525084733963,-0.11782582849264145,-0.16437610983848572,-0.10797237604856491,-0.0017834032187238336,0.15526345372200012,-0.022151807323098183,-0.13627125322818756,-0.15548628568649292,0.019949328154325485,-0.12694650888442993,0.10876652598381042,-0.17755061388015747,0.15906091034412384,-0.17368993163108826,0.09856077283620834,-0.09163174778223038,0.00107319257222116,0.1420937180519104,-0.036700714379549026,-0.04515548795461655,-0.025122767314314842,0.08762205392122269,-0.13950581848621368,-0.099444679915905,0.013053747825324535,-0.04575587809085846,0.040309641510248184,0.08504211157560349,0.12754201889038086,-0.00444230530411005,0.013900668360292912,0.18692012131214142,0.05623015761375427,-0.01640462316572666,-0.18165579438209534,0.19981415569782257,-0.17893043160438538,-0.03949977830052376,0.04468230903148651,0.1540820151567459,0.15058062970638275,0.07874844968318939,-0.008086626417934895,0.005237450357526541,-0.04537474736571312,-0.11385675519704819,-0.0587763749063015,-0.058889761567115784,0.049782782793045044,-0.04637748375535011,0.00949389860033989,0.1198268011212349,-0.11731106042861938,0.16614651679992676,-0.07788755744695663,-0.0765104815363884,0.0024389030877500772,0.11070933192968369,0.12983563542366028,-0.19495758414268494,0.04641615226864815,0.059593066573143005,-0.19370821118354797,-0.0009551112889312208,0.006395387463271618,-0.00505587924271822,0.1480308622121811,0.15656910836696625,0.12722262740135193,0.03846777230501175,0.01293109729886055,-0.10774993151426315,0.0169808492064476,-0.04544997960329056,0.18414407968521118,-0.07404733449220657,-0.14513012766838074,-0.04507822543382645,-0.06169113516807556,-0.038938362151384354,0.18303589522838593,0.19916798174381256,0.17618370056152344,-0.10601815581321716,0.04166466370224953,0.07895202934741974,0.12014026194810867,-0.16034992039203644,0.12895146012306213,0.1380453109741211,-0.08666948229074478,0.02512207068502903,0.1415718048810959,-0.003984822425991297,0.014141377992928028,0.07557207345962524,-0.14376616477966309,-0.06708813458681107,-0.06207946687936783,-0.038146618753671646,0.18764041364192963,0.1614415943622589,0.18310900032520294,0.06439841538667679,0.10515273362398148,0.0058905561454594135,-0.15664175152778625,0.0984979197382927,0.04819508641958237,0.003453237470239401,0.13133977353572845,0.011407414451241493],[0.27862095832824707,0.13620762526988983,0.3517651855945587,0.38950738310813904,0.19044697284698486,0.3764881491661072,0.32995691895484924,0.17358358204364777,-2.5053720474243164,-1.5938180685043335,-0.8040635585784912,-1.898190975189209,-0.6738755702972412,-1.2644277811050415,-0.2872200608253479,0.7985566258430481,-2.5544497966766357,-1.6498523950576782,-0.8767015337944031,-0.49958497285842896,-0.46962884068489075,-0.03915179520845413,-0.15780819952487946,-0.6629472970962524,-1.6284608840942383,-1.187650203704834,0.21983298659324646,0.24238716065883636,0.19522567093372345,0.18977706134319305,0.36429455876350403,0.30067554116249084,0.13948367536067963,0.23609168827533722,0.3135428726673126,0.44449320435523987,0.29856815934181213,0.3761931359767914,0.1717132031917572,0.12872529029846191,0.3988642990589142,0.3381599187850952,0.20940546691417694,0.09271115064620972,0.3424890339374542,0.24192506074905396,0.06859676539897919,0.384439617395401,0.03695761784911156,0.10519526898860931,0.20291003584861755,0.327982097864151,0.2696625888347626,0.05347978323698044,0.38513803482055664,0.35787248611450195,0.14415936172008514,0.25459688901901245,0.2754577100276947,0.37769487500190735,0.30040591955184937,0.13006918132305145,0.1779443323612213,0.2435896396636963,0.40681079030036926,0.31363528966903687,0.3724907636642456,0.11436475813388824,0.09409380704164505,0.15311270952224731,0.18939025700092316,-0.04956765100359917,-0.06483671814203262,0.05646055191755295,-0.19331669807434082,0.037275563925504684,0.11010147631168365,-0.04058617353439331,0.15619489550590515,-0.16855141520500183,0.050032537430524826,-0.1842227578163147,-0.12251927703619003,-0.023344311863183975,0.13425810635089874,-0.09402618557214737,0.007189849391579628,-0.10599122196435928,0.05389242619276047,-0.13658644258975983,0.005466701462864876,0.18835164606571198,-0.029628988355398178,-0.05432964488863945,0.18194225430488586,0.013896996155381203,0.02886342629790306,-0.19843582808971405,-0.05232563987374306,0.13795354962348938,-0.18729664385318756,0.09109608829021454,-0.19776903092861176,-0.17056147754192352,-0.06958302110433578,-0.07370390743017197,0.16755208373069763,-0.1978154331445694,-0.1822156459093094,-0.11162852495908737,0.02459310181438923,-0.1021154597401619,0.19984322786331177,0.07502753287553787,-0.12152473628520966,-0.1731991469860077,0.0982586219906807,0.15648142993450165,-0.08020343631505966,-0.010422572493553162,-0.08868725597858429,0.07222636044025421,0.0836767852306366,-0.16528773307800293,0.08247218281030655,0.018255623057484627,-0.056264478713274,-0.18751846253871918,0.011640970595180988,0.09138203412294388,-0.14302648603916168,-0.05602942779660225,-0.038414791226387024,0.1927395910024643,-0.08285585045814514,0.011659346520900726,0.1958056092262268,-0.13472512364387512,-0.10542497783899307,-0.13054560124874115,-0.026372885331511497,0.032594386488199234,0.1377762407064438,-0.07279013842344284,-0.125883549451828,-0.052343983203172684,-0.037315983325242996,-0.11287593841552734,-0.16094249486923218,0.19381020963191986,0.17909932136535645,-0.17586450278759003,0.12367692589759827,0.04338151589035988,0.15835554897785187,-0.11203616857528687,-0.083255834877491,-0.11931804567575455,-0.007964515127241611,-0.09242334216833115,0.06419022381305695,0.1840476095676422,-0.07551779597997665,-0.04995466023683548,0.07309629768133163,-0.18158946931362152,-0.03140335902571678,-0.1365916132926941,-0.13287542760372162,0.12210725992918015,0.12255536019802094,0.15089234709739685,0.04472120851278305,0.008289097808301449,0.19234371185302734,0.057608455419540405,-0.057756613940000534,0.18778911232948303,-0.19030305743217468,-0.08249141275882721,-0.16663283109664917,0.054953526705503464,-0.1990804374217987,0.09005232155323029,-0.16395793855190277,0.10755793750286102,-0.1038515567779541,0.11449319124221802,-0.15087537467479706,-0.12285271286964417,0.08372557908296585,0.14734341204166412,0.03838147968053818,-0.07366985827684402,-0.06179497018456459,-0.19824104011058807,-0.14839674532413483,0.1913079172372818,-0.03652273491024971,-0.053349025547504425,0.06870849430561066,0.12743836641311646,0.08072122186422348,0.08920402079820633,0.028409365564584732,0.09379775822162628,-0.13369449973106384,0.16162025928497314,0.06086723506450653,0.16252578794956207,0.16136831045150757,0.011467386968433857,0.04950089380145073,0.11608108878135681,0.042351044714450836,-0.01483568362891674,0.1847468465566635,0.1434108465909958,0.02451079525053501,0.06939248740673065,0.07775533199310303,-0.02043764851987362,-0.19500437378883362,0.1200212836265564,-0.052797384560108185,-0.13163234293460846,0.03588413819670677,-0.03286844119429588,0.012278389185667038,-0.030910754576325417,0.03685285896062851,0.07622229307889938,-0.056015755981206894,-0.14541007578372955,-0.13186492025852203,-0.04259779676795006,-0.05175108462572098,-0.17104701697826385,-0.01622537523508072,-0.1790207177400589,0.12757571041584015,0.05986792966723442,0.041142649948596954,-0.05081832781434059,-0.02797958068549633,0.041035447269678116,0.1151105985045433,0.1437581330537796,0.020503072068095207,-0.010343019850552082,-0.16178345680236816,-0.19049233198165894,0.036048293113708496,-0.006555370520800352,0.12148056924343109,-0.008414325304329395,0.07212391495704651,-0.05048162862658501,0.12203818559646606,0.13866950571537018,0.09145668148994446,0.17512460052967072,-0.07752647250890732,0.19286547601222992,-0.07502365112304688,-0.03315020352602005,-0.03892377391457558,0.17395223677158356,-0.1490728110074997,-0.08435533195734024,-0.15288613736629486,0.05196718871593475,0.19072046875953674,-0.03777679428458214,-0.14021645486354828,-0.05481705069541931,0.0035431848373264074,-0.12519574165344238,0.15556412935256958,-0.102288156747818,-0.07039253413677216,-0.042745206505060196,0.0860769972205162,-0.1746666580438614,0.16468235850334167,0.07463017851114273,-0.1564154028892517,0.15509597957134247,-0.06436502188444138,-0.12569433450698853,-0.12348240613937378,-0.005135136190801859,-0.13043935596942902,0.16385067999362946,0.03166104853153229,-0.03828234225511551,-0.16368818283081055,-0.04811110347509384,0.16656120121479034,-0.1247100979089737,0.05678432062268257,-0.11272312700748444,-0.1936342865228653,0.12910407781600952,-0.19113212823867798,0.18440790474414825,0.1380617767572403,-0.15734685957431793,-0.09436776489019394,0.092031329870224,0.11393380910158157,0.015389727428555489,0.05858239531517029,-0.08309019356966019,0.05265294760465622,0.19778290390968323,-0.041150081902742386,0.029279282316565514,0.09951078146696091,-0.048247989267110825,-0.02527271769940853,0.1757013350725174,0.041276123374700546,-0.030865764245390892,-0.14624813199043274,0.008955290541052818,-0.12249390780925751,0.17053252458572388,-0.11784997582435608,-0.15837909281253815,-0.147152379155159,-0.06805508583784103,0.06101192533969879,0.09722182154655457,-0.057395730167627335,-0.06945544481277466,-0.14055079221725464,-0.10973018407821655,0.10587243735790253,-0.08790327608585358,-0.01952214352786541,-0.07280700653791428,-0.14974865317344666,0.07079276442527771,0.022269440814852715,-0.18482746183872223,-0.011756611056625843,-0.14002402126789093,-0.08663854002952576,0.15273641049861908,0.14390875399112701,0.0017476433422416449,-0.12236469238996506,-0.07081495225429535,-0.18423254787921906,0.043209969997406006,-0.19905631244182587,0.06821509450674057,0.16106674075126648,0.02966398559510708,0.16906893253326416,-0.018671272322535515,-0.1952853798866272,-0.12278793752193451,0.043084412813186646,0.035083066672086716,0.10620707273483276,0.045891132205724716,-0.020417777821421623,0.01741730608046055,0.02975279837846756,0.1964641958475113,0.060258425772190094,0.169889435172081,0.12253458797931671,-0.035519156605005264,0.021837575361132622,-0.09218747168779373,0.13398486375808716,0.026850033551454544,0.11377862095832825,0.043661534786224365,-0.17351101338863373,0.0693604052066803,-0.08315539360046387,-0.025157712399959564,-0.023144468665122986,-0.007454137783497572,-0.018688609823584557,-0.15782584249973297,0.12749984860420227,-0.05489737540483475,-0.14017173647880554,0.08379415422677994,0.11161796003580093,-0.1371905654668808,0.06683198362588882,-0.12154819071292877,0.08776436746120453,-0.0866524800658226,-0.027231711894273758,-0.184554323554039,-0.009486622177064419,0.1047208160161972],[0.1463511437177658,-0.1565013974905014,-0.18328262865543365,-0.18305280804634094,-0.15697960555553436,0.09805773198604584,-0.026515187695622444,-0.21298423409461975,-0.958351194858551,-0.8521963953971863,-0.20662006735801697,0.3172931969165802,-1.6221351623535156,-0.29418161511421204,1.4524595737457275,1.3925893306732178,0.7940494418144226,0.034050893038511276,-0.9658505320549011,-0.9015169739723206,0.4328710734844208,0.5398428440093994,0.06372550874948502,0.32390332221984863,-0.2563202977180481,0.31005826592445374,-0.18048709630966187,-0.02256118692457676,0.14324647188186646,-0.16220387816429138,-0.11958613246679306,0.023297246545553207,-0.008710584603250027,-0.06768125295639038,0.16125771403312683,-0.020924489945173264,-0.1086617186665535,0.06213783845305443,-0.14985138177871704,-0.11008815467357635,-0.0007394177955575287,-0.0025805989280343056,-0.034202419221401215,-0.14440658688545227,-0.017581501975655556,-0.06838063895702362,0.07620090991258621,0.0482352152466774,-0.1716146171092987,-0.034881316125392914,-0.13668981194496155,-0.11160973459482193,-0.0912543311715126,0.06781049072742462,0.17730355262756348,-0.03491329774260521,0.14140410721302032,0.11268724501132965,-0.061196133494377136,0.07263896614313126,-0.06259433925151825,0.052425138652324677,-0.14746198058128357,0.10789933800697327,0.16978980600833893,-0.19362425804138184,-0.03358077630400658,-0.002424510894343257,-0.09366268664598465,-0.2037016600370407,0.15558162331581116,-0.04055650159716606,0.15119655430316925,0.038167767226696014,-0.027596278116106987,0.0643387958407402,-0.17969265580177307,0.10092436522245407,0.08518622070550919,-0.0961417555809021,0.09572946280241013,0.007783292792737484,0.09157945960760117,0.12755049765110016,-0.16863477230072021,0.10763249546289444,-0.13226918876171112,0.10719776898622513,0.16917109489440918,-0.008323654532432556,-0.11731301993131638,-0.19876597821712494,-0.04014090076088905,-0.15490829944610596,-0.18773749470710754,-0.053891025483608246,0.12063310295343399,0.12306000292301178,0.033985309302806854,0.07382331043481827,0.17911118268966675,0.06616587191820145,-0.18986542522907257,0.18709494173526764,0.15061116218566895,-0.19989438354969025,-0.15311908721923828,0.13931849598884583,-0.012577739544212818,-0.0750226080417633,-0.06240861862897873,-0.05923083797097206,0.07997196167707443,0.04765859618782997,-0.10317835211753845,0.04773798957467079,-0.1379786729812622,-0.041396673768758774,0.18846215307712555,-0.05096327140927315,-0.051089096814394,0.19789919257164001,-0.012573822401463985,-0.13006474077701569,-0.18090946972370148,0.15766820311546326,-0.17377348244190216,-0.1018252968788147,0.08589570969343185,0.012828064151108265,0.12510065734386444,0.017765609547495842,0.19056656956672668,-0.14952315390110016,-0.16617809236049652,0.07016465812921524,0.19909721612930298,0.09462346881628036,0.09907770156860352,0.1269010454416275,0.11167367547750473,-0.12771162390708923,0.143238365650177,0.19454173743724823,-0.19857682287693024,0.007779954466968775,-0.13312608003616333,-0.17568041384220123,-0.07453439384698868,-0.08336886763572693,0.04663288593292236,-0.19520451128482819,0.1731167584657669,0.12783323228359222,0.13025550544261932,-0.09404300153255463,0.13933001458644867,-0.13659268617630005,0.0004469607083592564,-0.14189650118350983,-0.16237512230873108,-0.10242380946874619,-0.0731087476015091,0.1387365609407425,0.18368856608867645,0.15864823758602142,0.0026658806018531322,0.08651208132505417,0.17209391295909882,-0.12666729092597961,-0.0370461642742157,-0.0831974446773529,-0.07730524986982346,0.0026138077955693007,-0.08789217472076416,0.06919023394584656,0.0718269795179367,-0.09240949898958206,-0.15905766189098358,0.1989276260137558,0.19691748917102814,-0.19230905175209045,0.1940724402666092,-0.014802047982811928,-0.08840537816286087,0.1360645294189453,0.17681366205215454,-0.011784583330154419,-0.0950697511434555,0.1815669983625412,-0.15832702815532684,-0.1870514452457428,0.14229291677474976,0.16154852509498596,0.18653540313243866,-0.03754079341888428,-0.1445949673652649,-0.11999094486236572,-0.194495290517807,-0.009438596665859222,-0.07322348654270172,0.18474139273166656,0.0909765288233757,0.12805278599262238,0.06636489927768707,-0.10992468893527985,-0.08360958844423294,-0.1671384572982788,-0.10757024586200714,-0.13575267791748047,0.18774327635765076,-0.07766219973564148,0.07395077496767044,-0.0119495103135705,-0.19563665986061096,-0.09373673051595688,0.15766380727291107,-0.05324259027838707,-0.11591369658708572,0.16074231266975403,0.011160103604197502,0.17486269772052765,-0.1693531721830368,0.17079272866249084,-0.04352213814854622,0.11989857256412506,-0.05278845131397247,0.05555840581655502,-0.16974568367004395,0.09637217968702316,0.06646785885095596,0.012239149771630764,-0.12858548760414124,0.05603184923529625,-0.10510651022195816,-0.16456438601016998,-0.1909031718969345,0.011858491227030754,-0.12585502862930298,-0.15656577050685883,0.12640587985515594,0.018847893923521042,-0.0586792454123497,-0.10397520661354065,-0.007901853881776333,-0.161273792386055,-0.08793506026268005,-0.07195033878087997,0.025145651772618294,0.027833571657538414,-0.06670616567134857,-0.15057283639907837,0.16391509771347046,0.15485668182373047,0.05610359460115433,0.014720382168889046,0.1347517967224121,0.185408815741539,0.021655496209859848,0.051001351326704025,-0.16144508123397827,0.16100284457206726,-0.0021258590277284384,-0.055053722113370895,0.03349808230996132,0.1574309915304184,0.02653941512107849,0.070216603577137,-0.08153440803289413,-0.10973520576953888,0.12642401456832886,-0.06821471452713013,-0.11119963228702545,-0.148068368434906,-0.11064943671226501,-0.1158161535859108,-0.1394428163766861,-0.06858814507722855,-0.13738372921943665,-0.17936228215694427,0.13927578926086426,-0.06533286720514297,0.022022295743227005,-0.1955406218767166,0.06354428082704544,-0.13315646350383759,-0.0015975481364876032,-0.14168885350227356,-0.11837098747491837,-0.10713361948728561,0.18354853987693787,-0.14678287506103516,-0.08115231245756149,-0.10846150666475296,-0.10875585675239563,-0.039176587015390396,0.14598576724529266,0.08702889084815979,0.12639440596103668,0.055047404021024704,0.14127400517463684,-0.13171055912971497,0.18375110626220703,0.08540379256010056,-0.16557542979717255,-0.06647864729166031,-0.0032573107164353132,-0.16859635710716248,-0.008742758072912693,0.10236180573701859,0.014141330495476723,0.12528450787067413,-0.1552763283252716,-0.03619195893406868,-0.10840505361557007,0.029283273965120316,-0.0984368845820427,0.156913623213768,-0.07659436017274857,-0.13594242930412292,-0.0014131022617220879,0.11970213055610657,0.18758998811244965,-0.062019232660532,-0.021744878962635994,0.18334726989269257,-0.05498667433857918,0.12344629317522049,-0.15289342403411865,0.1360425502061844,-0.17816296219825745,-0.10566778481006622,0.12766985595226288,0.1614397019147873,0.14260829985141754,-0.04956982657313347,-0.10941188037395477,-0.008366578258574009,0.0873691514134407,-0.17444950342178345,-0.0533200278878212,-0.05397352948784828,-0.18312348425388336,0.02792276255786419,-0.15588095784187317,0.18202106654644012,0.05570045858621597,-0.12871535122394562,0.15223495662212372,-0.16792583465576172,0.0006181459175422788,-0.016644340008497238,-0.06070047989487648,-0.0009099328890442848,-0.040205370634794235,-0.006544953212141991,-0.05967048183083534,0.09878046810626984,-0.04037616401910782,-0.052938055247068405,-0.031448252499103546,-0.14535756409168243,-0.15275143086910248,-0.09012296050786972,0.04298366233706474,-0.0350714810192585,0.18158411979675293,0.05614806339144707,-0.0716172531247139,-0.007852171547710896,0.011589178815484047,0.1818024218082428,-0.12417282164096832,0.19120889902114868,0.12602773308753967,0.10807323455810547,-0.13611111044883728,-0.1759546399116516,-0.15752604603767395,0.18666356801986694,0.02641131728887558,-0.051606789231300354,-0.03762651979923248,0.05375383421778679,0.05302669480443001,-0.04875949025154114,0.05211421847343445,-0.04880797117948532,0.03605567663908005,-0.08139697462320328,-0.061333488672971725,0.05641582980751991,0.16564159095287323,-0.17779172956943512,0.15387234091758728,0.15160809457302094,-0.08267048746347427,0.18947021663188934,0.06779580563306808,0.15599249303340912,0.005261602345854044,0.11225955933332443,-0.043759673833847046,-0.03853693976998329],[0.26681551337242126,0.07155173271894455,-0.04294324293732643,-0.03849814832210541,-0.08046655356884003,-0.060578860342502594,-0.04229867458343506,0.18327775597572327,-0.1347537487745285,0.6180156469345093,-1.2390323877334595,-0.30045056343078613,-1.553418755531311,-1.8962253332138062,0.00231006252579391,0.9017439484596252,0.3089205026626587,-2.245108127593994,-1.5203224420547485,0.9748243093490601,-1.4072210788726807,1.6374213695526123,-0.07495228201150894,-0.6588269472122192,-0.2786325216293335,-0.1381729245185852,0.23344625532627106,0.10047885030508041,0.2087818682193756,-0.050716277211904526,0.15929116308689117,0.04490030184388161,0.21105386316776276,0.1879665106534958,0.20181375741958618,0.22902995347976685,0.21099629998207092,0.14399991929531097,0.2625338137149811,0.23116199672222137,0.2082403153181076,-0.05404981970787048,0.02729455940425396,0.05704504996538162,0.14806725084781647,-0.025499241426587105,0.24283994734287262,-0.06638296693563461,0.20329105854034424,0.22235499322414398,-0.004422422032803297,0.1548602432012558,-0.08568122982978821,0.17683258652687073,-0.08500190824270248,0.20940719544887543,0.20187096297740936,0.19819048047065735,0.25688087940216064,0.20522451400756836,-0.029150497168302536,0.013660098426043987,-0.058527104556560516,-0.015658091753721237,0.09720129519701004,0.011975543573498726,-0.06849047541618347,-0.0561942420899868,-0.08137723803520203,0.2059110552072525,-0.025584911927580833,-0.08370524644851685,0.19071248173713684,-0.0750829204916954,0.1909557431936264,-0.03555365279316902,0.09370800107717514,0.08625780791044235,0.056994326412677765,-0.022607307881116867,0.0003483931941445917,0.05288626253604889,0.1690661758184433,-0.027638714760541916,-0.03434968367218971,0.148617684841156,0.08733344078063965,0.14900615811347961,-0.0964314416050911,-0.0012993391137570143,-0.1644328534603119,-0.12839888036251068,0.05508384108543396,0.1201687902212143,-0.08823665976524353,0.059255607426166534,0.08131200820207596,-0.10711082816123962,0.10491229593753815,0.10091005265712738,0.0528588593006134,-0.13553307950496674,-0.03346000239253044,0.048599857836961746,-0.10384122282266617,0.09517741948366165,0.04946790263056755,-0.12900857627391815,0.08136463165283203,-0.021634677425026894,0.17541924118995667,0.14967018365859985,-0.06805737316608429,0.07858096063137054,0.10334969311952591,0.15134947001934052,-0.03991182893514633,-0.1930609494447708,-0.14713238179683685,-0.13232001662254333,-0.19804514944553375,-0.14543995261192322,-0.13653239607810974,0.027720337733626366,-0.14638453722000122,-0.08541808277368546,-0.03972730413079262,-0.05696585401892662,0.019387802109122276,0.17564745247364044,-0.13918517529964447,0.11813536286354065,0.037396691739559174,0.09780420362949371,-0.07734473049640656,-0.04097244516015053,0.08291070908308029,-0.1605209857225418,-0.1624508500099182,0.04801042750477791,-0.15456224977970123,0.026967575773596764,0.050772104412317276,-0.01918400451540947,0.13949981331825256,0.052748776972293854,0.1192823275923729,-0.019919579848647118,0.16853468120098114,0.04187140613794327,-0.1312110275030136,-0.08345179259777069,-0.13284213840961456,-0.07987450808286667,-0.017398592084646225,-0.13022498786449432,0.05668782442808151,0.07719860970973969,0.09403236955404282,-0.11804493516683578,0.1209716945886612,-0.0028956637252122164,-0.17050401866436005,0.18496926128864288,-0.037404369562864304,0.012586597353219986,0.03121630847454071,0.1696370542049408,-0.1662866324186325,-0.150590717792511,-0.09165790677070618,0.09442386031150818,0.1281752735376358,-0.06117194890975952,-0.06472878903150558,0.047718219459056854,-0.14643307030200958,-0.0859258696436882,0.1718788892030716,0.005322129465639591,0.12452314794063568,-0.048820868134498596,0.00854917336255312,-0.010753554292023182,0.17911915481090546,-0.09019490331411362,0.023361360654234886,0.13626085221767426,-0.19735682010650635,0.07588188350200653,0.008556566201150417,-0.0010509828571230173,-0.13557973504066467,-0.04282115772366524,-0.08836207538843155,0.1748703420162201,0.01780000329017639,0.01842188462615013,-0.07238152623176575,-0.14772287011146545,0.11788872629404068,0.19668102264404297,0.048820383846759796,-0.10477502644062042,-0.14618781208992004,-0.11288107931613922,0.030401112511754036,0.09215989708900452,0.052288271486759186,-0.001786499167792499,-0.10633636265993118,0.11688182502985,0.07392518222332001,0.08547748625278473,0.05438460037112236,-0.17251577973365784,-0.18341857194900513,-0.1959361433982849,-0.036826543509960175,-0.12666767835617065,0.04623478651046753,-0.16821736097335815,0.023726560175418854,-0.021051743999123573,-0.12149406224489212,-0.13019874691963196,-0.06381295621395111,-0.13574551045894623,0.016385696828365326,0.18486462533473969,-0.11070674657821655,0.08898527175188065,-0.15866419672966003,-0.043284617364406586,0.15882867574691772,-0.0036919601261615753,0.01191054005175829,0.19525007903575897,0.12766140699386597,0.16225723922252655,0.1991402506828308,0.09692233055830002,0.04790014773607254,0.19359654188156128,-0.15391743183135986,-0.061329327523708344,0.1930457055568695,0.016164692118763924,-0.03502468764781952,-0.19838601350784302,0.1929934322834015,0.019556352868676186,-0.058299675583839417,-0.12035088986158371,0.043526314198970795,-0.07714119553565979,-0.10076003521680832,-0.13661149144172668,-0.09222748875617981,-0.06095213070511818,0.01965935528278351,0.020550983026623726,0.0828511118888855,0.11260867118835449,0.05576767399907112,-0.07607731223106384,0.15558390319347382,-0.05644230917096138,-0.06043921038508415,-0.14047002792358398,-0.027732988819479942,0.14746902883052826,0.000028857615689048544,-0.17383641004562378,0.1267227828502655,0.19044357538223267,-0.013466626405715942,-0.010768081061542034,-0.0015925674233585596,-0.17045827209949493,-0.18762849271297455,0.11035541445016861,-0.08114125579595566,-0.10022526979446411,-0.04169542342424393,0.06111651286482811,-0.14045429229736328,-0.1373283565044403,0.060315925627946854,0.1009678989648819,-0.13930357992649078,-0.0719737634062767,-0.03964271396398544,-0.18701046705245972,-0.12184198200702667,0.18565525114536285,-0.019389595836400986,0.10166465491056442,0.16979576647281647,-0.15002788603305817,-0.1969885379076004,-0.08886115998029709,0.11397211998701096,0.09311986714601517,-0.025690216571092606,-0.1982412487268448,-0.00807013176381588,0.07684110850095749,0.01673966646194458,0.10044512897729874,-0.10777347534894943,0.09552570432424545,0.17969262599945068,-0.1337519884109497,0.1064002588391304,0.15498152375221252,-0.15478576719760895,0.1670774519443512,-0.14748360216617584,-0.09576909244060516,-0.17769525945186615,-0.16599057614803314,0.013538054190576077,0.11981689184904099,-0.0735950917005539,-0.010411839932203293,0.010333618149161339,-0.13579244911670685,0.1333826780319214,-0.03744685277342796,-0.12356188148260117,-0.07920622080564499,-0.1639961451292038,0.1022200882434845,0.16675850749015808,0.07725460827350616,-0.08461937308311462,0.08984199911355972,0.18438664078712463,-0.09442105144262314,-0.03994499146938324,-0.17986954748630524,0.12470296025276184,-0.18560101091861725,-0.011541569605469704,0.03698348626494408,0.11820579320192337,0.03643134981393814,-0.09548764675855637,-0.019019978120923042,0.0675332322716713,-0.17876239120960236,-0.08141899108886719,-0.12161963433027267,-0.14129231870174408,0.021009234711527824,-0.15011470019817352,-0.11441180109977722,0.015636473894119263,0.05925174057483673,-0.0638863816857338,-0.14746065437793732,0.123136505484581,-0.052681319415569305,0.11123787611722946,-0.1028900295495987,-0.017720242962241173,-0.013409078121185303,0.08922499418258667,-0.04468290135264397,-0.08216845989227295,-0.0862160474061966,-0.1696845442056656,-0.04305990785360336,0.06525959074497223,0.015476716682314873,0.13948197662830353,-0.06985831260681152,-0.0022090456914156675,-0.062480904161930084,0.08956669270992279,0.1521131545305252,-0.12267296761274338,-0.0012727888533845544,-0.19886639714241028,-0.15864384174346924,0.06444305181503296,-0.12984567880630493,0.14848844707012177,0.029253501445055008,-0.010993137024343014,-0.1685294210910797,0.07045835256576538,-0.11399023234844208,-0.02317357435822487,-0.01914328522980213,0.198954775929451,0.04280705749988556,0.03921198844909668,0.186347097158432,0.10268033295869827,0.14318962395191193,-0.09131120145320892,-0.11711255460977554],[0.12989850342273712,0.302921324968338,0.013562592677772045,-0.029352683573961258,0.13392023742198944,0.06384173780679703,-0.06769993901252747,0.31057819724082947,-0.19986402988433838,0.22152133285999298,-3.2284512519836426,0.397055983543396,-0.86063152551651,-1.3127131462097168,-0.5440360307693481,-2.021902084350586,-0.8142633438110352,-0.3020644187927246,0.8786650896072388,-0.04494656249880791,0.3583410680294037,-0.6803711652755737,-0.1401796191930771,-0.8370398879051208,-1.7466222047805786,-0.6337392330169678,0.27007821202278137,0.028746774420142174,0.1572837382555008,0.09859064966440201,0.06680936366319656,0.30707991123199463,0.21721650660037994,0.02843816764652729,0.13274219632148743,-0.006081705912947655,0.10585866868495941,0.04957783594727516,0.04030353203415871,0.14888770878314972,0.30318164825439453,0.21611003577709198,0.06880518794059753,0.25906848907470703,0.15052063763141632,0.314473420381546,0.011421659961342812,0.15616784989833832,0.11127953231334686,-0.006407841108739376,0.12912756204605103,-0.03018268197774887,0.28950372338294983,0.23270802199840546,0.11786916106939316,0.09086862951517105,-0.03825870528817177,-0.0032968735322356224,0.1289806216955185,0.07175345718860626,0.19223326444625854,0.2334032654762268,0.1708473116159439,0.30192574858665466,0.024195456877350807,0.18018950521945953,-0.017988648265600204,-0.03183596581220627,0.30303651094436646,0.30325332283973694,0.22729790210723877,-0.17357733845710754,0.0834243893623352,0.19684380292892456,0.1822267472743988,-0.0006868618074804544,-0.15333835780620575,0.14216765761375427,0.11162076145410538,0.19480308890342712,0.1976417452096939,-0.059586700052022934,0.05840888246893883,0.10635648667812347,0.065279521048069,-0.04636692628264427,0.07582857459783554,-0.13650575280189514,-0.012373358011245728,0.15438149869441986,-0.09144549816846848,0.008695799857378006,0.1117136999964714,0.12823069095611572,0.09166544675827026,0.14706562459468842,0.11869905889034271,0.008414819836616516,0.13748854398727417,0.15448325872421265,0.04562996327877045,-0.10339768975973129,-0.12648522853851318,0.1623830795288086,0.07780387252569199,-0.11465514451265335,0.18913419544696808,-0.14741221070289612,0.075648233294487,-0.19300591945648193,-0.1106615737080574,0.00559762679040432,-0.1926819384098053,0.17979003489017487,-0.01146447379142046,0.03445330262184143,-0.000817414780613035,-0.12481413781642914,0.08303289115428925,0.1663576364517212,-0.1425587385892868,-0.1333569586277008,-0.14288710057735443,-0.15650081634521484,0.01544178556650877,0.18973280489444733,0.1103668063879013,-0.026010116562247276,-0.06074719876050949,-0.05300915613770485,0.11890357732772827,0.1807972639799118,-0.01290882658213377,0.1896335333585739,-0.1315792202949524,-0.1769924759864807,0.1967538595199585,-0.13495948910713196,-0.1665773093700409,-0.009132514707744122,-0.19993726909160614,0.126755028963089,-0.1785087138414383,0.08018986880779266,-0.09289417415857315,0.03624870255589485,-0.039328206330537796,0.11102920770645142,-0.19238683581352234,0.1253611147403717,0.056615181267261505,-0.10529259592294693,-0.15344354510307312,-0.19330358505249023,0.05002173036336899,0.009883362799882889,0.008205682970583439,0.09392722696065903,0.0324731208384037,-0.19373558461666107,0.13960792124271393,0.17923642694950104,-0.12609538435935974,0.017708795145154,0.06366086006164551,0.018620330840349197,-0.10908965766429901,0.1430819183588028,-0.08236633986234665,-0.1165422573685646,-0.1750127524137497,-0.07700913399457932,-0.0024046304170042276,-0.0028764100279659033,0.18158087134361267,0.09658590704202652,-0.13899801671504974,-0.005817704368382692,0.10800517350435257,0.12660305202007294,0.09909733384847641,-0.1698397845029831,-0.12420422583818436,-0.09607771039009094,-0.05271352827548981,-0.07657693326473236,-0.15667618811130524,-0.19738200306892395,0.09501250833272934,0.19260063767433167,0.15766289830207825,0.06008480489253998,0.15936559438705444,-0.021114865317940712,0.017556339502334595,0.10170546919107437,0.017556751146912575,-0.08586034923791885,-0.15578289330005646,0.17001460492610931,0.17447981238365173,-0.19302812218666077,-0.09786559641361237,-0.03741897642612457,0.06565668433904648,0.112649105489254,-0.10329587757587433,0.1948353797197342,0.15495716035366058,-0.10785669833421707,-0.15698358416557312,0.10113987326622009,0.16389356553554535,-0.044318851083517075,0.11640115827322006,-0.1325874626636505,0.029416153207421303,-0.11419322341680527,0.18294808268547058,0.11654195934534073,0.013704095967113972,0.1369202435016632,-0.04579047113656998,-0.12099959701299667,-0.04759906977415085,0.1195565015077591,-0.11266309767961502,-0.1284024864435196,-0.1440945565700531,0.11438512057065964,0.02888038009405136,-0.18393681943416595,0.17371484637260437,0.06050330400466919,0.1676456779241562,-0.10659167915582657,0.06997497379779816,0.16780789196491241,-0.07302598655223846,0.02993803843855858,-0.07259838283061981,0.09215295314788818,0.16907787322998047,-0.1587449461221695,-0.10266152769327164,0.12336787581443787,0.1380424052476883,-0.06529124826192856,0.1442103534936905,0.14067284762859344,-0.18886080384254456,-0.05064094066619873,-0.0834507942199707,-0.08314584195613861,0.008900524117052555,0.06861993670463562,-0.0366685725748539,-0.17033234238624573,0.00783472042530775,0.14926177263259888,0.03624209389090538,-0.04354514181613922,0.1502293199300766,0.00910110492259264,-0.12843360006809235,-0.1545531004667282,-0.16788630187511444,-0.09471572190523148,0.11234863102436066,-0.11862045526504517,-0.09978534281253815,-0.07846163958311081,-0.0013077999465167522,0.18354524672031403,-0.10046335309743881,-0.07688719779253006,0.17195962369441986,-0.13883864879608154,0.018417228013277054,0.014522416517138481,-0.16356763243675232,-0.039338111877441406,-0.07563470304012299,-0.1922706514596939,0.1550901234149933,-0.014657947234809399,-0.08160077035427094,-0.12267804145812988,0.11588996648788452,0.10110064595937729,0.1284346580505371,-0.00821569375693798,0.1573866456747055,-0.12454420328140259,-0.1781461238861084,-0.013276801444590092,-0.11924026906490326,-0.17753513157367706,-0.025803932920098305,-0.06365998834371567,-0.04495943337678909,-0.0708182156085968,0.05472724884748459,-0.14223189651966095,-0.17786289751529694,0.12165436148643494,-0.14550486207008362,0.13617274165153503,0.16972461342811584,0.18094252049922943,0.09154213219881058,0.1782027631998062,-0.1846701055765152,0.02638966590166092,0.14842215180397034,-0.08927340060472488,0.019466880708932877,-0.17999765276908875,0.13278184831142426,-0.03312355652451515,-0.07097664475440979,0.14369997382164001,-0.04333462938666344,-0.11692683398723602,-0.07391142845153809,0.057681404054164886,0.18392348289489746,-0.15353496372699738,0.08980146050453186,0.14809386432170868,0.15753547847270966,-0.018477091565728188,-0.15207059681415558,-0.09081238508224487,-0.04454745352268219,-0.1556822657585144,-0.028730103746056557,0.13517868518829346,-0.16354753077030182,-0.00038086212589405477,0.1863580048084259,-0.11188527941703796,-0.05491916835308075,0.106965571641922,0.0009677932248450816,0.16376832127571106,-0.019541019573807716,-0.020576147362589836,0.1978568583726883,0.08945833146572113,0.11806543171405792,-0.04738635569810867,-0.025672541931271553,-0.03135159611701965,-0.05674298480153084,-0.10618877410888672,0.12117775529623032,0.0739537924528122,-0.15662701427936554,0.18657709658145905,0.01974627375602722,-0.1513165831565857,-0.04947829619050026,-0.18430159986019135,-0.05428599193692207,0.1789587289094925,0.1737370640039444,-0.0301512498408556,0.0075083267875015736,-0.15086746215820312,-0.106134332716465,-0.06538593769073486,0.008090206421911716,-0.10626707226037979,-0.18644286692142487,0.11580557376146317,0.01151667907834053,-0.16957485675811768,-0.10759865492582321,-0.03390716388821602,-0.02248186431825161,0.06333053857088089,-0.0056552579626441,-0.06531369686126709,-0.11231355369091034,0.00774855213239789,0.1391836404800415,-0.15890774130821228,-0.015761198475956917,0.14524872601032257,0.04140721261501312,0.09828800708055496,-0.06992902606725693,-0.10064391791820526,0.0074378447607159615,-0.09833302348852158,-0.12546797096729279,0.17404863238334656,0.11374583095312119,-0.011717063374817371,-0.11536381393671036,-0.13170373439788818,0.08845409005880356,0.18582484126091003],[-0.05082469433546066,-0.0684860348701477,0.15731707215309143,0.09260794520378113,0.15120171010494232,0.021501079201698303,0.18586166203022003,-0.05650774762034416,0.3266547620296478,0.1662156581878662,0.4115718603134155,-0.09767293930053711,-1.4484707117080688,-0.35557621717453003,0.9279125332832336,-0.504010796546936,0.06585781276226044,0.42472729086875916,1.4266462326049805,-2.5476973056793213,3.1578152179718018,-2.034167528152466,0.06583759188652039,1.1409785747528076,0.5106513500213623,0.17515014111995697,0.17164914309978485,-0.16973066329956055,-0.010610254481434822,0.055764567106962204,-0.16341660916805267,-0.07989836484193802,0.012159026227891445,0.050486769527196884,0.01271046232432127,-0.0015575740253552794,0.09462127089500427,0.03056073933839798,0.08273447304964066,-0.02102545090019703,-0.08597608655691147,0.04329008236527443,0.11031094193458557,-0.13309574127197266,0.07074026763439178,0.17258282005786896,-0.11371558159589767,-0.050566356629133224,-0.1752108633518219,0.18364351987838745,-0.0344628244638443,0.19278208911418915,0.15442007780075073,-0.0608413890004158,-0.15895290672779083,-0.035426508635282516,0.09747391939163208,0.00966530293226242,-0.0003208248526789248,-0.1181449145078659,-0.03349556773900986,0.14821787178516388,0.09516975283622742,0.048468735069036484,0.18851424753665924,-0.16961167752742767,0.057235900312662125,-0.16836653649806976,-0.06268972158432007,0.06727974116802216,-0.16739091277122498,0.004890834912657738,-0.10195747762918472,0.18920785188674927,0.1433243751525879,-0.1525401920080185,0.14433160424232483,0.18622370064258575,0.11888550966978073,0.1983572393655777,0.18218959867954254,0.16963505744934082,0.12870286405086517,0.08162596076726913,-0.006532854400575161,-0.11232548207044601,0.15805009007453918,0.16301561892032623,-0.0037846830673515797,-0.03991737589240074,-0.15160980820655823,0.1760134994983673,-0.10443001985549927,-0.0076487199403345585,-0.19200314581394196,-0.04111866280436516,-0.13095606863498688,0.18132780492305756,-0.06200096756219864,-0.10882055014371872,0.07255677133798599,0.09710737317800522,-0.16260413825511932,-0.14713509380817413,-0.03151143342256546,-0.17438004910945892,0.016452787443995476,0.13860832154750824,-0.010487071238458157,-0.019975146278738976,0.1519787758588791,-0.15754802525043488,-0.07057587057352066,0.19732631742954254,0.1166185587644577,-0.02942093089222908,0.07494353502988815,-0.10652147978544235,-0.05339847505092621,0.04863767325878143,0.07786867022514343,0.020761758089065552,0.0818105936050415,-0.042605526745319366,-0.12814970314502716,0.19667237997055054,0.14764080941677094,0.004994803573936224,0.11157305538654327,0.12301080673933029,0.06769517064094543,-0.09137200564146042,-0.06539227068424225,-0.11980289965867996,-0.0698513388633728,0.035690829157829285,-0.008783543482422829,0.1904260218143463,-0.06153722479939461,-0.02705741859972477,0.030362112447619438,0.1455974131822586,-0.10994312912225723,0.059248555451631546,-0.0008237892179749906,-0.1954493522644043,0.13229019939899445,-0.16986343264579773,-0.1774466186761856,-0.061492908746004105,-0.06918821483850479,0.008239438757300377,0.11710797250270844,-0.14805547893047333,-0.05795809254050255,-0.04269031807780266,-0.1808372437953949,0.043251845985651016,-0.17336738109588623,-0.0073286560364067554,-0.19366009533405304,0.15249240398406982,0.11380425095558167,0.14869265258312225,0.06698306649923325,-0.10495484620332718,-0.02603478543460369,0.17592333257198334,-0.13632556796073914,0.05074426904320717,-0.061300717294216156,0.19166970252990723,-0.09967990219593048,-0.12269127368927002,-0.18738138675689697,0.0048090326599776745,0.007290890906006098,-0.14143666625022888,0.0515715591609478,-0.013300898484885693,0.10454867780208588,0.16709434986114502,0.15156087279319763,-0.14730705320835114,0.03295723721385002,-0.10808178782463074,0.05935235321521759,-0.08223758637905121,0.1170450747013092,-0.09785157442092896,-0.10285993665456772,-0.1743343621492386,0.09328725934028625,0.07323312759399414,0.0654904693365097,-0.1667337417602539,0.0010193936759606004,-0.16432015597820282,-0.18722212314605713,-0.13316501677036285,0.01879490353167057,0.10399658232927322,-0.12297455966472626,0.19869351387023926,0.1543227732181549,-0.05114721134305,0.07882733643054962,-0.04049093648791313,0.1241491362452507,0.013876683078706264,0.06118778511881828,-0.11618857085704803,0.1156264916062355,-0.08300715684890747,0.11502619832754135,0.1926601231098175,-0.17425760626792908,0.12190795689821243,-0.026312794536352158,0.13831765949726105,-0.0684673860669136,-0.17730386555194855,-0.02054518833756447,0.1569141149520874,0.11320754885673523,-0.089451864361763,0.08734341710805893,-0.05366288870573044,0.0497116781771183,0.07107669860124588,0.01788567192852497,-0.0338154174387455,-0.1930650770664215,0.08142761141061783,-0.15710483491420746,-0.18523165583610535,-0.07181581109762192,-0.11766889691352844,0.05348480865359306,0.13610383868217468,-0.07204436510801315,0.13074003159999847,-0.06208968907594681,-0.1284443587064743,-0.055706072598695755,-0.1553734689950943,0.056588977575302124,-0.06645718216896057,-0.14699827134609222,0.038054365664720535,-0.007701837457716465,0.07960736006498337,0.05913088098168373,-0.13471291959285736,-0.09595972299575806,0.010171076282858849,0.17035795748233795,0.05337904766201973,0.08335942775011063,-0.1106284037232399,-0.04833250492811203,0.07026290893554688,-0.11580567806959152,0.1811208426952362,0.05191504582762718,0.13580095767974854,-0.05913151800632477,-0.1701715588569641,0.18471917510032654,0.04920389503240585,-0.0559840090572834,0.15280213952064514,0.03246551379561424,-0.13184188306331635,-0.16243450343608856,-0.016334710642695427,0.1452491134405136,-0.0228702612221241,-0.09494605660438538,-0.10889516025781631,-0.10254262387752533,0.03993752598762512,-0.1933518648147583,-0.036052752286195755,0.12263110280036926,0.13611838221549988,0.15662117302417755,-0.048228152096271515,0.19930274784564972,0.04576139524579048,0.013614984229207039,-0.12013315409421921,-0.13348262012004852,0.14631260931491852,0.13775959610939026,-0.12030591070652008,-0.11949325352907181,0.04498966410756111,0.11546751856803894,-0.09858779609203339,-0.1479811817407608,-0.15735118091106415,-0.009277284145355225,-0.09282473474740982,-0.18398651480674744,0.05293993651866913,0.18364335596561432,0.06377687305212021,0.14787405729293823,-0.04103235900402069,0.1347378045320511,0.056856922805309296,-0.004632947035133839,0.024043433368206024,-0.11268965154886246,0.08911571651697159,0.020769406110048294,0.1725686490535736,-0.14676102995872498,0.17758652567863464,-0.13098330795764923,0.04166199266910553,0.046374328434467316,-0.07286551594734192,0.1753670871257782,-0.028434954583644867,0.0276886485517025,0.037322018295526505,-0.08014071732759476,0.014880196191370487,-0.07825972884893417,0.03285738453269005,0.198871910572052,-0.06258238852024078,0.1621292680501938,0.14262835681438446,0.038195546716451645,-0.18657734990119934,0.18551671504974365,-0.07727214694023132,0.05043521523475647,-0.10036669671535492,0.1766086369752884,0.011591877788305283,0.031217284500598907,-0.13424637913703918,0.09463920444250107,-0.08182655274868011,0.12329713255167007,0.04533915966749191,0.07516974955797195,-0.023676902055740356,0.11661701649427414,0.018413027748465538,0.1759611964225769,-0.03272842988371849,-0.16336366534233093,0.1976153552532196,-0.06931296736001968,-0.12651793658733368,0.0903916284441948,0.032065775245428085,0.07725275307893753,-0.19354891777038574,0.18582536280155182,0.08208447694778442,0.16587312519550323,-0.18210285902023315,0.1377343237400055,-0.04141484573483467,0.17084036767482758,-0.08195286989212036,-0.18161551654338837,0.01424636784940958,0.1601586490869522,0.010328860953450203,-0.16713117063045502,0.14158660173416138,0.011267485097050667,-0.0012362415436655283,-0.0788283497095108,0.024473274126648903,-0.11982474476099014,-0.06045899912714958,0.09849328547716141,-0.16564670205116272,-0.023323923349380493,0.08734201639890671,0.1896953284740448,-0.05578140914440155,-0.024213846772909164,-0.03619927167892456,-0.1357937753200531,0.08224225044250488,0.01472278032451868,0.12149185687303543,-0.0555809922516346,-0.010274223983287811,-0.07471463829278946,0.0359765887260437,0.1979384571313858,0.01981625147163868,-0.07404856383800507,-0.024344412609934807],[-0.10777850449085236,0.1310116946697235,0.09765719622373581,-0.17232556641101837,-0.08472006767988205,-0.023494405671954155,-0.09147892147302628,-0.005517913959920406,-0.2839246392250061,0.995663583278656,-2.519881248474121,-1.369163155555725,0.7482815980911255,0.832344651222229,0.0770283117890358,-0.870013952255249,1.5550696849822998,-0.4250706732273102,-0.8886638879776001,0.42044079303741455,-0.7987754940986633,0.6689586639404297,-0.08678878843784332,-0.5663442611694336,-1.196314811706543,-0.4343426525592804,-0.01611287146806717,-0.006002048030495644,-0.09869720786809921,0.1307344138622284,0.09174703806638718,0.08493558317422867,-0.05870191752910614,0.013818463310599327,-0.010494139045476913,0.09438978880643845,0.14326445758342743,0.1507255882024765,-0.1527736485004425,0.02490588277578354,-0.06677453964948654,-0.0054914262145757675,0.010069810785353184,0.20483452081680298,0.04604632034897804,-0.13003931939601898,-0.039012618362903595,-0.04002365469932556,0.047062646597623825,0.16145038604736328,-0.05241529643535614,0.004801149945706129,-0.1688852310180664,-0.11949051916599274,0.1343662440776825,-0.14569596946239471,0.0323052853345871,0.1855778694152832,-0.11715567111968994,0.1445288062095642,0.148304283618927,0.18354098498821259,0.021709460765123367,0.1907791644334793,-0.013544606044888496,-0.1753779500722885,-0.06541815400123596,0.13746874034404755,-0.07313980162143707,0.019698970019817352,-0.015084978193044662,-0.12533298134803772,-0.11839230358600616,0.17315396666526794,-0.04524008184671402,0.10886985063552856,0.16318188607692719,-0.008185036480426788,-0.19380547106266022,0.09342311322689056,-0.016187582165002823,-0.08317892253398895,-0.06552932411432266,0.17458762228488922,0.08951439708471298,-0.12559935450553894,-0.1072019711136818,0.09041441231966019,0.02909999154508114,0.060514189302921295,0.06945579499006271,0.19023431837558746,-0.16400250792503357,-0.17885461449623108,0.18526864051818848,-0.009738706983625889,-0.04684581235051155,0.09603731334209442,0.05343825742602348,0.030562570318579674,0.1597263216972351,-0.1495920568704605,0.09542720019817352,-0.18472325801849365,-0.17498624324798584,-0.169535294175148,0.18490180373191833,0.09862986952066422,-0.10197227448225021,0.13330532610416412,0.15441103279590607,-0.07695267349481583,0.06838331371545792,-0.02741253189742565,-0.03168641775846481,0.009874559007585049,-0.031762003898620605,0.0551031269133091,0.1945798546075821,-0.1331937611103058,0.1298847198486328,-0.09840289503335953,-0.07467757165431976,-0.033666349947452545,-0.19401362538337708,-0.05830315500497818,-0.19940173625946045,0.01684493198990822,-0.19081160426139832,0.16940638422966003,-0.06618557870388031,-0.1114613264799118,0.08901170641183853,0.09034772962331772,0.13369731605052948,-0.10450351983308792,0.06774169206619263,-0.12752729654312134,-0.16335976123809814,-0.039304763078689575,0.10575154423713684,-0.007162195630371571,0.06856060028076172,-0.12500758469104767,0.09592562913894653,0.08602210134267807,0.1039699912071228,0.10358846932649612,-0.15792283415794373,-0.10707025974988937,0.12324447184801102,0.0710449367761612,-0.006416077725589275,0.13830161094665527,0.01989208161830902,-0.19812177121639252,0.04614148288965225,-0.08455634862184525,-0.006809678860008717,0.12326178699731827,0.055946823209524155,-0.06826025992631912,-0.03991257771849632,0.15797437727451324,-0.026030877605080605,0.16280719637870789,0.06854115426540375,0.13064038753509521,0.14156091213226318,-0.1577160805463791,-0.11224313080310822,-0.005391150712966919,0.18085803091526031,-0.1811009645462036,-0.17984972894191742,0.11775930970907211,0.08036582171916962,0.05134233832359314,-0.15220774710178375,-0.19056998193264008,0.008319693617522717,0.16994130611419678,-0.001002307515591383,0.08200149983167648,0.16754518449306488,0.18709248304367065,-0.07923024892807007,0.01153022050857544,0.190354123711586,0.17282746732234955,-0.11236681044101715,-0.19878707826137543,0.033168062567710876,0.07733941823244095,0.1446867436170578,0.04333147779107094,-0.1300874501466751,0.13255488872528076,0.1273176223039627,-0.004726196639239788,0.06983189284801483,-0.18837867677211761,-0.1350371539592743,0.13403359055519104,0.022332927212119102,-0.0632057636976242,-0.18947631120681763,0.08699306845664978,0.06352239102125168,-0.13846157491207123,-0.03583207726478577,0.06472562998533249,0.16934867203235626,-0.024299707263708115,-0.15762022137641907,0.07726148515939713,-0.15015408396720886,0.1998867690563202,0.07778093218803406,0.15651430189609528,0.044583022594451904,0.18630479276180267,0.11995943635702133,0.08932550251483917,0.18758028745651245,0.10644366592168808,0.1561962515115738,-0.19295629858970642,-0.023430032655596733,-0.16946791112422943,-0.1971690058708191,-0.09604433178901672,-0.05486597493290901,-0.09550683945417404,0.1433141529560089,0.062417708337306976,-0.007707070093601942,-0.10535050183534622,0.0536196194589138,0.17982885241508484,0.1185900941491127,-0.19079521298408508,-0.09191572666168213,0.12943708896636963,-0.11944333463907242,-0.10495906323194504,-0.1616426408290863,0.1266997754573822,0.0320720374584198,-0.1399165391921997,0.10914022475481033,-0.19152584671974182,0.18915244936943054,-0.05708843842148781,0.08051858097314835,-0.008564206771552563,0.04512735828757286,0.10773330181837082,-0.019423333927989006,-0.06846581399440765,0.16799411177635193,0.17068764567375183,-0.0034195194020867348,-0.18863622844219208,-0.1208026260137558,0.15355171263217926,0.12926869094371796,-0.13121795654296875,-0.12318311631679535,-0.0734025314450264,-0.08791980147361755,-0.17002835869789124,0.04401301220059395,-0.15923921763896942,0.023534728214144707,-0.19326841831207275,-0.1556515395641327,0.17672647535800934,0.07777006179094315,0.10748331993818283,-0.03750166669487953,-0.17760249972343445,-0.06857670843601227,-0.17662480473518372,-0.10907605290412903,0.17221884429454803,-0.11731348931789398,-0.04080396890640259,-0.09726054221391678,0.14564327895641327,0.14554744958877563,0.10639571398496628,-0.14098218083381653,-0.018332071602344513,-0.15593117475509644,-0.15104106068611145,-0.0035673382226377726,-0.14927376806735992,0.08803634345531464,0.040299367159605026,0.10330943763256073,-0.14443103969097137,0.09039971232414246,0.19723770022392273,0.11327512562274933,0.12663798034191132,0.06912235170602798,0.015321300365030766,0.0557788610458374,-0.18414010107517242,-0.09098997712135315,0.08110656589269638,-0.1498917192220688,-0.16320474445819855,0.15529893338680267,0.1410575956106186,0.10744261741638184,0.017059925943613052,-0.115822434425354,0.007972155697643757,0.10542504489421844,0.09720411151647568,0.18222005665302277,-0.0028059862088412046,-0.025656800717115402,0.005077007692307234,-0.14074602723121643,0.08317738026380539,0.17479021847248077,0.1018478199839592,-0.09800532460212708,-0.04774075001478195,-0.1678716093301773,0.1315176784992218,0.14995437860488892,0.15205144882202148,-0.11269406974315643,-0.03950607031583786,-0.14052914083003998,0.15969645977020264,0.03817206993699074,0.10489334166049957,-0.16600659489631653,0.11494065076112747,-0.03479844704270363,0.1954393982887268,0.11032654345035553,0.14692029356956482,-0.03835422918200493,0.06516437977552414,-0.14847755432128906,-0.09699007123708725,-0.09996828436851501,0.1235613226890564,-0.016872692853212357,-0.07173829525709152,-0.07750824093818665,0.1443193256855011,-0.19449622929096222,0.0541362501680851,0.06378426402807236,-0.12865370512008667,0.10762840509414673,-0.011149188503623009,0.198750838637352,-0.08060356229543686,0.1952885240316391,-0.01362973265349865,0.18472082912921906,-0.05624399706721306,-0.0618474967777729,-0.15551890432834625,-0.011480988003313541,-0.11809729039669037,0.1551763415336609,-0.0784953311085701,-0.09604111313819885,0.021834492683410645,-0.11024613678455353,0.055405907332897186,0.025681449100375175,0.158735454082489,-0.07566098123788834,-0.15849338471889496,0.024145452305674553,-0.018607765436172485,-0.11401797086000443,-0.18710964918136597,0.054458219558000565,0.06577076762914658,0.17718228697776794,-0.15029433369636536,0.0861421748995781,-0.1185622364282608,-0.06975403428077698,0.04558734968304634,0.07361184805631638,-0.11770415306091309,-0.06327243894338608,0.0038990916218608618,0.0871569812297821,-0.10614900290966034,-0.016993189230561256,0.09816140681505203],[0.0587354339659214,0.07072179019451141,0.13394795358181,0.200848788022995,0.19368009269237518,-0.02250368520617485,-0.031172696501016617,0.09267804771661758,-2.5043952465057373,1.8375924825668335,0.8229048252105713,0.7360831499099731,-0.869789719581604,-0.5850996971130371,0.1973007321357727,-2.8953168392181396,-2.257084369659424,-0.253662645816803,-0.09353155642747879,-0.3681855797767639,-0.13749362528324127,-0.2653883099555969,0.17428788542747498,-1.6737176179885864,0.7835609316825867,0.4264640212059021,-0.01738966815173626,0.08431925624608994,0.23444747924804688,0.19067202508449554,-0.046059105545282364,-0.01197208371013403,0.0891469344496727,0.09027120471000671,-0.041134316474199295,0.06861183047294617,0.13883504271507263,0.2278108149766922,0.07144294679164886,0.09664562344551086,0.005500164348632097,0.28323227167129517,0.05447130650281906,0.1539825052022934,0.28800708055496216,0.15057116746902466,0.11133899539709091,0.11658022552728653,0.12752869725227356,0.03937109559774399,0.260977566242218,0.1243169903755188,0.10764747112989426,0.11139960587024689,0.004771691747009754,0.008119705133140087,0.09627123177051544,0.2259584218263626,0.1828991174697876,0.211896613240242,0.27556753158569336,-0.026491694152355194,-0.05731726065278053,0.13290362060070038,-0.07590124011039734,0.2562800347805023,-0.031394921243190765,0.023960839956998825,0.0412035807967186,0.24884052574634552,0.14470700919628143,-0.03898114338517189,0.04063865542411804,0.16413870453834534,-0.0002119517303071916,-0.14633871614933014,0.14854758977890015,-0.07237133383750916,-0.19528277218341827,-0.13210222125053406,0.01336711086332798,-0.14817950129508972,0.021364981308579445,-0.05499997362494469,-0.001986280083656311,0.10296525061130524,0.16623680293560028,0.08255098760128021,-0.02228650078177452,0.16453887522220612,-0.09079910069704056,-0.04544626176357269,-0.16604898869991302,0.07900170236825943,0.06794071197509766,0.00898855272680521,-0.04490102455019951,-0.10311909765005112,0.08711833506822586,-0.17632587254047394,-0.06197448447346687,-0.09242796897888184,-0.011511784046888351,-0.007896934635937214,0.12096847593784332,0.03980637341737747,-0.15001128613948822,-0.18541796505451202,0.018706733360886574,-0.13868409395217896,0.18673044443130493,-0.14813219010829926,-0.04776402935385704,0.08761896938085556,0.15158821642398834,-0.077248714864254,0.11796052008867264,-0.08963753283023834,0.03569236397743225,0.08340089023113251,0.17088474333286285,-0.08099903911352158,0.0956733301281929,0.07244536280632019,0.1835668534040451,0.08617834746837616,0.02038668654859066,-0.11569485068321228,-0.07288976013660431,-0.1536446362733841,-0.02006610669195652,-0.08393215388059616,-0.07255490124225616,0.16721495985984802,-0.1530313640832901,-0.1931900978088379,-0.1578495055437088,0.1697872132062912,0.12729716300964355,-0.07543390244245529,0.16216731071472168,-0.18330740928649902,-0.11961923539638519,0.054085951298475266,-0.08703342080116272,0.11468373239040375,0.128443643450737,-0.029575517401099205,0.09708356857299805,0.0845319926738739,0.1310616433620453,-0.09523643553256989,0.1556387096643448,-0.19932915270328522,0.0690244808793068,0.14883124828338623,-0.07193717360496521,0.005757191218435764,-0.12843923270702362,0.061548568308353424,-0.1982448846101761,0.18543173372745514,-0.10702472925186157,0.021424686536192894,-0.032477766275405884,0.11035361886024475,0.007444437127560377,-0.16154411435127258,0.04209127649664879,-0.14809395372867584,0.04910574480891228,-0.13416306674480438,0.09957418590784073,-0.16950038075447083,-0.18748533725738525,-0.050553642213344574,0.13153846561908722,-0.031096987426280975,0.04951339587569237,-0.050957124680280685,-0.07610476016998291,-0.05526503175497055,0.1618846356868744,-0.18947897851467133,0.010814256966114044,0.05437374860048294,-0.06606447696685791,0.031395312398672104,0.02861911430954933,0.16038841009140015,0.024770259857177734,0.17854565382003784,-0.17572443187236786,0.11242032796144485,0.15512563288211823,-0.07961137592792511,0.05222788080573082,0.15663862228393555,0.06262430548667908,-0.17485311627388,-0.15675288438796997,-0.00884111225605011,0.12596477568149567,0.025299035012722015,0.04482930898666382,0.14727507531642914,0.0037434936966747046,-0.01590851880609989,0.13533630967140198,0.08050432801246643,0.14831103384494781,-0.13539694249629974,-0.15399698913097382,-0.1719885766506195,-0.0640985295176506,-0.04250754788517952,0.09658534824848175,-0.13923612236976624,0.02038588933646679,0.0037042696494609118,-0.1329745650291443,0.08305888622999191,-0.12002531439065933,0.04108782485127449,0.19163590669631958,-0.07442978769540787,0.04804139956831932,0.035797469317913055,-0.06003054231405258,-0.11814355850219727,-0.01836194470524788,0.11915691196918488,0.15668703615665436,0.02405732497572899,0.08724259585142136,0.014544710516929626,-0.06101410835981369,0.1516849547624588,-0.012252390384674072,-0.16575844585895538,-0.028907060623168945,-0.17022483050823212,0.19473139941692352,0.05622321739792824,0.08340930193662643,-0.05100935697555542,0.11443085968494415,-0.17325155436992645,0.146696999669075,-0.09805223345756531,0.018017200753092766,-0.1679578423500061,0.12324520945549011,-0.19510436058044434,-0.12123894691467285,-0.09027411788702011,-0.1048177108168602,0.07036689668893814,0.1720273196697235,0.12613312900066376,0.18887604773044586,-0.1887732446193695,0.1399601548910141,-0.07583630084991455,0.18670135736465454,-0.04166589304804802,-0.10163971781730652,-0.19892381131649017,-0.007817906327545643,-0.16271154582500458,-0.056035175919532776,-0.14497064054012299,-0.06144069880247116,0.19440658390522003,-0.16596466302871704,-0.1700214445590973,0.03513791784644127,0.04211273789405823,-0.18582597374916077,-0.09579402208328247,-0.055260226130485535,0.05952514335513115,0.18144460022449493,0.12273219227790833,-0.025446495041251183,0.13677871227264404,0.016408024355769157,0.13805243372917175,-0.009975711815059185,0.06663732975721359,0.1467500776052475,-0.02370123751461506,-0.05106721073389053,0.11007556319236755,-0.17977072298526764,0.019710315391421318,-0.16317693889141083,-0.13633224368095398,0.09571397304534912,-0.18803994357585907,-0.019665585830807686,0.16646717488765717,-0.14534474909305573,0.0017999785486608744,0.03833400085568428,0.07340992242097855,-0.05370958149433136,0.13108201324939728,0.05259605497121811,-0.05984706059098244,-0.08506780862808228,-0.05801776424050331,0.08982275426387787,0.005104655399918556,-0.11397270858287811,0.1709158569574356,-0.015032163821160793,-0.1333007514476776,0.08830756694078445,-0.15172044932842255,0.13925859332084656,-0.06486093997955322,0.030010323971509933,0.042229004204273224,-0.07203782349824905,0.033707063645124435,-0.06364509463310242,-0.12345238029956818,-0.0635928064584732,-0.14371980726718903,-0.06980203837156296,-0.18292447924613953,-0.08699095994234085,-0.04216476157307625,0.004190525505691767,-0.12902885675430298,0.16985593736171722,-0.09127342700958252,-0.09488997608423233,0.14676713943481445,-0.08349701017141342,-0.19939109683036804,0.031671278178691864,-0.07044073194265366,-0.04554244875907898,-0.055821493268013,-0.1469099521636963,-0.0061022755689918995,-0.0438070185482502,-0.19265179336071014,0.13278034329414368,-0.05207650363445282,-0.04725709185004234,-0.07509992271661758,0.1568034142255783,0.004661662969738245,-0.1916203796863556,-0.14639250934123993,-0.044297777116298676,-0.08960280567407608,0.009320861659944057,-0.07815282046794891,0.001230110414326191,0.11768388748168945,-0.11465609073638916,0.13855305314064026,0.09151569753885269,0.05119432136416435,0.12663206458091736,0.12663720548152924,0.05323489382863045,0.1529325693845749,0.0002905733708757907,-0.17556288838386536,-0.12049208581447601,-0.046188194304704666,-0.002404490252956748,-0.014604023657739162,-0.05850118026137352,0.16623319685459137,-0.17160794138908386,-0.09308119863271713,0.10337880253791809,0.16427156329154968,0.1635800302028656,0.044410351663827896,-0.1751437485218048,-0.0016750370850786567,0.004218099173158407,-0.1637825071811676,0.069233238697052,-0.11568710207939148,-0.013502744026482105,-0.10952508449554443,-0.1607826054096222,0.1944170445203781,0.11576694995164871,-0.15453502535820007,-0.12822699546813965,-0.14629316329956055,-0.09747108072042465,0.017204899340867996,-0.03593980520963669,-0.02967817522585392],[-0.14327475428581238,-0.014731322415173054,0.09325207024812698,0.20294758677482605,0.14207638800144196,0.1050431877374649,0.18805734813213348,0.024911455810070038,-0.2749520540237427,0.41949665546417236,0.5499958395957947,-1.7321999073028564,0.8290866017341614,0.7735617160797119,-0.1786653995513916,0.25689688324928284,-0.5460797548294067,-1.489460825920105,1.6624481678009033,-2.4558913707733154,2.2114274501800537,-2.5080740451812744,0.11215660721063614,0.3478599488735199,0.36833178997039795,0.3093918263912201,-0.019399702548980713,0.018989533185958862,-0.12066350132226944,0.20852532982826233,-0.009881180711090565,-0.13636893033981323,0.20450466871261597,-0.10309537500143051,-0.05762755125761032,0.14310583472251892,0.1536160111427307,0.06038310006260872,-0.007243627682328224,-0.05590245500206947,0.012301827780902386,0.12605036795139313,0.1545480191707611,-0.05618944764137268,-0.13465198874473572,0.035074926912784576,0.1804671585559845,-0.07749733328819275,0.22930553555488586,0.08185409009456635,-0.05181768164038658,0.15035830438137054,-0.010185117833316326,0.18695062398910522,0.17473720014095306,0.17463479936122894,0.008190358988940716,0.13139019906520844,0.23848575353622437,0.09510141611099243,0.1303238719701767,-0.06436126679182053,-0.07890923321247101,0.23311661183834076,0.032017581164836884,0.22692126035690308,0.1488914042711258,0.22179347276687622,0.011607163585722446,0.18426014482975006,0.09436007589101791,0.005709352903068066,-0.028102947399020195,0.09870392084121704,0.06387937068939209,0.014280729927122593,-0.09131062775850296,-0.08053429424762726,0.1891084611415863,-0.13350479304790497,0.05706970393657684,0.1945408582687378,-0.04247153922915459,-0.11059638857841492,0.031591642647981644,-0.05701198801398277,0.12056026607751846,0.03643221780657768,-0.07496323436498642,0.06052567437291145,-0.19359388947486877,0.03464313596487045,-0.16107846796512604,-0.0873936265707016,-0.12159417569637299,0.11909807473421097,-0.04938480257987976,0.05954890325665474,-0.03864738345146179,0.16089831292629242,-0.16825859248638153,0.11748157441616058,-0.053085971623659134,-0.05751596391201019,0.16108454763889313,0.047897011041641235,-0.10886148363351822,0.017022665590047836,0.0719662755727768,0.08985913544893265,-0.19784249365329742,0.19193288683891296,0.1279173046350479,-0.09856951981782913,-0.11865126341581345,0.039448924362659454,0.18876688182353973,-0.12597765028476715,-0.001291100517846644,-0.07080931961536407,0.18765196204185486,0.15430089831352234,0.06427858769893646,-0.02500242553651333,0.09286606311798096,0.13876986503601074,-0.008916087448596954,0.17264191806316376,0.022304540500044823,0.17155711352825165,-0.01567949913442135,-0.15340158343315125,-0.12164986878633499,0.18035978078842163,0.19395186007022858,-0.043423108756542206,-0.019076399505138397,0.02229621820151806,0.010239004157483578,0.060921795666217804,-0.08676674962043762,0.16462397575378418,-0.14976975321769714,-0.1943708062171936,0.06320583820343018,0.19813662767410278,-0.10992538928985596,-0.19099785387516022,-0.1922491490840912,0.05292985960841179,0.11046211421489716,0.12842434644699097,-0.07518904656171799,0.030160954222083092,0.027660861611366272,0.029508616775274277,0.03512437641620636,0.12271656095981598,0.10652382671833038,0.1536320596933365,0.1512281745672226,-0.19292888045310974,0.1596953421831131,0.13389311730861664,0.11933503299951553,-0.13812679052352905,0.05716835707426071,-0.11047116667032242,-0.14560328423976898,0.16595353186130524,-0.16285692155361176,-0.0833771824836731,0.058373115956783295,0.02278992533683777,0.19193309545516968,-0.08111532777547836,0.1982976645231247,0.014666854403913021,-0.08868640661239624,0.19326573610305786,-0.07652578502893448,0.021864281967282295,-0.18143583834171295,0.1666695773601532,0.11210265010595322,-0.04057912901043892,0.1510111391544342,0.14983417093753815,-0.10749854892492294,0.1684715300798416,0.1445496529340744,0.12962159514427185,0.1293201893568039,-0.1708228588104248,-0.06097666919231415,-0.038205426186323166,0.13963855803012848,-0.027581270784139633,0.015014278702437878,-0.001251430599950254,-0.1494682878255844,0.01562308520078659,-0.049527607858181,0.12227335572242737,-0.09312215447425842,0.15879175066947937,0.10080110281705856,-0.05721309036016464,0.037996720522642136,-0.1951994001865387,0.09328217804431915,-0.04478130862116814,0.10330968350172043,-0.15755964815616608,0.022365253418684006,-0.12317029386758804,0.06099863350391388,0.16380397975444794,0.1970464587211609,0.11094492673873901,-0.15718930959701538,-0.0057762800715863705,-0.028540896251797676,0.06457313150167465,0.06243373826146126,-0.19815945625305176,0.06517529487609863,0.11653263121843338,-0.11475198715925217,-0.15957728028297424,-0.18878529965877533,-0.10664605349302292,-0.009023653343319893,-0.10931389778852463,0.15875394642353058,-0.0863363966345787,-0.18901149928569794,-0.06441893428564072,0.03588513284921646,-0.02370382845401764,0.19036541879177094,-0.012206843122839928,0.0676431730389595,0.1570337861776352,-0.0737813413143158,-0.12967631220817566,-0.192994624376297,-0.1434926986694336,-0.1658957600593567,-0.04851794242858887,0.0356166772544384,0.06590258330106735,0.030569205060601234,0.03003605268895626,0.1548486202955246,0.16565798223018646,0.008716228418052197,-0.03826741874217987,0.03028547577559948,-0.09737678617238998,-0.03782163932919502,-0.18110546469688416,0.1538161039352417,0.07017217576503754,0.08220253139734268,-0.04297540336847305,-0.13700895011425018,0.19366386532783508,-0.12330637872219086,-0.040040697902441025,-0.0233791284263134,0.1600969284772873,0.19049079716205597,-0.03442227840423584,0.08705364167690277,0.16834178566932678,-0.1652805209159851,-0.05187145993113518,0.0005590812652371824,0.055577635765075684,-0.012158948928117752,0.05305922031402588,0.17253370583057404,-0.16770823299884796,0.1002197340130806,-0.16157199442386627,-0.013572802767157555,-0.04674462974071503,-0.1902603656053543,0.039396047592163086,-0.0007875024457462132,0.17435398697853088,-0.16426198184490204,-0.13251306116580963,-0.1904253363609314,0.09571579098701477,0.15478827059268951,-0.176374614238739,0.03217880427837372,-0.06747952103614807,0.05078675225377083,-0.19078245759010315,0.14123614132404327,-0.1662708818912506,0.04097739979624748,-0.06134134158492088,-0.12930479645729065,-0.1676415205001831,-0.06652648746967316,-0.1943756490945816,-0.010964623652398586,-0.07020892202854156,-0.09348849952220917,0.0758148655295372,-0.1368855983018875,0.13743631541728973,0.04265281558036804,0.012332429178059101,0.07506774365901947,-0.08217127621173859,0.07331344485282898,0.11261621117591858,0.18455521762371063,-0.06431744247674942,0.12164881080389023,-0.010969453491270542,0.06492796540260315,0.05055629834532738,-0.06804254651069641,0.12201448529958725,-0.055928051471710205,0.1910669505596161,0.06187806278467178,0.08532719314098358,-0.19469723105430603,-0.09259910881519318,-0.16316388547420502,0.06950259208679199,0.13850504159927368,0.15343478322029114,-0.0009196150931529701,0.17818781733512878,0.07206164300441742,0.1411915123462677,0.16228865087032318,-0.1695782095193863,-0.03568365052342415,0.1592201590538025,-0.057827480137348175,0.12343122810125351,-0.15654565393924713,-0.16746178269386292,0.13756121695041656,-0.08369062095880508,-0.10031872987747192,-0.17280037701129913,0.10692200064659119,0.18288832902908325,-0.1114582046866417,-0.13811226189136505,-0.12197436392307281,0.02963697910308838,-0.16459757089614868,0.15834710001945496,0.13997302949428558,0.14929121732711792,-0.033295851200819016,-0.11511571705341339,0.027618827298283577,0.06498704105615616,0.12830348312854767,-0.19717976450920105,0.12283220887184143,0.058920834213495255,-0.08971279859542847,0.021904202178120613,-0.10934599488973618,0.18879187107086182,-0.0896197035908699,-0.031682975590229034,0.04054530709981918,0.12936078011989594,0.16127246618270874,-0.12305083125829697,-0.009292760863900185,-0.15078170597553253,-0.01719183661043644,-0.11593683063983917,0.16712063550949097,0.0911090075969696,-0.05234555900096893,-0.04331929609179497,-0.12729386985301971,0.17813728749752045,0.12953506410121918,0.09717491269111633,0.11050184816122055,-0.1697559654712677,-0.11471858620643616,0.04954928159713745,-0.07070636749267578,-0.009173502214252949,-0.13834834098815918,-0.18538101017475128],[-0.1059350073337555,-0.07079693675041199,-0.30547428131103516,-0.010158034972846508,-0.21724916994571686,-0.21305632591247559,-0.2133670300245285,-0.14112837612628937,1.4423854351043701,1.2011606693267822,1.2185156345367432,2.2617902755737305,0.027601204812526703,0.9350156784057617,0.7582529783248901,1.6902687549591064,0.9653871655464172,-0.7795279622077942,0.45700639486312866,0.48293817043304443,0.4850594103336334,0.5766098499298096,0.0915239080786705,1.123496651649475,-0.30303627252578735,-0.21135202050209045,-0.20118151605129242,-0.03186669945716858,-0.06062581390142441,-0.16840799152851105,-0.2620081603527069,-0.2222473919391632,0.009739085100591183,-0.026356084272265434,-0.08965887129306793,-0.0006224079988896847,-0.009031053632497787,-0.24881252646446228,-0.10645487904548645,-0.18188399076461792,-0.1521608829498291,-0.08341355621814728,-0.29582223296165466,-0.13709458708763123,-0.16236761212348938,0.008035514503717422,-0.2936069965362549,-0.025972072035074234,-0.16542795300483704,-0.1270471215248108,-0.2821083664894104,-0.21247746050357819,-0.1492895781993866,-0.02511085383594036,-0.22823172807693481,-0.058425985276699066,0.004233263898640871,-0.05594149976968765,-0.19750761985778809,-0.22155170142650604,-0.04969073086977005,-0.2746259570121765,-0.13689100742340088,-0.09122173488140106,-0.1006179079413414,-0.2451835572719574,-0.09461116045713425,-0.14305013418197632,-0.20902198553085327,0.024990983307361603,-0.19964414834976196,-0.1416400521993637,0.09446940571069717,-0.1657266765832901,0.18578320741653442,-0.018965933471918106,0.18796440958976746,-0.11060964316129684,0.13567323982715607,-0.13065454363822937,-0.08894787728786469,-0.0170361939817667,-0.12262468039989471,-0.1858341097831726,0.028421958908438683,-0.11099082976579666,0.048959169536828995,-0.165950745344162,-0.09663025289773941,0.19710905849933624,0.12793971598148346,0.009026940912008286,-0.13714639842510223,0.19368821382522583,0.143656924366951,-0.0741940289735794,0.18116620182991028,-0.10642992705106735,-0.12815195322036743,-0.09933331608772278,0.18232281506061554,-0.10027619451284409,0.12279224395751953,0.007836220785975456,-0.030833188444375992,0.16320481896400452,-0.12089601904153824,-0.07875792682170868,0.105954110622406,-0.10204464197158813,0.17052869498729706,-0.003969636745750904,-0.004938701633363962,0.07138951867818832,-0.03044997528195381,0.08699443191289902,-0.02112390287220478,-0.18604117631912231,-0.08391155302524567,-0.1880919337272644,0.1569334864616394,0.15068379044532776,0.15301422774791718,-0.16662725806236267,0.1322527974843979,-0.078264020383358,-0.049358367919921875,-0.06700041145086288,-0.05228927358984947,0.07446110993623734,0.06995798647403717,-0.10622233152389526,0.13169127702713013,0.14108087122440338,0.1664596050977707,0.013662563636898994,-0.03660621494054794,0.16454477608203888,0.08568631112575531,-0.0890495702624321,-0.05059000477194786,-0.04697783291339874,0.1226952075958252,-0.1317438781261444,-0.11469913274049759,0.147760808467865,-0.07249008864164352,-0.04787769541144371,-0.110417939722538,-0.0673297867178917,0.05089105665683746,-0.0981995239853859,0.04242517799139023,0.09471957385540009,-0.06340687721967697,-0.0012775143841281533,0.011772235855460167,-0.015071508474647999,-0.054222073405981064,0.08269007503986359,-0.12187796086072922,-0.010976791381835938,-0.011669435538351536,0.19938024878501892,0.03512067720293999,-0.02901901677250862,0.15341311693191528,-0.1243865117430687,-0.1317472904920578,-0.19511151313781738,0.1354125440120697,0.02580219693481922,0.023435058072209358,-0.006424217484891415,0.03373829647898674,0.11338444799184799,-0.08853592723608017,0.1883203685283661,0.009753810241818428,0.041588541120290756,-0.16281013190746307,0.06715527176856995,-0.14201900362968445,0.1295633465051651,-0.013347315602004528,-0.08444056659936905,-0.026977285742759705,0.13477039337158203,-0.01989637315273285,0.06541681289672852,0.13383488357067108,0.06422008574008942,-0.1653943806886673,0.030965670943260193,0.02626686543226242,0.030182722955942154,-0.12875351309776306,0.014187298715114594,-0.14158017933368683,-0.05825085937976837,-0.004995822440832853,0.033039700239896774,0.10195117443799973,-0.0693226307630539,-0.16123196482658386,0.1583542674779892,-0.14687013626098633,-0.06172415614128113,0.12963493168354034,0.024230528622865677,0.1442471295595169,-0.19969075918197632,-0.026200642809271812,-0.05400213226675987,0.19074247777462006,0.10636074095964432,-0.11590886116027832,0.14451737701892853,0.054484907537698746,0.17840635776519775,-0.17682717740535736,0.0612192340195179,0.06272802501916885,0.17231716215610504,0.0924893394112587,0.007649699226021767,0.01174143422394991,-0.19696998596191406,-0.047648608684539795,0.02613232284784317,-0.013602899387478828,-0.10727162659168243,0.06930007040500641,-0.03079409711062908,0.113311767578125,-0.11068055033683777,0.05958658829331398,0.16152551770210266,-0.03654770180583,0.0249326229095459,-0.17697392404079437,-0.026882270351052284,-0.19072316586971283,-0.07565030455589294,-0.07315463572740555,-0.02688010036945343,-0.18065056204795837,0.06626476347446442,-0.014414986595511436,0.14093442261219025,0.1804797351360321,0.020705491304397583,0.05390433594584465,0.004858621396124363,-0.19817031919956207,0.0426335372030735,0.13316227495670319,0.08313427120447159,-0.15915629267692566,0.0741148442029953,0.0189355481415987,0.12561282515525818,-0.05181588977575302,-0.027004962787032127,-0.04925306886434555,0.10068334639072418,0.17125198245048523,0.12406906485557556,-0.1311054229736328,0.0568639412522316,0.09694696217775345,-0.15834617614746094,-0.009562737308442593,0.07870978116989136,0.09236876666545868,-0.18767370283603668,-0.03673930838704109,-0.1968359798192978,-0.12284200638532639,0.058646850287914276,0.002708057640120387,0.15556600689888,0.035782381892204285,-0.08896688371896744,-0.10395102947950363,0.036814067512750626,0.08872127532958984,0.12458400428295135,0.06765083968639374,0.08030785620212555,0.014683797955513,0.15172284841537476,-0.1952967345714569,0.11409664899110794,-0.09763443470001221,-0.05835729464888573,-0.16594581305980682,0.12465302646160126,0.004530589561909437,0.09394988417625427,-0.18846896290779114,-0.18091222643852234,-0.17903165519237518,0.07233995199203491,-0.052695419639348984,0.08912932127714157,-0.1088506281375885,0.10366235673427582,0.0802384540438652,0.007338617462664843,0.05698440596461296,-0.11530894786119461,0.10958492010831833,-0.0013744088355451822,-0.08637814968824387,0.0930958092212677,0.09402686357498169,0.09534967690706253,0.004955983720719814,-0.17712430655956268,0.177264004945755,-0.18713045120239258,-0.18776598572731018,0.13803595304489136,-0.09376980364322662,-0.17464645206928253,-0.14886514842510223,0.013862930238246918,0.07335209846496582,0.037014372646808624,-0.11532897502183914,-0.17162014544010162,-0.1351381242275238,-0.08785536140203476,-0.09677399694919586,-0.07800501585006714,0.1742066740989685,-0.020336588844656944,-0.14813843369483948,0.17444613575935364,0.07811620086431503,0.15051493048667908,0.19910281896591187,-0.020235709846019745,0.03829856216907501,-0.0018635948654264212,0.11700926721096039,-0.160077303647995,-0.14381304383277893,-0.13645029067993164,0.08605922758579254,-0.1555873602628708,0.186748668551445,-0.13914023339748383,-0.05844375863671303,-0.011684988625347614,0.027355467900633812,0.16407287120819092,-0.10053471475839615,0.061193011701107025,0.18767811357975006,0.10907066613435745,-0.1419694870710373,-0.006048030219972134,0.013013163581490517,0.11106835305690765,0.0656273290514946,0.10121773183345795,-0.1912287026643753,0.08815295994281769,-0.1257622390985489,-0.04724641144275665,0.19454120099544525,0.14828826487064362,-0.06539733707904816,-0.043410543352365494,-0.10990843921899796,-0.029584065079689026,0.16239836812019348,-0.16399790346622467,0.16719236969947815,-0.032651111483573914,0.14958417415618896,0.09504256397485733,-0.1450360119342804,-0.11609259992837906,-0.03958170861005783,0.09722360968589783,0.15119686722755432,-0.07955369353294373,-0.06384911388158798,-0.030234219506382942,-0.16821083426475525,-0.10132702440023422,0.06576301902532578,-0.1235593929886818,-0.0026453069876879454,-0.16616319119930267,-0.16866271197795868,-0.18918819725513458,-0.030911756679415703,-0.11822636425495148,-0.01998709887266159,0.01971215195953846],[0.12372930347919464,0.15789471566677094,-0.05291585996747017,0.19256004691123962,0.18610605597496033,0.22885027527809143,0.32097873091697693,0.16765107214450836,-0.6999061703681946,0.6347565650939941,-0.04666554182767868,-2.0797739028930664,0.6374238133430481,-0.3831583261489868,-1.0849034786224365,-1.76841139793396,0.40544912219047546,-1.6794747114181519,-0.541584849357605,0.28254806995391846,-1.3672804832458496,-0.4421451985836029,0.022236334159970284,-1.1298742294311523,-0.04057774320244789,-0.19030825793743134,0.14277973771095276,0.2903215289115906,0.01761263608932495,0.2351558357477188,-0.031566035002470016,0.10650576651096344,0.08059114962816238,0.2854105234146118,0.2379528284072876,0.04456869885325432,0.24044862389564514,0.1274217665195465,0.11628223955631256,-0.009614533744752407,0.279978483915329,0.20704595744609833,0.23478035628795624,0.16447094082832336,0.21295371651649475,0.14261962473392487,0.1381654143333435,0.03280701860785484,0.2451057732105255,0.09305575489997864,0.03479357808828354,0.02388572506606579,0.27446794509887695,0.2605336606502533,0.13103707134723663,0.24487042427062988,0.12997221946716309,0.1660069227218628,0.031049301847815514,0.24221327900886536,0.282411128282547,0.2590171694755554,0.007988621480762959,0.13803382217884064,0.30745917558670044,-0.0006835651001892984,0.027157574892044067,-0.028675366193056107,-0.029856961220502853,0.32300832867622375,0.15236212313175201,-0.054365865886211395,0.1295597106218338,-0.11461897939443588,0.17536583542823792,-0.1442839652299881,0.11147919297218323,0.0023245522752404213,0.07329501956701279,0.1980481594800949,-0.13046443462371826,-0.04828348010778427,-0.03559092804789543,0.06209605559706688,0.15534888207912445,-0.14003784954547882,-0.1506076455116272,0.12156877666711807,-0.01264607161283493,0.11567766219377518,0.04441691190004349,-0.12830278277397156,-0.08966679871082306,-0.01666387915611267,-0.004509005229920149,0.16565851867198944,-0.10248562693595886,-0.1902473121881485,0.09660666435956955,-0.0030003655701875687,0.09959246963262558,-0.161049947142601,0.08512520790100098,0.12971031665802002,0.11011975258588791,-0.060497745871543884,-0.1950344741344452,0.16317476332187653,-0.04934846982359886,0.12829935550689697,-0.07055426388978958,0.03313170000910759,-0.1983237862586975,0.08936949819326401,0.04518748074769974,-0.13783717155456543,-0.014093885198235512,-0.0828448235988617,0.10915102809667587,-0.04400654137134552,-0.19665414094924927,-0.010309023782610893,-0.09506944566965103,0.1569136083126068,-0.13134276866912842,-0.06318871676921844,-0.18520544469356537,0.14389917254447937,-0.1207774206995964,0.1945447027683258,0.15137435495853424,-0.008156518451869488,0.11443959921598434,0.0714179128408432,-0.10854271054267883,-0.13247333467006683,0.08952530473470688,-0.15816070139408112,-0.01834636554121971,0.08509792387485504,-0.0785754919052124,0.10929852724075317,-0.12603923678398132,0.09639532119035721,-0.035589370876550674,-0.1261155605316162,0.04370035603642464,-0.04977579787373543,-0.03784334287047386,-0.15711335837841034,-0.01498784776777029,0.19328688085079193,0.1585582047700882,0.04517672210931778,0.10269802808761597,0.14111311733722687,0.11092328280210495,0.06822870671749115,-0.09134019911289215,0.127029150724411,0.10882498323917389,-0.18676114082336426,0.1485651582479477,-0.01744977757334709,-0.11661168932914734,0.0051937466487288475,0.1734614074230194,0.11240576207637787,-0.18754734098911285,0.1933225691318512,0.11888991296291351,0.187408909201622,0.10795144736766815,0.09557731449604034,0.059392161667346954,-0.1519545018672943,0.1387016922235489,-0.15252390503883362,-0.09330160915851593,-0.01250261440873146,-0.14831794798374176,-0.18549945950508118,0.18485459685325623,0.021232102066278458,0.19309623539447784,0.001089428085833788,0.016954515129327774,-0.09651850163936615,-0.16653352975845337,-0.16790097951889038,-0.1340581774711609,-0.03366940841078758,-0.09899940341711044,-0.10132674872875214,0.1928817480802536,0.11433582752943039,0.06530039757490158,-0.06773289293050766,0.11187788099050522,-0.010558943264186382,0.12917979061603546,0.11354991793632507,-0.09365351498126984,0.19562780857086182,-0.14825432002544403,-0.10905656963586807,-0.17663921415805817,-0.09817373752593994,0.15981116890907288,-0.17544850707054138,0.03323667123913765,-0.11502400785684586,-0.03673626109957695,-0.005276053678244352,-0.08060324937105179,0.14125370979309082,-0.1043931171298027,-0.17142491042613983,-0.16315868496894836,-0.10582875460386276,-0.18368400633335114,0.01825927384197712,0.06719289720058441,-0.13421405851840973,0.03346247971057892,-0.09237708896398544,0.011973301880061626,0.14465728402137756,-0.07781247794628143,-0.1080780178308487,-0.014898299239575863,-0.00596980145201087,0.1304677426815033,0.11699702590703964,0.1063927561044693,-0.1475411355495453,-0.022753164172172546,-0.05147518962621689,0.042320236563682556,-0.042071931064128876,-0.04080364108085632,-0.14335216581821442,0.03510035574436188,0.04708758369088173,0.08289159834384918,-0.1365155726671219,0.1205306202173233,-0.08224741369485855,0.012405777350068092,0.038003936409950256,0.06992805749177933,0.07523949444293976,0.019065167754888535,0.15901078283786774,-0.11223233491182327,-0.15048572421073914,-0.19807571172714233,0.14837191998958588,0.08985903114080429,0.13498152792453766,-0.04592065513134003,0.15771514177322388,0.11869274824857712,-0.15944260358810425,0.09516064822673798,0.1980692595243454,-0.002963293343782425,-0.043042998760938644,0.07699168473482132,0.09768735617399216,0.13769377768039703,-0.049700066447257996,0.15838824212551117,-0.005447019822895527,0.18914520740509033,-0.07486029714345932,0.024686487391591072,-0.099024698138237,-0.15410323441028595,-0.012227480299770832,-0.19674590229988098,-0.13135188817977905,0.006482204422354698,0.11868497729301453,-0.028816597536206245,-0.09329353272914886,-0.09569323807954788,0.1059461459517479,-0.08646989613771439,0.10350529104471207,0.0831088200211525,-0.0046050529927015305,-0.1485368311405182,0.0884522870182991,0.18274347484111786,0.021144568920135498,-0.005318354349583387,-0.009932540357112885,-0.19783249497413635,-0.09812754392623901,0.13271987438201904,0.009471134282648563,-0.19716575741767883,0.04768047854304314,-0.1712886095046997,-0.17544615268707275,0.07784217596054077,-0.05643964186310768,0.11097651720046997,0.17252099514007568,-0.09771068394184113,0.042002830654382706,0.10914908349514008,-0.09955529868602753,-0.16290880739688873,0.14954827725887299,0.17517878115177155,-0.17111696302890778,0.1675141304731369,0.11524105817079544,0.033465564250946045,0.05974221229553223,-0.07415392994880676,-0.11852909624576569,0.1875988245010376,-0.02069798670709133,0.014982033520936966,-0.13170582056045532,-0.05792107805609703,-0.10313914716243744,0.06557182222604752,-0.029361773282289505,-0.005907977931201458,-0.17407484352588654,-0.1426626592874527,0.13066129386425018,0.1960473656654358,0.16392289102077484,-0.16435161232948303,0.08761068433523178,-0.052480604499578476,0.009071225300431252,0.14127525687217712,-0.09907721728086472,0.07541590183973312,-0.011469291523098946,-0.17623788118362427,0.05903000012040138,0.11491357535123825,0.09030947089195251,0.06697744876146317,-0.15118297934532166,-0.13133323192596436,0.08185546100139618,-0.084290511906147,0.06742969900369644,0.07986947894096375,0.1782374382019043,-0.17576053738594055,-0.03449184447526932,-0.028960321098566055,0.17285923659801483,0.1267157644033432,0.020469745621085167,-0.09679698199033737,-0.07305914908647537,-0.19087351858615875,-0.0013364233309403062,-0.17998674511909485,0.044931553304195404,0.05719171464443207,0.10674037784337997,0.10342515259981155,0.13019351661205292,-0.0972771942615509,0.1460016816854477,0.12281796336174011,0.08170899003744125,0.17033889889717102,-0.17877835035324097,-0.19244152307510376,0.18373194336891174,-0.19090114533901215,-0.1134733334183693,0.14467711746692657,-0.19084368646144867,0.18620778620243073,0.15498018264770508,0.08491586148738861,0.06945137679576874,0.12828387320041656,0.16794045269489288,0.14485368132591248,-0.03880093991756439,0.16632066667079926,-0.17913444340229034,-0.0865577831864357,-0.10006749629974365,0.049756377935409546,-0.1256064623594284,-0.0024077207781374454,-0.04956166446208954,0.01733115129172802,0.102401502430439],[-0.10065007209777832,0.003909277729690075,0.22115124762058258,-0.04976809024810791,0.002373122377321124,-0.018105337396264076,0.20735283195972443,0.20934772491455078,0.2770497798919678,-0.9440395832061768,-0.40475770831108093,0.09443307667970657,-0.44912615418434143,0.19890308380126953,0.739091694355011,-0.9616497159004211,-0.0821605995297432,-0.15817001461982727,-1.9299436807632446,1.5159430503845215,-2.024261236190796,1.8434449434280396,0.15592674911022186,-2.297797203063965,0.9849103689193726,0.21486450731754303,0.0024791101459413767,-0.1367860585451126,-0.020565778017044067,-0.015091538429260254,0.06994467228651047,0.03998478502035141,0.01692473143339157,-0.06734547019004822,