{"type":"NeuralNetwork","sizes":[23,20,18],"layers":[{"weights":[],"biases":[]},{"weights":[[0.20672009885311127,-2.009810209274292,-0.9145194292068481,0.037978436797857285,0.14411164820194244,0.6919215321540833,-0.0035848822444677353,-0.6388745307922363,-0.7226181626319885,0.9201238751411438,-0.43556079268455505,0.8823686242103577,-0.05322176218032837,-0.10519708693027496,-0.3168170750141144,-0.09820674359798431,-0.2625427544116974,-0.32605135440826416,0.10904734581708908,-0.2079247087240219,0.02064090222120285,-1.1561280488967896,0.052917979657649994],[1.0955790281295776,-0.9054157137870789,0.8309745192527771,0.23810316622257233,0.4022561013698578,-0.7891708612442017,0.08775951713323593,1.0598617792129517,0.25695523619651794,1.0335289239883423,-1.542573094367981,-0.8608003258705139,-0.018064066767692566,-0.2884714901447296,0.01758710853755474,-0.3014410436153412,-0.1260673850774765,-0.24237816035747528,0.21998731791973114,-0.43409186601638794,0.027754874899983406,-0.029292484745383263,-0.9843165874481201],[1.4075523614883423,-0.23733451962471008,-0.3232584595680237,-0.10606388002634048,-0.5032908916473389,0.3491857945919037,0.3048863708972931,0.68351149559021,-0.1729816049337387,-0.9559522867202759,0.6925503015518188,-0.3986334800720215,0.033121589571237564,-0.17080508172512054,-0.19850513339042664,0.1665409654378891,-0.07725993543863297,0.013881245627999306,0.05811215564608574,-0.2646293342113495,-0.13220112025737762,-0.2398522049188614,-0.7488575577735901],[-0.8569614291191101,0.31895095109939575,0.2224125862121582,0.7671470046043396,0.7643731832504272,-0.5863884687423706,0.2690277099609375,-0.07544103264808655,-0.2352970987558365,0.45097577571868896,0.017616132274270058,0.528904378414154,0.10746268182992935,-0.028642985969781876,0.092887744307518,0.06312528997659683,-0.2244567722082138,-0.1605110615491867,0.06364556401968002,-0.06408463418483734,-0.11101199686527252,0.004891586489975452,-0.14886654913425446],[-0.050068002194166183,1.1478185653686523,-0.12287546694278717,0.05221514031291008,0.12486269325017929,0.2108963429927826,-1.135635495185852,-0.07469482719898224,0.8174762725830078,-0.6887735724449158,1.2768741846084595,-1.0811259746551514,0.009687427431344986,0.03383582457900047,-0.20356346666812897,-0.11184163391590118,0.14714422821998596,0.1224912703037262,0.27358904480934143,0.865220844745636,-1.7219045162200928,0.11455891281366348,-0.07194644212722778],[-0.31664374470710754,-0.9549511671066284,1.6456300020217896,-0.18384923040866852,-0.4793155789375305,-0.3649846613407135,0.41221684217453003,-0.011497650295495987,-0.5875040292739868,-0.21256032586097717,-0.18053129315376282,0.6202279925346375,-0.48008158802986145,-0.10718442499637604,-0.1550774723291397,-0.10388435423374176,-0.16446448862552643,-0.09364542365074158,0.2116324007511139,-0.12679673731327057,-0.1821165531873703,0.5143283009529114,0.8970815539360046],[-0.8566125631332397,0.007247286848723888,-1.9975959062576294,0.21119995415210724,0.28286075592041016,0.39736634492874146,0.17918573319911957,1.0161478519439697,0.30232980847358704,-0.7075022459030151,0.7495177984237671,-0.612189769744873,-0.09532355517148972,-0.16686514019966125,-0.20306552946567535,-0.019659962505102158,-0.11259236186742783,0.03905650973320007,-0.20121541619300842,0.3620505928993225,-0.08432778716087341,-1.1346185207366943,1.8530831336975098],[-0.7191533446311951,0.4496082663536072,0.4010935127735138,0.5792776942253113,0.7139167785644531,0.7834911346435547,0.7257960438728333,0.01243577990680933,-0.8680804967880249,-0.5408895611763,-0.4064467251300812,-0.6924201846122742,-0.059245992451906204,-0.06629418581724167,0.15910989046096802,0.026909487321972847,0.018571754917502403,-0.06151849031448364,-0.22668778896331787,0.07531307637691498,0.10731185972690582,0.25945553183555603,-0.010590724647045135],[0.04848996549844742,0.7069411277770996,0.8315412998199463,0.6639450192451477,0.05313950404524803,0.20173601806163788,0.27139973640441895,0.2972414195537567,-0.33601319789886475,-0.6318356394767761,-0.35560572147369385,0.12960410118103027,-0.1876533329486847,0.07427863031625748,0.1505177915096283,0.2821134328842163,0.1423310786485672,0.2059849202632904,-0.1635514497756958,0.1172507181763649,0.11564385890960693,0.11671758443117142,-0.05899534374475479],[-0.15868070721626282,0.865020215511322,1.2330318689346313,0.18345795571804047,0.37995946407318115,-0.26256847381591797,-0.32040315866470337,-0.5396173000335693,-0.16538649797439575,1.0172370672225952,-0.4402024745941162,-0.637795627117157,-0.04470810294151306,0.08670897781848907,-0.07841581851243973,0.05163195729255676,0.14467722177505493,0.3026183545589447,0.12502311170101166,-0.2294149547815323,0.23834064602851868,0.8370835781097412,0.3811516761779785],[0.11159130930900574,0.779344916343689,-1.222955584526062,0.014648925513029099,0.3177326023578644,-0.6983100175857544,0.26498767733573914,0.22010068595409393,0.017168087884783745,0.357697069644928,-0.807042121887207,0.2661062479019165,0.046831343322992325,0.17399980127811432,0.16084258258342743,0.24694184958934784,0.35569867491722107,0.11957614123821259,0.04155093804001808,-0.23059286177158356,-0.13943718373775482,-0.13269680738449097,1.0459080934524536],[-0.7753465175628662,-0.2790609896183014,0.7037134170532227,0.7381728887557983,0.20278240740299225,-0.8905367255210876,-1.1247670650482178,0.02301817573606968,1.1924898624420166,0.45550408959388733,0.8495673537254333,-0.18545818328857422,0.029629746451973915,-0.1212456151843071,0.11195831745862961,-0.02660238742828369,-0.1553669422864914,0.11863068491220474,-0.32585954666137695,-0.1728419065475464,1.4400393962860107,0.05712447315454483,0.5941678285598755],[-0.8194860219955444,0.16514243185520172,-0.5699484944343567,-0.6241539120674133,-0.5967410206794739,0.937313973903656,0.19490595161914825,0.42098429799079895,0.3230951428413391,0.3349786102771759,0.432151734828949,0.3610665798187256,0.09932969510555267,-0.054825179278850555,-0.22649818658828735,-0.1398531198501587,0.09639882296323776,0.12677742540836334,-0.24832366406917572,-0.06977801769971848,-0.09451129287481308,-0.48607805371284485,-0.14945797622203827],[0.4231118857860565,-2.4395501613616943,0.9456040263175964,0.20588147640228271,0.8080183863639832,0.2080763578414917,0.6926912069320679,-0.36507144570350647,-0.6636980175971985,-0.8804807066917419,0.10319306701421738,1.0492225885391235,-0.10284167528152466,-0.2733612358570099,-0.10600987821817398,-0.20468920469284058,-0.15666736662387848,-0.14588503539562225,0.00908201839774847,-0.32703396677970886,0.16454192996025085,-0.6780877709388733,-0.7238914966583252],[0.11094590276479721,1.2976903915405273,-1.8445515632629395,0.17427268624305725,0.08743053674697876,0.3251413404941559,0.6385294795036316,-0.10295151174068451,-0.6407971978187561,-0.15983445942401886,-0.24288225173950195,0.25380754470825195,-0.5155728459358215,-0.05121219530701637,-0.2870093584060669,-0.2739104628562927,-0.014780477620661259,-0.2213200330734253,0.18901203572750092,0.28829488158226013,-0.4777229428291321,-0.6169067621231079,-0.4398444592952728],[0.5342347621917725,-0.12721922993659973,-0.4118792712688446,-0.7302966117858887,-0.6653763651847839,-0.7034928798675537,0.5560492277145386,-0.6334218978881836,-1.261608600616455,-0.6808387041091919,1.4501116275787354,0.740798830986023,0.0393080897629261,0.4097003638744354,0.15948951244354248,0.1411416381597519,0.23314884305000305,0.31637880206108093,0.08228310197591782,0.22238633036613464,0.005246651358902454,-0.31114307045936584,0.14806854724884033],[0.9475183486938477,-0.3618788421154022,0.07180242985486984,-1.1958339214324951,-0.9007741212844849,-0.3153870701789856,0.2995925843715668,0.5978662967681885,0.043680112808942795,0.7563931941986084,0.8672648668289185,-1.398544430732727,0.051625993102788925,0.14400418102741241,0.0363483764231205,0.11215618252754211,-0.22607754170894623,-0.2203090637922287,-0.07912342995405197,-0.24990291893482208,-0.09773615002632141,-0.12273924052715302,1.4450265169143677],[0.11166203022003174,1.152276873588562,-1.0919699668884277,-0.049455057829618454,-0.3367711901664734,0.8778557777404785,-0.882487416267395,0.23933488130569458,0.9179163575172424,0.7460140585899353,-0.8334746956825256,-0.5395074486732483,0.019947048276662827,0.09651681780815125,0.16668491065502167,0.02546166069805622,-0.04221088066697121,-0.11108332127332687,0.46177664399147034,1.087148666381836,-1.7733744382858276,-0.07265918701887131,-0.1498662382364273],[0.31705424189567566,-1.443779706954956,1.3329887390136719,0.011386983096599579,-0.49010103940963745,0.5152062177658081,0.06193820387125015,0.48819515109062195,0.19812072813510895,-0.39829546213150024,-0.8953481912612915,0.7702237963676453,0.22356727719306946,0.16520512104034424,0.19952724874019623,0.11216595023870468,0.23130430281162262,0.1786002814769745,0.08565736562013626,0.07206898182630539,-0.08445999771356583,0.2735179662704468,-0.0047096931375563145],[0.4628771245479584,-0.4650949537754059,1.2226502895355225,0.2044713795185089,0.06432678550481796,0.37973085045814514,-1.131284475326538,-0.39922961592674255,0.643881618976593,0.30778470635414124,-0.1469699740409851,0.4070804715156555,0.027962420135736465,-0.19711518287658691,0.05954751372337341,-0.1054736077785492,0.051609691232442856,-0.14994178712368011,-0.37109512090682983,-0.7376052737236023,1.284989595413208,0.5908039212226868,-2.4094772338867188]],"biases":[0.44669127464294434,0.13991323113441467,0.09300986677408218,0.3652646839618683,-0.06136040762066841,-0.05621906369924545,0.013816095888614655,-0.15060542523860931,-0.21273179352283478,-0.04884031042456627,-0.05648427456617355,0.16634933650493622,0.10138602554798126,0.29672256112098694,0.3062124252319336,-0.14270614087581635,0.06782946735620499,-0.47813183069229126,-0.1575605571269989,0.30356642603874207]},{"weights":[[0.9441872835159302,0.6490971446037292,0.2875883877277374,-1.189606785774231,-0.8234564065933228,-1.2326292991638184,-0.7940466403961182,-0.9598461389541626,-1.5120112895965576,-1.3372347354888916,-0.12452132999897003,-1.0254437923431396,-1.2109001874923706,0.7427684664726257,0.28134652972221375,0.5024594068527222,0.28465521335601807,-0.10510917752981186,0.040110718458890915,0.11024510115385056],[-1.395228385925293,-0.15153679251670837,0.3492982089519501,-1.0907598733901978,0.3865027129650116,-0.0532638356089592,-0.8803510665893555,-1.4509938955307007,0.3583506941795349,0.1913156658411026,0.14887076616287231,-1.6250520944595337,-1.5042566061019897,-1.361412763595581,0.5531813502311707,0.44296994805336,0.4409823417663574,1.0434798002243042,-0.9393274784088135,-0.6780826449394226],[-0.5727212429046631,-0.19020140171051025,0.6402280926704407,-0.978088915348053,-1.17837393283844,-0.04166139289736748,-1.08762788772583,-1.0955619812011719,0.6530687808990479,0.5773555636405945,-1.4188019037246704,0.01848442479968071,-1.1356621980667114,0.06714244186878204,-1.345961332321167,0.0948418602347374,0.6940614581108093,-1.0755822658538818,0.0074685257859528065,0.4076657295227051],[1.100379228591919,0.44846397638320923,-0.34888431429862976,0.2788568139076233,-0.39662066102027893,-1.0154346227645874,0.6261932849884033,-0.022807300090789795,-0.47313904762268066,-0.5035649538040161,0.06551885604858398,0.07268297672271729,-0.9460455179214478,1.4908894300460815,0.3750297725200653,-0.9884891510009766,-1.1190118789672852,-0.7867656946182251,-1.0007116794586182,-0.3449151813983917],[-0.9406600594520569,0.45191073417663574,-0.9897453784942627,0.8560991883277893,-0.5829375982284546,0.3667006194591522,-2.081130027770996,0.7581778168678284,0.030162008479237556,0.6219801306724548,-0.9146532416343689,0.5585119724273682,-1.3340774774551392,0.3114203214645386,-1.6297532320022583,-1.037277340888977,-0.9526519775390625,-1.168835163116455,-0.14804401993751526,0.9576185941696167],[-1.3304775953292847,-0.4177975654602051,-0.8205828070640564,1.1241168975830078,1.115365743637085,-1.1778595447540283,-0.32419848442077637,0.5423446893692017,-0.13023124635219574,0.16436180472373962,0.24970903992652893,-0.2863602936267853,-0.4958496391773224,-1.0499650239944458,1.1560487747192383,-0.8809192776679993,-1.2040983438491821,0.2512596845626831,-1.8244949579238892,-0.49181222915649414],[0.711816668510437,-0.970974862575531,0.2806946635246277,-1.0312670469284058,0.053074005991220474,-1.1033533811569214,-0.26483067870140076,0.15913644433021545,-0.6038129925727844,-0.8694812655448914,-1.4843175411224365,-1.1341582536697388,0.4675402343273163,0.11318212002515793,0.5368448495864868,-1.3272920846939087,-1.5878371000289917,0.2975257635116577,-0.18552416563034058,0.9358825087547302],[-0.5481491088867188,0.64089035987854,0.5479881763458252,0.35036274790763855,-1.6559139490127563,0.12964901328086853,0.49036452174186707,-0.29301565885543823,-0.24155887961387634,-1.2568538188934326,-0.0508539043366909,-1.1814273595809937,0.5940772294998169,-0.2585068643093109,0.5268979668617249,-0.5095729231834412,0.5712720155715942,-1.1277828216552734,0.01212689746171236,-1.6317002773284912],[-1.483359456062317,0.9157174825668335,0.18942609429359436,-0.3629593849182129,0.1506604552268982,-0.5669417381286621,0.6344749331474304,-1.4327678680419922,-0.6854948401451111,-1.1231926679611206,-0.4498994052410126,0.908324658870697,0.449679970741272,-1.1381384134292603,-0.653714656829834,-1.6937108039855957,0.26118478178977966,0.34654298424720764,0.011798793449997902,-0.2811677157878876],[0.9740818738937378,0.7857069969177246,-1.2048301696777344,0.39425069093704224,-0.9424105286598206,-0.17186962068080902,-0.9654371738433838,-0.8209030628204346,-1.2730982303619385,0.4485536813735962,-0.05316704511642456,0.2534078061580658,0.3283504545688629,-0.9779461026191711,-0.0473901741206646,-0.8779105544090271,0.4623708128929138,0.31063857674598694,-0.7532885074615479,0.12165865302085876],[-0.14470863342285156,-1.3690564632415771,-0.05236073583364487,0.19224432110786438,0.8913493156433105,-0.2585972845554352,0.11804356426000595,-0.9849913120269775,-1.1184115409851074,-0.7315505146980286,-1.141223430633545,0.9914885759353638,0.3710731565952301,-0.2873317003250122,-0.14074324071407318,0.7767569422721863,1.0839760303497314,-0.9166901707649231,-1.4633899927139282,-0.232212096452713],[1.0497539043426514,-1.1943013668060303,-0.8615855574607849,0.7028854489326477,-1.0332940816879272,0.3752782940864563,-0.8293790221214294,-1.3266913890838623,-0.6406902074813843,-1.1492174863815308,-0.3699176609516144,-0.038111887872219086,0.46217286586761475,0.7051172852516174,0.3322395086288452,0.44168609380722046,-1.2684526443481445,-0.9967867136001587,-0.019360236823558807,0.13132555782794952],[-0.9670664668083191,-1.0151492357254028,-0.9804213047027588,0.8139218688011169,-0.4462790787220001,0.3173779845237732,0.9172229170799255,-0.06395822763442993,-0.2788355350494385,-0.15435314178466797,-0.23992301523685455,0.46097901463508606,-1.6224199533462524,-1.004198431968689,-0.89878249168396,0.6395983695983887,-1.0795495510101318,-0.615288496017456,0.19984713196754456,-1.4315612316131592],[0.7262976765632629,-0.7981677651405334,-0.5804551243782043,-1.0398396253585815,0.2999739348888397,0.06579414010047913,0.46450358629226685,0.20057249069213867,-1.3233978748321533,-0.7746578454971313,0.16509315371513367,-0.6597118973731995,0.19376921653747559,-0.8512693643569946,-0.28922921419143677,-0.9656955003738403,0.36186671257019043,0.1757311075925827,-0.06667052954435349,-1.487289309501648],[-0.712249219417572,-0.648982048034668,-1.0531514883041382,-1.00450599193573,0.2738536596298218,0.05010918155312538,0.2740519046783447,0.1131860688328743,-0.03231244906783104,0.05603993684053421,-0.15193550288677216,-0.8451265692710876,0.23489615321159363,-0.7102680802345276,-0.5282319188117981,0.1174740418791771,0.3194259703159332,0.05465857312083244,-0.6117830872535706,-1.1214144229888916],[-0.6615496277809143,-0.8383855819702148,-1.075467824935913,-0.9477399587631226,-1.185776710510254,-0.10715135186910629,0.14499764144420624,0.205198273062706,-0.11392626166343689,0.04404764994978905,-0.24490956962108612,0.5098975300788879,0.42038241028785706,-0.6241271495819092,-0.5102640390396118,0.019439922645688057,0.9406248927116394,-0.42405667901039124,-0.24233540892601013,-0.9088813066482544],[-0.9700301885604858,-0.5670353174209595,-0.7709119915962219,-1.036682367324829,0.41274935007095337,0.07628729194402695,-0.12511847913265228,0.2871096730232239,0.34759193658828735,-0.19230833649635315,-0.6918606758117676,-1.2734767198562622,0.6942572593688965,-0.7373300790786743,-0.47842058539390564,0.2711394429206848,-1.2161790132522583,0.09467216581106186,-0.19148476421833038,-0.7634864449501038],[-0.828248143196106,-0.7677996754646301,-0.6934895515441895,-1.2211647033691406,-1.3102864027023315,0.09773336350917816,-0.2736486792564392,0.4688228964805603,-0.038325075060129166,0.08639343082904816,-0.9060924053192139,0.09577970206737518,0.8803505301475525,-0.8188442587852478,-0.4283374845981598,0.24126087129116058,-0.9349428415298462,-0.3391435742378235,-0.30284571647644043,0.8028346300125122]],"biases":[-0.6784307956695557,-0.5103266835212708,-0.6747954487800598,-0.7398957014083862,-0.6409241557121277,-0.5136677026748657,-0.343110591173172,-0.4101220369338989,-0.8971774578094482,-0.7137194871902466,-0.5560627579689026,-0.36148789525032043,-0.761407196521759,-0.7242652177810669,-0.9121448397636414,-0.9269799590110779,-0.47417449951171875,-0.504905641078949]}],"inputLookup":{"accordion":0,"left":1,"right":2,"tabs":3,"tab":4,"dots":5,"flip":6,"cards":7,"scroll":8,"carousel":9,"hotspots":10,"stepbystep":11,"interaction":12,"with":13,"a":14,"graphic":15,"on":16,"the":17,"lr":18,"l":19,"r":20,"picture":21,"vertical":22},"inputLookupLength":23,"outputLookup":{"AccordionRegular":0,"AccordionLeft":1,"AccordionRight":2,"TabsRegular":3,"TabsRight":4,"TabsLeft":5,"DotsRegular":6,"FlipCards":7,"ScrollCards":8,"Carousels":9,"Hotspots":10,"StepbyStep":11,"VerticalTabs":12,"DotsVerticalRegular":13,"DotsVerticalLeft":14,"DotsVerticalRight":15,"DotsRegularLeft":16,"DotsRegularRight":17},"outputLookupLength":18,"options":{"inputSize":0,"outputSize":0,"binaryThresh":0.5,"hiddenLayers":[20]},"trainOpts":{"activation":"sigmoid","iterations":25000,"errorThresh":0.011,"log":false,"logPeriod":10,"leakyReluAlpha":0.01,"learningRate":0.3,"momentum":0.1,"callbackPeriod":10,"timeout":"Infinity","beta1":0.9,"beta2":0.999,"epsilon":1e-8}}