{"type":"NeuralNetwork","sizes":[23,20,18],"layers":[{"weights":[],"biases":[]},{"weights":[[0.0580432303249836,-0.37313613295555115,-0.8976770043373108,-0.2844387888908386,-0.20044143497943878,0.22957831621170044,0.3514849543571472,0.436845988035202,0.4517379403114319,0.16947069764137268,0.60707026720047,0.10861530900001526,-0.010972857475280762,0.06333327293395996,-0.013131031766533852,0.1919010430574417,0.01489294320344925,-0.0893736332654953,-0.14866624772548676,0.624467134475708,0.08999253809452057,0.17037101089954376,-0.11421661823987961],[0.6394665837287903,0.38640686869621277,0.16822052001953125,-0.6419024467468262,-0.531554639339447,-0.20402510464191437,0.29388657212257385,1.1123974323272705,0.05724206566810608,-1.0164326429367065,-0.03331882134079933,0.22328945994377136,-0.16036203503608704,0.18686509132385254,-0.07322551310062408,0.00013951044820714742,-0.11200011521577835,-0.03919349983334541,0.35130026936531067,0.3908502459526062,-0.009697768837213516,0.09945398569107056,0.589171826839447],[0.7410672307014465,-0.6376440525054932,-0.5507593750953674,-0.7036920189857483,0.4394577145576477,0.11561796069145203,-0.5147083401679993,-0.6872090697288513,0.8270593881607056,1.1352986097335815,0.026917608454823494,-0.039178889244794846,-0.16691480576992035,-0.11750203371047974,0.150890052318573,0.05583874508738518,0.25219255685806274,-0.004132971167564392,-0.5254201889038086,0.5134894847869873,0.3771953582763672,0.10546651482582092,-0.14035926759243011],[-0.46098172664642334,0.217177614569664,0.24198850989341736,-0.5629343390464783,0.4363465905189514,1.037352442741394,0.18180154263973236,0.9633852243423462,-0.42549803853034973,-0.17395323514938354,-0.03885500133037567,-0.14479221403598785,0.01746131107211113,-0.21501095592975616,0.05668860673904419,-0.18496279418468475,0.07711866497993469,-0.11116747558116913,-0.22577489912509918,-1.1173375844955444,-0.20574979484081268,-0.46690672636032104,0.1745491921901703],[-0.7215226292610168,0.4530605673789978,0.39561304450035095,0.4280635714530945,0.20476920902729034,-0.22490110993385315,-0.380813330411911,-0.773423433303833,0.559785783290863,0.6629167199134827,-0.0009947227081283927,0.2151457667350769,0.14128123223781586,-0.09050121903419495,-0.12926866114139557,0.13339823484420776,0.32471519708633423,0.2084106206893921,-0.708849310874939,0.05482243746519089,-0.06273070722818375,0.05805354565382004,-0.054403383284807205],[0.5164481401443481,0.1414276659488678,-0.11408460140228271,-0.025579718872904778,-0.1197473332285881,-0.42067357897758484,-0.37921595573425293,-0.35753488540649414,-0.956368625164032,0.9402105212211609,-0.030047379434108734,0.2137807160615921,0.19210995733737946,-0.0235289353877306,0.03420470282435417,0.2566816508769989,0.11705309897661209,0.20046722888946533,0.14246755838394165,0.66466224193573,0.39249178767204285,-0.02317752316594124,-0.4789188504219055],[-0.28790420293807983,0.45484957098960876,0.29515784978866577,0.25398316979408264,-1.1031163930892944,-0.008547283709049225,1.0311814546585083,0.5390090942382812,-0.9811885356903076,0.13301104307174683,0.010756263509392738,-0.030722884461283684,0.1658734381198883,0.04314439743757248,0.08609948307275772,0.06399413198232651,0.5210731029510498,0.2747938930988312,-1.5983755588531494,-0.09966564923524857,-0.007097606547176838,-0.07604914903640747,0.3696725070476532],[0.008967653848230839,0.5823025703430176,0.6596820950508118,-0.6152532696723938,0.7385534048080444,-0.02324625477194786,-0.8201860189437866,-0.9632426500320435,1.0122476816177368,-0.549067497253418,-0.009597862139344215,0.01508458610624075,0.0896555557847023,-0.13019384443759918,0.11493371427059174,-0.007284402847290039,0.1354706585407257,-0.12127858400344849,-0.1669372320175171,0.09497325122356415,0.045237861573696136,0.0643896833062172,1.268652081489563],[0.2986370325088501,0.9172946810722351,0.7608722448348999,0.3654608428478241,0.64119952917099,-0.08668706566095352,-0.7621197700500488,0.5530779361724854,-1.0099178552627563,0.3354654014110565,0.02940252050757408,-0.19272619485855103,-0.25190070271492004,-0.31157228350639343,-0.18334944546222687,0.0016612769104540348,-0.13082678616046906,0.5854577422142029,-0.37204453349113464,-0.041742946952581406,-0.0822298675775528,0.10708952695131302,1.5690933465957642],[0.7288945913314819,0.01616758666932583,-0.2043539136648178,-0.3364753723144531,0.43144720792770386,0.8928694128990173,0.1632183939218521,-0.18030095100402832,-0.3769823908805847,-0.09081070125102997,-0.14209602773189545,-0.054738689213991165,0.004291150253266096,0.082939513027668,0.2004508078098297,0.16872431337833405,-0.022803205996751785,0.7064098119735718,-0.4994163513183594,-0.19930660724639893,-0.0832519680261612,0.008564983494579792,1.002607822418213],[-0.060507770627737045,0.7420423626899719,0.3782641589641571,0.5669510960578918,-1.0609772205352783,-0.21374885737895966,0.9655373096466064,-0.9356528520584106,0.7809844613075256,-0.02274860441684723,0.019070550799369812,0.05591268464922905,-0.15123745799064636,-0.22893644869327545,-0.18065086007118225,0.0335833765566349,-0.1985105276107788,0.7268901467323303,-0.4533446431159973,0.02413371577858925,-0.00627440121024847,-0.010800261050462723,0.9160148501396179],[0.7860349416732788,0.2214842438697815,0.68596351146698,-0.3757705092430115,-0.22509124875068665,-0.7058455944061279,0.06221623718738556,0.3083254098892212,0.8821175694465637,-1.1893126964569092,-0.010169287212193012,-0.1888689249753952,0.006240062415599823,-0.2816654145717621,-0.219843327999115,-0.15634630620479584,-0.049098651856184006,-0.08793385326862335,0.3651324212551117,-1.4531418085098267,-0.7687729001045227,-0.32735544443130493,-0.5620068311691284],[0.8617408871650696,0.09881219267845154,0.23817533254623413,1.282238245010376,0.1762646585702896,1.1222407817840576,0.16169852018356323,-0.939834713935852,0.3265301287174225,-0.6536207795143127,-0.05181882530450821,-0.2873162031173706,-0.13013629615306854,-0.22010363638401031,-0.2702282965183258,-0.00956530962139368,-0.3464553654193878,-0.26968392729759216,0.8125273585319519,-1.319495677947998,-0.09795427322387695,-0.584945559501648,0.20873141288757324],[0.8490046262741089,-0.7232632637023926,-0.8870759606361389,0.5712575912475586,0.729617178440094,-0.07765095680952072,-0.6660639047622681,1.0566189289093018,0.5980023741722107,-1.1144158840179443,0.0338313952088356,0.08271341025829315,0.17746073007583618,-0.012870199047029018,-0.09670783579349518,0.12746120989322662,-0.06947542726993561,0.6254366636276245,-0.45270290970802307,0.34160304069519043,0.29995980858802795,-0.22572122514247894,1.6349608898162842],[0.6825905442237854,0.2056507021188736,0.41645294427871704,-0.7726894617080688,-0.9420564770698547,-0.10433096438646317,0.7944280505180359,0.589613139629364,-0.08970677852630615,0.6855992674827576,0.03827892988920212,-0.328002005815506,0.040110860019922256,-0.30562207102775574,-0.10961096733808517,-0.27850398421287537,0.09758160263299942,-0.04215100035071373,0.498878538608551,-2.358262300491333,-0.8756514191627502,-0.6291892528533936,0.08253400027751923],[0.24954934418201447,-0.7383720874786377,-0.9836921691894531,0.7022789716720581,0.15032295882701874,0.4699689447879791,0.25948184728622437,0.255702942609787,0.468914657831192,0.6203433871269226,0.4092680513858795,-0.1038527712225914,-0.327824205160141,-0.3504994809627533,-0.16208891570568085,-0.01073768176138401,-0.19507484138011932,-0.07310359925031662,0.6883698105812073,0.52219557762146,0.35537591576576233,0.11325820535421371,-0.200171560049057],[-0.8820285201072693,-0.6855762600898743,-0.050940681248903275,-0.17533650994300842,0.017118344083428383,-0.3340896964073181,-0.4827946722507477,0.3746938407421112,0.0600319430232048,1.1753336191177368,-0.07048522680997849,0.21434451639652252,0.1945977658033371,0.12081605195999146,-0.05399519205093384,0.19084253907203674,-0.6596763134002686,-0.018991095945239067,1.9745326042175293,0.11212492734193802,-0.08908575773239136,-0.11165102571249008,1.6044049263000488],[-0.5985721945762634,0.6121144890785217,0.23944956064224243,0.4637543857097626,0.9071776270866394,-0.09118711948394775,-0.9032836556434631,0.2652530074119568,-0.3371819853782654,0.4980074465274811,0.06577310711145401,-0.12548360228538513,-0.14398498833179474,-0.02682703733444214,-0.24472029507160187,0.06047387421131134,-0.3740366995334625,-0.7862607836723328,1.2313201427459717,0.07511886209249496,0.028286652639508247,-0.03320629522204399,0.285695344209671],[-0.6884950995445251,-0.31892967224121094,0.1853911280632019,-0.5215321779251099,-0.025826172903180122,0.7521625757217407,0.14368599653244019,0.7968564033508301,0.4742377996444702,-0.5869390964508057,0.009434230625629425,0.15604017674922943,0.24237078428268433,0.1341038942337036,0.28948140144348145,0.14056941866874695,-0.08055903017520905,-0.06063617765903473,-0.08758069574832916,0.030636729672551155,-0.07201973348855972,-0.03255617246031761,-0.07759738713502884],[0.8407767415046692,-0.5031300187110901,0.08697520941495895,0.6852319836616516,0.2314683496952057,0.6332334876060486,0.18662895262241364,-0.5638500452041626,-0.8462840914726257,-0.20733587443828583,-0.03823038935661316,0.26239582896232605,0.2120879888534546,0.11568553000688553,0.11635864526033401,0.1349429190158844,-0.06499454379081726,0.019230486825108528,-0.01625964418053627,-0.2045280635356903,-0.05511503294110298,-0.22219261527061462,-1.6667574644088745]],"biases":[-0.10586456954479218,0.05471057444810867,-0.1294759213924408,0.22753222286701202,0.2835705280303955,-0.035605061799287796,0.1179109737277031,0.2569512128829956,0.17787784337997437,-0.19604012370109558,0.3610125780105591,0.47273778915405273,0.19738300144672394,-0.04439447447657585,0.7443444728851318,0.035462599247694016,-0.12059535831212997,0.30695581436157227,0.1049884781241417,-0.017260681837797165]},{"weights":[[-0.5752575993537903,-0.02343923971056938,0.8211548328399658,-0.8039051294326782,-1.4731941223144531,0.12293435633182526,-1.133043646812439,-0.5277690291404724,0.26560455560684204,0.22714656591415405,-0.15769259631633759,1.0191975831985474,0.015431849285960197,0.4132407605648041,0.7425174713134766,-0.29433131217956543,-1.2412290573120117,-1.2758941650390625,-1.7851698398590088,0.6912948489189148],[-1.955230474472046,-0.33862972259521484,-1.1306971311569214,0.40044966340065,0.1319790929555893,-0.4757078289985657,-0.03570416942238808,0.7462383508682251,0.7719998359680176,-0.379504531621933,0.2518448531627655,1.5091732740402222,0.17408578097820282,-1.9009673595428467,1.5673879384994507,-1.7898467779159546,-0.6129276752471924,0.09855927526950836,-0.36309197545051575,-0.3015604317188263],[-1.028843879699707,-1.1007907390594482,-0.7468302249908447,-1.115545392036438,0.11258569359779358,-0.6672243475914001,0.1244027242064476,-1.8116880655288696,0.35660630464553833,-0.9203833341598511,0.5598636865615845,-0.37615135312080383,0.562188982963562,-0.1639486402273178,-0.887031078338623,0.0494251623749733,-0.8960872292518616,0.5842837691307068,-1.4924968481063843,1.2416630983352661],[-0.42114004492759705,-1.2883610725402832,0.3702864646911621,1.3360542058944702,-0.5051911473274231,-1.0169986486434937,-1.6662163734436035,0.206440269947052,0.315376877784729,0.37881210446357727,-1.8009917736053467,-0.8145911693572998,0.5742167830467224,0.08278816938400269,-1.0541341304779053,0.019098026677966118,-0.6318482756614685,0.5082638263702393,0.04483192786574364,0.0473627932369709],[0.13086380064487457,-0.5459824800491333,-0.5583422183990479,1.1472615003585815,-1.018698811531067,-1.0488625764846802,0.5317783355712891,-1.3561800718307495,-1.0920145511627197,0.10150595754384995,0.14709235727787018,-0.6156991720199585,0.8727407455444336,-1.043447494506836,0.52071213722229,0.1612253040075302,-1.083289384841919,-1.287169337272644,0.3152659833431244,0.2577487528324127],[-0.05135390907526016,0.6563506722450256,-0.8446675539016724,0.8258241415023804,-1.3162788152694702,-0.834376335144043,0.08907775580883026,-1.5429491996765137,0.40512534976005554,-0.8097173571586609,-1.3338884115219116,0.26454082131385803,-1.6039739847183228,0.6397718191146851,0.6626361608505249,-0.1499336063861847,0.0346541665494442,-0.051331061869859695,0.3092673420906067,-0.9915010929107666],[-0.005057756323367357,-0.36951014399528503,0.7713770866394043,-0.4390757977962494,0.09904288500547409,-1.6327829360961914,-1.470548391342163,0.7274513244628906,-1.4141342639923096,-0.8623082637786865,0.565536618232727,1.0884801149368286,-0.2643294036388397,0.24132318794727325,0.05431445688009262,0.10137950628995895,-0.054064150899648666,-0.5938073396682739,0.17642930150032043,-1.3764674663543701],[-0.3609294891357422,-1.4947994947433472,1.3933570384979248,-0.2656046152114868,0.13804739713668823,0.3268735706806183,-0.365995317697525,-0.787950336933136,-0.013389267958700657,-0.5952621102333069,-0.273236483335495,-1.0102815628051758,-1.1911805868148804,-1.5906431674957275,1.1266840696334839,0.2556401491165161,1.2117583751678467,0.12496539950370789,-0.9122044444084167,-0.7344644069671631],[-0.1815441995859146,0.044567886739969254,1.2483566999435425,-0.5128293037414551,0.04103676602244377,0.21433058381080627,0.3790157735347748,0.04976791888475418,-1.3904486894607544,-0.1776772439479828,-0.9199488162994385,-0.8082088232040405,-1.1384952068328857,0.21211615204811096,-1.0227805376052856,-0.5727772116661072,-1.0593547821044922,-1.7600574493408203,-0.030789921060204506,0.3622278571128845],[-0.1386077105998993,0.23734509944915771,0.5900262594223022,-0.651204526424408,-0.3989329934120178,0.1666618436574936,-0.9750747084617615,0.036182861775159836,-1.1541801691055298,-0.12733282148838043,-1.1177315711975098,-0.44282275438308716,-0.503138542175293,-0.0009602196514606476,-0.4578591585159302,-0.03434688225388527,0.5091665983200073,-1.0116736888885498,-0.07694323360919952,0.09637841582298279],[0.5015757083892822,0.18019136786460876,-0.934282124042511,-0.38180869817733765,-0.08740119636058807,0.1329788714647293,0.14741195738315582,0.3443002998828888,0.18001703917980194,-0.29449471831321716,0.27666381001472473,-0.17395144701004028,-0.8637232184410095,-0.47371581196784973,-0.6193175315856934,-0.7034226059913635,-1.3143683671951294,-0.6629047393798828,-0.45524996519088745,0.004958315286785364],[0.4040365517139435,0.6098204255104065,-0.8362014889717102,-0.6133290529251099,0.15746758878231049,0.17030514776706696,-0.27417823672294617,0.7100501656532288,-0.6477954983711243,-0.6591959595680237,-0.5169017314910889,-0.23363564908504486,-1.0866929292678833,-1.9637415409088135,-1.1981313228607178,-0.14284451305866241,-0.3429037034511566,0.6864848732948303,-0.390849232673645,0.2913573682308197],[0.2245016098022461,-0.03537207841873169,-0.9526255130767822,-0.6896830201148987,-0.3304773271083832,0.5718330144882202,-0.0460205115377903,0.14558890461921692,0.45502910017967224,0.09496519714593887,0.07167383283376694,-1.217652678489685,-1.1319817304611206,0.0623723566532135,-1.0156162977218628,-2.0396196842193604,0.5773929953575134,0.0325789675116539,0.5764850974082947,-2.72849178314209],[0.13063648343086243,-0.5201950669288635,-0.8499197363853455,-0.7864292860031128,-0.23746681213378906,-1.3842418193817139,0.04541924223303795,0.5847896337509155,0.2649482488632202,-0.40918442606925964,-0.10169356316328049,-0.7826514840126038,0.29648852348327637,0.32543453574180603,-0.6597689986228943,0.10916292667388916,0.8105964660644531,0.0016856249421834946,-1.2448418140411377,-1.4417475461959839],[-0.12933491170406342,-0.36818599700927734,-0.5785709023475647,-0.37414151430130005,-0.2617443799972534,-0.06355710327625275,-0.30511823296546936,-0.1469108611345291,-0.26061683893203735,-0.081134133040905,-0.16591237485408783,-0.40171971917152405,-0.2612813115119934,-0.17414285242557526,-0.6378412246704102,-0.18607382476329803,0.09832479804754257,-0.491204172372818,-0.19025471806526184,-0.3722345530986786],[-0.23723441362380981,-0.21910163760185242,-0.3624138832092285,-0.385483980178833,-0.1514047235250473,0.026600467041134834,-0.47296443581581116,-0.2038639783859253,-0.5761187076568604,-0.45690464973449707,-0.22899796068668365,-0.26669812202453613,-0.06321635097265244,-0.3709307610988617,-0.4419286251068115,-0.33296746015548706,-0.1746087521314621,-0.2873322665691376,-0.2351578176021576,-0.13166563212871552],[-0.1501448005437851,-1.0452460050582886,-0.808738112449646,-0.6304844617843628,-0.09495770931243896,0.25613126158714294,0.24449151754379272,-0.8126174211502075,-0.6883338093757629,-0.01803814060986042,0.2210749387741089,-0.305497407913208,-0.4338429868221283,0.16370515525341034,-0.6255860924720764,-0.03655026853084564,0.1471264809370041,-1.1044660806655884,0.23036378622055054,0.15738032758235931],[0.08964789658784866,-0.9248480796813965,-0.9741985201835632,-0.6632683277130127,-0.14800302684307098,0.35540300607681274,-0.7294177412986755,-1.0290688276290894,-1.334421992301941,-0.8779101371765137,-0.8583301901817322,-0.45706841349601746,0.2579330503940582,0.01366110797971487,-0.6460487246513367,0.16626083850860596,0.6573924422264099,0.3243574798107147,0.3061254024505615,-0.0012461553560569882]],"biases":[-0.33544594049453735,-0.09357301890850067,-0.29384613037109375,-0.4963167607784271,-0.568639874458313,-0.03278617933392525,-0.2922648787498474,-0.2828601896762848,-0.41655072569847107,-0.5988836884498596,-0.5004903078079224,-0.44589027762413025,-0.644437313079834,-0.7258960604667664,-0.578738808631897,-0.55767422914505,-0.5109710693359375,-0.6119529604911804]}],"inputLookup":{"accordion":0,"tabs":1,"tab":2,"dots":3,"flip":4,"cards":5,"scroll":6,"carousel":7,"hotspots":8,"stepbystep":9,"interaction":10,"with":11,"a":12,"graphic":13,"on":14,"the":15,"lr":16,"l":17,"r":18,"picture":19,"left":20,"right":21,"vertical":22},"inputLookupLength":23,"outputLookup":{"AccordionRegular":0,"TabsRegular":1,"DotsRegular":2,"FlipCards":3,"ScrollCards":4,"Carousels":5,"Hotspots":6,"StepbyStep":7,"AccordionLeft":8,"AccordionRight":9,"TabsLeft":10,"TabsRight":11,"VerticalTabs":12,"DotsVerticalRegular":13,"DotsVerticalLeft":14,"DotsVerticalRight":15,"DotsRegularLeft":16,"DotsRegularRight":17},"outputLookupLength":18,"options":{"inputSize":0,"outputSize":0,"binaryThresh":0.5,"hiddenLayers":[20]},"trainOpts":{"activation":"sigmoid","iterations":20000,"errorThresh":0.011,"log":false,"logPeriod":10,"leakyReluAlpha":0.01,"learningRate":0.3,"momentum":0.1,"callbackPeriod":10,"timeout":"Infinity","beta1":0.9,"beta2":0.999,"epsilon":1e-8}}