{"type":"NeuralNetwork","sizes":[23,20,18],"layers":[{"weights":[],"biases":[]},{"weights":[[-0.09175083041191101,0.37920936942100525,0.5616547465324402,-0.3170939087867737,0.2871067225933075,-0.2700745761394501,-0.3127248287200928,-0.5499451756477356,0.039233505725860596,-0.21002286672592163,-0.09514230489730835,0.21038907766342163,0.08531469851732254,0.4212231934070587,0.18646179139614105,0.2677595317363739,-0.1243126168847084,0.017805108800530434,0.19358491897583008,-1.497043490409851,-0.3348398804664612,-0.5115689039230347,-0.1281215101480484],[0.8283960223197937,0.002808939665555954,0.12981273233890533,0.4409840703010559,1.1121708154678345,-0.011252541095018387,-1.3325271606445312,0.7670781016349792,0.46958136558532715,-1.2438746690750122,-0.010249250568449497,-0.0663967952132225,0.06425030529499054,-0.10062968730926514,0.06554532051086426,-0.24070799350738525,-0.07455169409513474,0.22667016088962555,-0.4266950488090515,-0.4529121220111847,-0.0010429625399410725,-0.15437424182891846,-0.22451931238174438],[0.7876524329185486,0.3876359760761261,0.6034629940986633,-0.8159250020980835,-0.47559258341789246,0.11112513393163681,0.4797511398792267,0.8161461353302002,-1.0242071151733398,-0.5090171694755554,-0.036939918994903564,-0.04302307218313217,0.1943422257900238,-0.012867984361946583,-0.07477805018424988,0.0040901415050029755,0.20433089137077332,-0.13177281618118286,0.29358479380607605,-0.2215077430009842,-0.44916632771492004,0.29685917496681213,0.08919330686330795],[-0.7048044800758362,0.585899829864502,0.4983638525009155,0.38749611377716064,-1.1294116973876953,-0.033386290073394775,0.8599404692649841,0.4044843018054962,0.24537016451358795,-0.22822920978069305,0.018450429663062096,-0.024552466347813606,-0.10346817970275879,-0.18355783820152283,-0.003924158401787281,0.0818130224943161,-0.014840868301689625,0.03128631040453911,0.42994585633277893,-0.04779346287250519,0.006367134395986795,-0.02797495201230049,0.22329004108905792],[-0.5629437565803528,0.13690467178821564,0.6947058439254761,-0.5257096886634827,0.39409884810447693,0.6318206787109375,-0.01822972111403942,-0.26702210307121277,-0.7022145986557007,0.4024532735347748,-0.06256864964962006,0.09839138388633728,0.14303384721279144,0.08443576097488403,0.17725147306919098,0.02099672332406044,0.3822672665119171,0.5633053779602051,-1.1639751195907593,-1.1115316152572632,-0.4493776261806488,-0.4176222085952759,1.8026710748672485],[-0.10967294871807098,-0.43164244294166565,-0.9001516699790955,0.4967266619205475,0.18979352712631226,0.5383052825927734,0.029823841527104378,0.5553588271141052,-0.13128560781478882,-0.02638486959040165,0.3788881003856659,0.081703782081604,-0.13691140711307526,-0.04685690626502037,0.11991915106773376,0.0965673103928566,0.04440344497561455,0.12770962715148926,0.062125902622938156,0.20359086990356445,-0.08278954774141312,-0.05946371331810951,0.002281546825543046],[-0.8681783080101013,0.3692146837711334,-0.2148941606283188,-0.30667394399642944,0.649669349193573,-0.034301117062568665,-0.8211797475814819,0.8205362558364868,1.0018266439437866,-0.1799030900001526,-0.011558731086552143,-0.0691312775015831,-0.11027906090021133,0.04046281799674034,0.0074587794952094555,-0.17384174466133118,-0.06438835710287094,-0.2979847490787506,0.28390201926231384,-0.001992868958041072,0.0842399075627327,0.1478629857301712,1.4481170177459717],[-0.7464163303375244,0.3585686981678009,0.6965789794921875,0.5302020907402039,0.04084727168083191,-0.20461304485797882,0.07424205541610718,-0.08101914823055267,0.16405916213989258,0.7256507873535156,0.6579257249832153,-0.10913114994764328,-0.013737446628510952,0.08153488487005234,0.20261819660663605,-0.02390364557504654,-0.08530164510011673,-0.09013098478317261,0.09450236707925797,-1.7472023963928223,-0.7508784532546997,-0.4473038613796234,-0.4182446599006653],[-0.29881981015205383,0.2118193358182907,0.6163334846496582,-0.3965736925601959,0.9490722417831421,0.08483478426933289,-0.8691735863685608,0.8121959567070007,-0.8338038921356201,0.8996434807777405,0.03605908527970314,-0.22634954750537872,-0.32884517312049866,-0.2887568473815918,-0.20963124930858612,0.0037773153744637966,-0.20092706382274628,0.1355975866317749,-0.1735391765832901,-2.029629945755005,-0.6972946524620056,-0.7616919875144958,-0.09822815656661987],[0.5550512671470642,-0.5191043019294739,-0.5993857979774475,-0.6591247320175171,0.0678577721118927,0.7164494395256042,0.29963162541389465,0.8154610991477966,0.6917693614959717,-0.48313599824905396,0.021273819729685783,-0.15378110110759735,-0.2036924958229065,-0.2262791246175766,0.01343958918005228,-0.27717381715774536,0.14694207906723022,0.03976400941610336,-0.07389113306999207,-0.13099472224712372,0.04433409497141838,-0.12007411569356918,-0.008895468898117542],[0.8853681683540344,-0.8191914558410645,-0.5955137014389038,-0.8069169521331787,0.08147664368152618,0.5190258622169495,0.2587079405784607,-0.926184892654419,1.1738708019256592,0.09071658551692963,0.01570722833275795,-0.018410352990031242,-0.05551021173596382,0.18367497622966766,0.1679283231496811,-0.1672668606042862,0.23793619871139526,-0.08735163509845734,-0.9249867796897888,0.1401570588350296,-0.036121293902397156,-0.1636241376399994,-0.29726070165634155],[-0.7748165726661682,-0.5244306325912476,-0.4475293457508087,0.5058512687683105,0.41814497113227844,0.595306396484375,0.058250632137060165,-1.0786653757095337,-0.17176276445388794,1.379902720451355,-0.007036156021058559,0.18198297917842865,0.01353974174708128,0.24639800190925598,0.18071264028549194,0.02647176943719387,-0.02647370658814907,0.220065638422966,-0.04196036979556084,0.3336465656757355,0.2571263313293457,-0.04553034529089928,0.4260416626930237],[0.5826590657234192,-0.2825622856616974,-0.9533347487449646,-0.11778585612773895,-0.3986690640449524,0.14705586433410645,0.45402616262435913,0.43380019068717957,-0.05284678190946579,0.6152899265289307,0.4778662323951721,0.1253885179758072,0.009912127628922462,-0.11713290214538574,0.213241308927536,0.0468999445438385,-0.1310805231332779,-0.020007235929369926,-0.008524801582098007,0.7165658473968506,0.31422489881515503,-0.04698072373867035,0.07366368919610977],[0.5883060097694397,0.80535888671875,0.5089718699455261,0.4669667184352875,-0.18947133421897888,0.42446452379226685,0.5110303163528442,-0.8732906579971313,-0.0020931882318109274,-0.8746321201324463,-0.04035445302724838,0.010523750446736813,-0.06518568098545074,0.00028797914274036884,-0.2515091598033905,-0.08196176588535309,-0.17631590366363525,-0.3688604533672333,1.0034743547439575,-0.021255595609545708,0.180960014462471,-0.039671458303928375,-0.05610837787389755],[-0.3828694224357605,-0.7176440358161926,-0.5271244645118713,0.1563214212656021,-1.0135096311569214,0.0003249919682275504,0.7892412543296814,-0.6968696117401123,1.1615358591079712,0.20694829523563385,0.020506631582975388,0.276402086019516,0.08189623802900314,0.17164801061153412,0.23672997951507568,-0.005854835268110037,0.23495908081531525,-0.29887813329696655,0.3316172659397125,0.1778964251279831,0.024151094257831573,0.1790054738521576,-2.95900559425354],[0.28420355916023254,0.10481633245944977,-0.10356269776821136,1.210660457611084,0.41742581129074097,0.7605041265487671,0.2321530282497406,0.3643573224544525,-0.17344669997692108,-0.5716012716293335,-0.07617136090993881,-0.19710060954093933,0.0792846605181694,0.009910518303513527,0.015472466126084328,-0.2107335329055786,-0.18871626257896423,0.26585081219673157,-0.033857718110084534,-0.23178569972515106,-0.04844806715846062,0.07322841882705688,0.008406499400734901],[0.6453798413276672,-0.7543445825576782,-0.10460298508405685,0.38039302825927734,-0.2245209515094757,-0.9383416175842285,-0.22557398676872253,0.5035051703453064,0.5271162986755371,0.6097806096076965,0.0665069967508316,-0.30912449955940247,-0.06624385714530945,-0.20713509619235992,0.031924013048410416,-0.1910424828529358,-0.44409406185150146,-0.3647308945655823,1.4022244215011597,-0.45529165863990784,-0.23083271086215973,-0.23112225532531738,0.21893128752708435],[0.6279500722885132,0.20424200594425201,-0.06222553923726082,0.521431565284729,1.0322246551513672,-0.004460599273443222,-0.836797297000885,-0.5607687830924988,-0.35180792212486267,1.0388779640197754,-0.03589963912963867,-0.23438149690628052,-0.156040221452713,-0.13473039865493774,-0.22827014327049255,-0.2167939394712448,0.0435185506939888,-0.08755629509687424,0.27122464776039124,0.07175181806087494,0.06779619306325912,-0.191899374127388,-1.3009048700332642],[0.4392372667789459,1.2931510210037231,0.5296158194541931,-1.0868171453475952,-0.3878684937953949,-0.5763537287712097,0.1284140646457672,-1.0621787309646606,0.68274986743927,0.301363080739975,0.027189813554286957,0.11094515770673752,-0.02441735565662384,0.07479821890592575,-0.16888485848903656,-0.20269890129566193,0.1382361352443695,0.23378750681877136,-0.8170464634895325,-0.15559367835521698,0.1702631115913391,-0.024088678881525993,0.5830212831497192],[0.4393922984600067,-0.3001052141189575,-0.5281405448913574,-0.6453440189361572,-0.27832165360450745,-0.5733185410499573,-0.25150150060653687,0.8868154883384705,-0.9364913105964661,1.1657663583755493,-0.03816021606326103,0.398158460855484,0.16387444734573364,0.010529743507504463,0.36808469891548157,0.18514680862426758,-0.16429953277111053,0.1530638039112091,0.005012453533709049,0.7911152243614197,0.3499385118484497,0.14481481909751892,-0.13345469534397125]],"biases":[0.06395263224840164,0.3035171329975128,0.2887832820415497,0.3647187352180481,0.08438383042812347,-0.1743333786725998,0.1602398306131363,0.6027432680130005,0.3709096312522888,0.0012268531136214733,-0.07205338776111603,-0.27366140484809875,-0.07988819479942322,0.08858860284090042,-0.006892761681228876,0.03125960752367973,0.205705925822258,0.19583986699581146,0.1994706690311432,-0.2288118600845337]},{"weights":[[-0.6184427738189697,0.11543216556310654,0.3542819619178772,-1.1352216005325317,-1.336716651916504,-0.8016388416290283,-1.8109211921691895,-0.9543752074241638,-0.35739636421203613,0.9117931127548218,0.7117987871170044,-1.50266695022583,0.23770204186439514,-0.02721564657986164,-0.905904233455658,-0.2394448220729828,0.714537501335144,0.6520592570304871,0.9219830632209778,0.21351003646850586],[0.4909932613372803,-0.025945143774151802,0.6374181509017944,0.1541225165128708,0.7055622339248657,-1.9301936626434326,-0.4353678226470947,1.0657848119735718,1.2751158475875854,-0.628666877746582,-0.7753686308860779,-1.2122278213500977,-1.9510979652404785,0.2620116174221039,-0.7652902603149414,-0.39638203382492065,-0.168596550822258,-0.28332266211509705,0.5909026861190796,-1.2235803604125977],[-1.2212274074554443,-0.1800737828016281,-0.9883822798728943,-0.1732434779405594,-1.7096264362335205,0.096796914935112,-0.5498605966567993,0.7500767707824707,-0.49402859807014465,-1.150926947593689,-0.8052366375923157,0.026624461635947227,-1.0359985828399658,0.09051471948623657,0.7502720952033997,0.16810591518878937,0.5739660263061523,1.5450626611709595,-1.3395767211914062,-1.2697219848632812],[-0.34931087493896484,0.0652996227145195,-1.0380650758743286,-1.9007221460342407,0.5449424386024475,0.10728137195110321,0.23106709122657776,-0.3419337272644043,0.7802674174308777,0.9219407439231873,0.4163576066493988,0.5735458731651306,-0.8173004984855652,-0.2851531207561493,-1.3545223474502563,0.32221463322639465,-1.132401466369629,0.8928176760673523,-1.08399498462677,-1.0376553535461426],[-1.0426709651947021,-2.114637851715088,-0.023431655019521713,0.33459949493408203,0.2387944459915161,-0.02613525651395321,-1.04444420337677,-0.3593630790710449,-0.8256393074989319,1.2608853578567505,0.574637770652771,0.15589402616024017,0.02592657133936882,0.4472944736480713,0.45825159549713135,0.26780828833580017,-1.3179091215133667,-0.9766018986701965,-0.5716545581817627,-1.0939713716506958],[-0.7131168842315674,0.06567984074354172,0.4074670374393463,0.019055670127272606,-0.5801824927330017,-0.04109814390540123,0.4892367422580719,-0.20284153521060944,0.8245525360107422,0.9794597625732422,-1.1757192611694336,-1.553784728050232,-0.17488615214824677,-1.7048885822296143,-0.8698614835739136,-0.2829107344150543,0.5699994564056396,-0.7425326704978943,-1.5181565284729004,0.7987017631530762],[-0.1854795664548874,-0.11253584921360016,-1.3676538467407227,-0.09376343339681625,-1.0685690641403198,-0.8048431873321533,1.160962700843811,0.038631025701761246,-0.8321645259857178,0.8736990094184875,1.1125767230987549,-0.924648642539978,-0.7083519101142883,-0.7485843896865845,1.1664105653762817,-0.8595033288002014,0.5932338237762451,-0.6339963674545288,0.5394093990325928,-1.266754388809204],[-0.5167321562767029,-2.2854366302490234,-1.1123838424682617,-0.6137720346450806,-0.10618314146995544,-0.6926903128623962,-0.2675536572933197,0.6140222549438477,0.8556373715400696,-0.2541958689689636,-0.03206585347652435,0.6881110072135925,-0.03500072658061981,-1.7496297359466553,0.032329704612493515,-1.2780177593231201,0.7067312002182007,0.7941679358482361,0.05977337062358856,0.6524706482887268],[0.3580992519855499,0.2285493165254593,0.44565707445144653,-1.2949156761169434,0.10901758819818497,-0.2024950087070465,-1.4870729446411133,-0.6021413207054138,-0.7949931621551514,-0.7114213109016418,1.6442636251449585,0.04351399093866348,-0.40712419152259827,-1.2606728076934814,0.2696011960506439,-1.037126898765564,-1.7053859233856201,-0.8003594279289246,0.04217313602566719,0.2634110152721405],[0.32417765259742737,-0.054108504205942154,0.4002123177051544,-1.1434905529022217,-1.057307243347168,-0.2617591917514801,-0.9471039175987244,-0.47015103697776794,-0.5652440190315247,-0.6360812187194824,0.23157726228237152,0.13741718232631683,-0.20656485855579376,0.21399261057376862,0.4283688962459564,-1.1707680225372314,0.7945442795753479,-0.646308958530426,-0.8324659466743469,-0.027433013543486595],[-0.23777450621128082,-0.25258922576904297,0.014147548004984856,-0.10612554848194122,-0.026866598054766655,0.3876725137233734,-0.3181478977203369,-0.093625508248806,-0.027326496317982674,-0.8614779710769653,-0.7152873277664185,-0.579497754573822,0.2511463463306427,-0.2543327808380127,-0.9620784521102905,-0.7664344310760498,-0.950160801410675,-0.2970399260520935,0.6069236993789673,-0.3764919936656952],[-0.8340178728103638,-0.37255769968032837,0.5386834144592285,0.35926368832588196,-0.8701015114784241,0.5653966069221497,-0.16269075870513916,-0.8146864771842957,-0.6522623896598816,-0.8752642273902893,-1.0056768655776978,-0.7862857580184937,0.40348103642463684,0.36490973830223083,0.309507817029953,-0.7519668340682983,-1.2148151397705078,-0.35546964406967163,0.4174704849720001,-0.14325354993343353],[0.5510104298591614,-0.48140960931777954,0.5502124428749084,-0.10190083086490631,0.15900903940200806,-0.1664445698261261,0.774640679359436,-1.3931223154067993,-1.2405647039413452,-0.5948656797409058,-1.1579676866531372,0.715665876865387,-0.3459564745426178,-0.15627028048038483,-2.0832667350769043,-1.0888497829437256,-0.862436056137085,-0.9067627787590027,1.0496982336044312,0.7407214045524597],[-1.4627290964126587,-0.08405297249555588,-1.1450179815292358,-0.03877139836549759,0.7032384276390076,-0.13396480679512024,0.1478385031223297,0.01564127206802368,-0.5356591939926147,-0.807366669178009,-0.6565555334091187,0.1441066861152649,0.1499936729669571,0.017248034477233887,-1.4042185544967651,0.10772489756345749,0.7893229126930237,-1.3951208591461182,-0.6231144666671753,-1.446210265159607],[0.3670777678489685,0.01566849648952484,-1.1422234773635864,-0.10272692143917084,0.5730752348899841,0.06309477984905243,-0.26878124475479126,-0.6225100755691528,-0.6369340419769287,-0.3970508873462677,-0.8122230768203735,0.014993563294410706,-0.13940316438674927,-0.6785355806350708,-0.8649538159370422,0.06478288769721985,-0.9141278266906738,-0.5759056210517883,-0.7939919829368591,0.36630505323410034],[0.5284215807914734,-0.3878360986709595,-0.8872823715209961,-0.023236088454723358,0.19095325469970703,-0.32682695984840393,0.2768271863460541,-0.7806692123413086,-0.7264963388442993,-0.536730945110321,-0.7616325616836548,-0.25631773471832275,-0.352067232131958,0.15280590951442719,-0.8245490193367004,-0.06376153975725174,0.9963716268539429,-0.7382580637931824,-0.9707623720169067,0.49281230568885803],[0.4612860679626465,-0.08528604358434677,-1.3921717405319214,-0.28982850909233093,0.35983192920684814,-0.1089174821972847,-0.6967645883560181,-0.7229002118110657,-0.5796605944633484,-0.33966103196144104,-1.059465765953064,-0.01540809404104948,-0.2323276251554489,-0.6930611729621887,1.1352685689926147,0.15733957290649414,-1.2266417741775513,-0.7277290225028992,-0.7815520167350769,0.14281097054481506],[0.7161524295806885,-0.44402584433555603,-1.173484444618225,0.027060523629188538,-1.4710795879364014,-0.20641492307186127,-0.7130572199821472,-0.7179558277130127,-0.5592685341835022,-0.550815999507904,-0.9817550778388977,-0.15670745074748993,-0.07047858089208603,0.055479995906353,0.5386234521865845,0.0816814973950386,0.7160402536392212,-0.9196029901504517,-0.9787446856498718,0.5892482995986938]],"biases":[-0.48866111040115356,0.14209647476673126,-0.5097394585609436,-0.5486551523208618,-0.5225290656089783,-0.1925784796476364,-0.3920074701309204,-0.42072054743766785,-0.42293664813041687,-0.4667266011238098,-0.767998456954956,-0.3419417142868042,-1.0394046306610107,-0.5032051801681519,-0.5389797687530518,-0.5932181477546692,-0.2709929943084717,-0.6850439310073853]}],"inputLookup":{"accordion":0,"tabs":1,"tab":2,"dots":3,"flip":4,"cards":5,"scroll":6,"carousel":7,"hotspots":8,"stepbystep":9,"interaction":10,"with":11,"a":12,"graphic":13,"on":14,"the":15,"lr":16,"l":17,"r":18,"picture":19,"left":20,"right":21,"vertical":22},"inputLookupLength":23,"outputLookup":{"AccordionRegular":0,"TabsRegular":1,"DotsRegular":2,"FlipCards":3,"ScrollCards":4,"Carousels":5,"Hotspots":6,"StepbyStep":7,"AccordionLeft":8,"AccordionRight":9,"TabsLeft":10,"TabsRight":11,"VerticalTabs":12,"DotsVerticalRegular":13,"DotsVerticalLeft":14,"DotsVerticalRight":15,"DotsRegularLeft":16,"DotsRegularRight":17},"outputLookupLength":18,"options":{"inputSize":0,"outputSize":0,"binaryThresh":0.5,"hiddenLayers":[20]},"trainOpts":{"activation":"sigmoid","iterations":20000,"errorThresh":0.011,"log":false,"logPeriod":10,"leakyReluAlpha":0.01,"learningRate":0.3,"momentum":0.1,"callbackPeriod":10,"timeout":"Infinity","beta1":0.9,"beta2":0.999,"epsilon":1e-8}}